421 20
SS -0.6142775 0.037037577 -0.46717882 -0.25453615 0.38021946 0.5496361 0.059299912 0.56557536 -0.06509375 -0.22630082 -0.3021283 0.08234768 -0.4068794 0.018436352 0.38014016 0.5225208 0.4466535 0.712916 0.39842558 -0.31635442
PP -0.6377789 0.13118562 -0.85804313 -0.06520985 0.115696855 0.26416463 -0.45329648 0.06236308 0.5012306 0.10418253 -0.5459802 0.2485514 0.5928472 -0.027364204 0.58969116 -0.19032851 -0.70251215 0.6547617 0.114964075 -0.11414952
GG -1.0046468 -0.055134945 0.1458297 1.0702554 0.07692889 0.5205675 0.49069905 0.51387006 -0.013408244 0.2826867 -0.16592917 0.11632423 0.06655732 -0.05055431 0.31546283 -0.19939339 -0.43712604 0.45779026 0.29070705 0.1048276
EE -0.83712804 0.6420478 0.5989261 -0.10911454 -0.12145005 0.36766434 0.24080737 -0.26639768 0.2721507 -0.8275124 -0.40106857 0.21970059 0.19969825 0.36317542 0.3325959 0.5258471 0.13678987 0.04760101 -0.5557134 -0.066187605
AA -0.6336608 0.1541125 -0.28348213 0.51165444 0.041496348 -0.28072244 0.035647467 0.2518707 0.50064284 -0.08172929 0.12256876 0.2412867 -0.09856626 -0.58777297 0.44407886 0.8778929 -0.33415538 0.6433082 -0.35309628 0.53113943
LL -0.0043856865 0.26550925 -0.023385864 0.09138748 0.09912032 -0.023413936 -0.010342155 -0.47949964 -0.018087324 -0.30215988 -0.6035112 0.33218944 0.26745886 0.062864795 -0.06400992 0.66017485 0.17995729 0.5273449 0.34825787 0.6095221
SP -0.77370924 0.16498016 -0.6908132 -0.34553775 0.28058776 0.25553772 -0.30065566 0.50093526 0.2715313 -0.09388672 -0.21794035 0.11348077 0.16295488 0.21655358 0.3298428 0.3265274 -0.18905796 0.5030149 0.46703073 -0.25534332
PS -0.45347604 -0.10084225 -0.6799346 -0.2105307 0.28949708 0.47285286 -0.21280138 0.096157946 0.046836212 0.08487346 -0.6035894 0.25233436 -0.07555372 -0.13228285 0.6078591 0.1858671 -0.09602322 0.69325286 0.21061903 -0.23857555
PG -0.6186011 -0.046090808 -0.3927098 0.44762892 0.084269226 0.19033073 0.07490822 0.2765039 0.22981182 0.4660584 -0.35723072 0.3535952 0.47784108 -0.14042008 0.6171127 -0.21598056 -0.53488207 0.5599696 0.18373062 0.17523001
SL -0.26097804 0.396646 -0.2243498 -0.03531289 0.33178258 0.12101242 -0.029856127 0.046142396 -0.2438333 -0.26591218 -0.2986145 0.1648164 -0.07468409 0.00929069 0.08345697 0.3874841 0.4313204 0.711224 0.39536297 0.1322604
LS -0.17331275 -0.166287 -0.21019202 -0.12792507 0.27511048 0.42378682 -0.024929216 0.1033301 0.20232192 -0.2569939 -0.6161709 0.26656985 -0.07733589 0.14375389 0.05638481 0.7244162 0.25303784 0.5944862 0.42961338 0.13024998
SG -0.7825386 0.00031510412 -0.08280463 0.24873465 0.3323799 0.33372495 0.36346498 0.751667 0.006800619 0.2559989 0.0029862558 0.23452449 0.052937634 -0.018185705 0.19673857 0.11424734 0.083895005 0.47372848 0.48843017 -0.01377099
GS -0.75819916 -0.05318724 -0.03287413 0.48440483 0.10925901 0.6123328 0.28786597 0.30820188 -0.19789127 0.044754256 -0.47994038 -0.13358872 -0.36133668 -0.026093636 0.42200577 -0.033767544 -0.034709565 0.6932182 0.12652908 -0.16262381
PA -0.61121964 0.18617633 -0.92703474 0.19124617 0.28420985 -0.03452866 -0.11402174 -0.012828131 0.16920984 0.08357538 -0.03739375 0.23312695 0.5007209 -0.38569215 0.6757896 0.23725332 -0.46822354 0.6557752 -0.17342672 0.3033333
GP -0.8177743 0.25773612 -0.32149833 0.52950203 -0.16137156 0.21598433 -0.001872212 0.16532089 0.1459103 0.1514218 -0.46664616 -0.065262765 0.34275535 0.24912396 0.43930805 -0.1306856 -0.7213524 0.6598799 0.07667722 0.026880508
AS -0.41778594 0.039637886 -0.19248402 0.101040654 0.018608443 0.23983856 -0.008583587 0.37228242 0.35643739 0.11286726 -0.45348966 0.20312996 -0.54681116 -0.3608908 0.52796996 0.70795363 0.121816225 0.6367072 0.025538085 0.067174174
LE -0.3351641 0.27234915 0.22228143 -0.03389274 0.092499256 0.104343764 -0.2677052 -0.66486484 0.1867407 -0.5487253 -0.41899619 0.38230953 0.2617203 0.4523668 0.11447344 0.62219983 0.15893023 0.301408 -0.14976157 0.39127907
LP -0.42135096 0.08095209 -0.60089576 -0.087948315 -0.045990516 0.12820628 -0.17581712 -0.09558532 0.48328075 0.013756151 -0.5632136 0.23799175 0.6019247 0.34939992 0.084479384 0.4777534 -0.30084607 0.5100698 0.34118378 0.12802407
AL -0.03458763 0.4663206 0.063511096 0.42044306 -0.08804626 -0.15502302 -0.13200748 -0.19151968 0.11740532 -0.0075049694 -0.48857775 0.25427774 -0.052628778 -0.33802643 0.2608127 0.75186485 0.054843746 0.65754265 0.10065204 0.6130474
RG -0.8635109 0.52723545 0.31828162 0.822032 0.40516016 0.18650852 0.13193588 0.41335323 0.09187205 0.21744157 -0.10796798 0.23716749 0.119127296 -0.074189454 0.1925953 -0.12630239 -0.68580735 -0.061430834 0.5812478 0.1600468
AP -0.603176 0.083219156 -0.5674712 0.24363078 -0.14156711 0.012981397 -0.33836892 0.2005817 0.7237108 0.28459266 -0.42825174 0.2047419 0.19257823 -0.1613903 0.56001735 0.5826521 -0.5378705 0.63702494 -0.07025454 -0.0850109
LA -0.34106988 0.17824574 -0.34037644 0.21692917 0.24913241 -0.056530934 0.11576029 -0.18171293 0.24961995 -0.37738878 -0.04093225 0.3375592 0.32307726 -0.17899668 -0.0803974 0.76783395 -0.08907195 0.45343572 0.15153083 0.72309935
SR -0.7039162 0.2192319 0.11802633 0.1151791 0.53749734 0.29254776 -0.58220005 0.7285434 -0.12800238 -0.589805 -0.12635641 0.22314441 -0.33720586 -0.043559473 0.36623296 0.2548984 0.035803404 0.25172853 0.5578641 -0.29308584
EL -0.13304244 0.7617581 0.3673584 0.123500906 0.003827439 0.043625116 0.3634861 -0.20628902 0.19368385 -0.56149817 -0.7327779 0.081387565 0.27155587 0.01088998 0.045109615 0.51590246 0.3128662 0.30642283 0.019647049 0.37288803
SA -0.7270046 0.16939873 -0.65336055 0.09431207 0.4195623 -0.02730758 0.17374936 0.34953025 -0.00761806 -0.34241387 0.3120143 0.12897581 -0.10445314 -0.16243304 0.21816978 0.6287738 0.13814107 0.6606417 0.25131142 0.235397
PL -0.102186166 0.328627 -0.5233108 0.019175677 0.10159963 0.073168196 -0.2522181 -0.33031645 -0.10960109 0.06509385 -0.73282605 0.22334437 0.46155107 -0.08351554 0.48481765 -0.008432093 -0.16699818 0.7901125 0.15083432 0.20007423
RR -0.5169977 0.78106517 0.57171494 0.34128842 0.6538005 0.087889634 -0.5963808 0.26946223 0.07127887 -0.6021523 -0.29946578 0.25108176 -0.10550969 -0.23767306 0.18276079 0.11089232 -0.49049807 -0.037004277 0.34385476 -0.09448013
RS -0.56721383 0.5989721 0.16217929 0.0044841464 0.76701593 0.5774 -0.20989102 0.44731477 -0.12104874 -0.22055852 -0.5325264 0.01717214 -0.46631125 -0.044486698 0.27986032 0.16967271 -0.17090712 0.012437959 0.6839199 -0.2929307
GR -0.84137017 0.102006234 0.6077379 0.999542 0.23660664 0.1511013 -0.25124857 0.37437698 -0.26586738 -0.16112973 -0.2673488 -0.04874496 0.03629556 -0.16300827 0.291521 -0.25965485 -0.4610772 0.31731236 0.15180092 -0.10889405
GL -0.31629932 0.37112516 0.013632447 0.6711666 0.0020084048 0.124764994 0.31952444 -0.22569469 -0.31787854 0.030902453 -0.54322135 -0.098678984 0.13635565 -0.057081703 0.20700064 0.022393728 -0.0037930792 0.83936316 0.08359009 0.3286023
EA -0.59653044 0.62080556 0.087917216 0.2355394 0.115869746 -0.01787783 0.5310678 0.096092805 0.4167376 -0.6355448 -0.09610737 0.1500338 0.3190142 -0.24067427 0.071682036 0.7324952 -0.037341166 0.17297131 -0.2853139 0.43465397
GA -0.78316915 0.16179867 -0.2076706 0.9146416 0.13734443 -0.026155392 0.43567216 0.1397193 -0.0822065 -0.15623099 0.05250736 -0.03025578 0.18846975 -0.13725263 0.34538734 0.3052428 -0.4398842 0.72103804 -0.159395 0.3781561
LQ -0.12551138 0.163793 0.07252509 -0.306105 0.1304121 -0.37219504 0.17726831 -0.40158266 0.7718277 -0.6842593 -0.4663049 0.3815456 0.18003666 0.088130906 -0.06011707 0.19919422 -0.017681904 0.48479724 0.60122776 0.44088954
AG -0.6038036 -0.06852704 0.1187985 0.7443467 -0.098699875 0.011663517 0.20871016 0.4692075 0.46602273 0.41014284 -0.2000035 0.31718302 0.0043104277 -0.31281918 0.4295378 0.5148276 -0.31224254 0.49312544 -0.009801124 0.35029316
LR -0.20545562 0.16578108 0.35012445 0.34523162 0.21795571 0.019613473 -0.61145747 0.07152024 0.1802144 -0.6362642 -0.5076918 0.40747225 0.22799219 0.033785388 -0.11294896 0.4630691 -0.055976816 0.22427583 0.4323702 0.25747237
SE -0.8455675 0.38584754 -0.033165995 -0.401504 0.1840613 0.29477853 -0.164793 -0.12590225 -0.18381517 -0.5879687 -0.016267467 0.119465694 -0.030389812 0.45355764 0.4941726 0.591916 0.49519998 0.3575203 -0.20515497 -0.19732997
LG -0.34203172 -0.21433395 0.016087035 0.53003323 0.05438305 0.24734445 0.3673205 0.22979097 0.2932683 0.24867664 -0.35560748 0.4736407 0.42500868 0.14753303 -0.054924633 0.42558903 -0.09443183 0.48796818 0.47110978 0.55188286
EK -0.3475619 0.31286633 0.6865519 0.05858756 0.5448036 0.5093261 0.35445967 -0.27957156 0.40502977 -0.6678859 -0.39874327 0.16965064 0.20229448 -0.19997618 0.43643454 0.30950913 0.7560563 -0.1407033 -0.40340427 0.28851464
KE -0.64963174 0.34798214 0.298284 -0.19636859 0.34665918 -0.15808798 -0.13987607 -0.5222739 0.377221 -0.4213731 -0.31972092 0.70791644 0.27509764 0.3223007 0.5165217 0.4982862 0.42821506 -0.5128308 -0.35167545 -0.0043186294
AE -0.60676026 0.42900592 0.36742553 0.21730354 -0.13994713 -0.12493948 -0.3541325 -0.3249072 0.35497516 -0.2401491 -0.20359688 0.30368012 -0.16026142 -0.03108323 0.5880071 0.78567815 -0.020395268 0.2671331 -0.61656696 0.22090495
RL -0.1841617 1.0188509 0.34542695 0.3187362 0.3734088 -0.022601679 -0.06201818 -0.39398104 -0.087858856 -0.3064604 -0.52072555 0.09738733 0.08084854 -0.12319454 0.015162087 0.1627393 -0.19165389 0.2086494 0.35767537 0.37158567
KK -0.39990696 -0.12467263 0.14934675 0.1580486 0.870227 0.2505002 0.17781958 -0.2963938 0.46331474 -0.11619017 -0.27777588 0.83819294 0.32253444 -0.24232543 0.73791105 0.32203677 0.7221648 -0.5477952 -0.24596755 0.16697976
QQ -0.38366166 0.023304291 -0.29658428 -0.031933267 0.14035511 -0.30486262 0.0103662275 -0.5383636 1.3063565 -0.9375248 -0.6443556 0.07578665 -0.27005902 -0.405857 0.08908822 -0.64775634 -0.033698544 0.543877 0.37997368 0.5154087
PE -0.65004385 0.2528423 -0.22752547 -0.2579016 0.011165842 0.23403095 -0.45020193 -0.51856667 0.00925734 -0.24667878 -0.4138259 0.30149606 0.4362849 0.22621462 0.8376221 0.18619905 -0.2802451 0.38525945 -0.5056788 -0.03896166
LK -0.085222 -0.06975152 0.25265187 0.1764541 0.5798178 0.43488616 0.036256358 -0.53814036 0.20900072 -0.2947157 -0.3271766 0.47301486 0.18898147 -0.07563785 0.28012344 0.46204284 0.61225 0.17587993 -0.052798104 0.56350654
TS -0.5359339 0.20641078 -0.5225812 -0.20120203 0.39137506 -0.050949827 0.0014061945 0.28908083 -0.13763708 0.10185687 -0.5504737 -0.15345986 -0.33717602 -0.6444164 0.22551179 0.32508075 0.54674214 0.6658493 0.0040870532 -0.5832933
ER -0.48303437 0.63995415 0.7916166 0.31944904 0.16162352 0.15477747 -0.25001734 0.42722827 0.3954938 -0.8601216 -0.52483034 0.18520449 0.13041914 -0.20680512 0.0101364385 0.30163616 0.022192163 -0.073368475 0.03919898 0.089644305
ST -0.7217343 0.3351989 -0.42791775 -0.52955616 0.5228723 0.17643599 0.4142971 0.03474311 0.271459 0.23393406 -0.1310752 -0.42181492 -0.16285017 0.06598242 0.4821575 0.3977413 0.35698226 0.5169798 0.29439852 -0.26827878
RE -0.62243557 0.98513895 0.6780414 0.09140424 0.40442517 0.050753597 -0.4848631 -0.4167045 -0.05508473 -0.6642445 -0.26879707 0.2196765 0.066323645 0.16206983 0.33881158 0.22355893 -0.24547668 -0.13236673 -0.12770432 0.10667272
SQ -0.50461084 0.16794929 -0.32052475 -0.5354819 0.31879106 -0.25798115 0.31967223 0.12679128 0.535601 -0.5783473 -0.12833539 0.2579232 -0.22979595 -0.02073032 0.22788078 -0.15507163 0.18002951 0.64750516 0.6179639 0.023032125
VL -0.14350344 0.07200735 0.15939674 -0.0075691133 -0.11748073 -0.56341594 -0.038035832 0.12711135 -0.17844816 -0.2939734 -0.72190005 0.16163781 0.3961208 -0.14312598 0.25195092 0.14183632 0.5581722 0.6501763 -0.06380621 0.30570415
PR -0.5642949 0.14338495 -0.053092673 0.35270676 0.21148437 0.14611906 -0.8918798 0.2175979 -0.012520042 -0.29573232 -0.38233334 0.33328602 0.32563752 -0.13125172 0.6084547 -0.1020619 -0.54171765 0.40483943 0.17760442 -0.20516708
VS -0.42143992 -0.3564385 -0.027863959 -0.32297477 0.04690456 -0.15926705 0.057087798 0.642915 -0.0017892941 -0.14176868 -0.73477024 0.13540253 0.030264134 -0.09466198 0.54252183 0.13665803 0.6419842 0.59938556 -0.07705373 -0.17224222
TP -0.62437296 0.50547373 -0.81469226 -0.08609732 0.25746834 -0.42161503 -0.20797001 0.14288141 0.15060359 0.16637589 -0.5393487 -0.0701448 0.21105793 -0.45988622 0.20930135 0.14109606 -0.037935123 0.58849204 -0.10599755 -0.6111242
ES -0.50518906 0.32800224 0.27531108 -0.14818554 0.09165595 0.41322505 0.36667362 0.39654052 0.25235325 -0.46617442 -0.7488333 -0.06272301 -0.14431357 0.13249765 0.24632397 0.5826637 0.38396636 0.1854755 0.051652584 -0.18211795
PV -0.4985218 -0.2427869 -0.45472348 -0.116859674 0.73462385 -0.0589304 -0.25879306 0.21437128 0.12957458 0.105809435 -0.5478569 -0.22701028 0.5037296 0.36544275 0.44086185 -0.10812051 -0.18659379 0.6464606 -0.508628 0.13759011
ED -0.73630565 0.22628942 0.8216269 -0.34693953 -0.48112416 0.40859467 0.38992164 -0.1455543 0.095944926 -0.31652516 -0.28650877 0.39639896 0.5503328 -0.06469719 0.029043106 0.5493993 0.4908475 0.35434335 -0.0094166985 -0.1469632
SV -0.6381198 -0.089785546 -0.20038189 -0.2509209 0.8731763 -0.057524256 -0.07723954 0.66232085 0.032607116 -0.2760675 -0.18535917 -0.26046738 0.026481198 0.4555543 0.09842806 0.18735616 0.3621361 0.5825553 -0.2012401 0.09072278
KL -0.17138056 0.3885429 0.032730684 0.028958231 0.37885734 -0.20920986 0.15746504 -0.38853666 0.18879025 -0.19336097 -0.50296754 0.6720197 0.34890795 0.013332145 0.19747642 0.5460515 0.6134859 -0.21562359 0.21549295 0.30567682
QL -0.08010161 0.25290453 -0.16719384 0.2724448 0.05742601 -0.09563879 -0.19253765 -0.64231014 0.3947418 -0.80068666 -0.75545716 -0.18601494 -0.08886349 -0.34078085 -0.08200348 0.059378058 0.3591732 0.6006068 0.046012264 0.5196324
QP -0.61386305 -0.2994008 -0.8226243 0.08852944 -0.029008374 0.04884444 -0.30762815 -0.16671246 0.8819362 -0.46497372 -0.7485404 -0.29274976 0.1801915 -0.09522711 0.18468834 -0.16489303 -0.26976287 0.5662502 0.09703163 0.0037304754
EG -0.6761055 0.23666783 0.5041698 0.32986245 -0.067023486 0.34393296 0.79345095 0.5140813 0.36384845 -0.09365416 -0.4743401 0.17953482 0.46885383 0.014981521 0.17307347 0.31197274 -0.07407977 0.101044916 0.025718901 0.08719818
DL -0.28180477 0.36277252 0.08259153 -0.062246885 0.21963868 0.3690626 0.09007416 -0.39635038 -0.38105974 0.031542353 -0.6780089 -0.010328233 0.45793077 -0.3637862 -0.61529255 0.48053712 0.33311474 0.4130486 -0.10972132 0.44971973
RP -0.6542283 0.7783071 -0.13706848 0.074277885 0.38343284 -0.023774927 -0.37213972 0.1589355 0.24761473 0.080868065 -0.41058975 0.030849542 0.43629837 0.122810185 0.18477874 0.009890783 -0.7893346 0.13084984 0.37239632 -0.19333586
DS -0.688132 0.011651071 -0.07154873 -0.35803166 0.23062381 1.0142528 0.13207301 0.17331822 -0.26485124 -0.089064024 -0.58721894 0.02330229 0.046010196 -0.27429283 -0.41598567 0.5176625 0.3781763 0.38760912 -0.08411889 0.00021158642
RA -0.56604195 0.801596 0.008639698 0.44580224 0.59451514 -0.18069515 -0.08010635 0.121064484 0.12009534 -0.33890343 0.1254008 0.12814656 0.22530569 -0.34725198 0.111372605 0.37556937 -0.5183877 0.17236955 0.115396895 0.47243705
AV -0.48260537 -0.12789866 0.09870275 0.1658331 0.4317684 -0.37923673 -0.23671132 0.39573023 0.41139457 0.083365954 -0.37619132 -0.16646756 0.025370287 0.038308308 0.2696453 0.5884686 -0.035324246 0.47180617 -0.7335941 0.5278781
LD -0.3201027 -0.0020633638 0.3497868 -0.25967374 -0.28772667 0.32771772 -0.1020713 -0.42270133 0.07213772 -0.121311784 -0.2507776 0.6818496 0.47014213 -0.10922066 -0.2503038 0.5738942 0.32426065 0.72544044 0.4305409 0.16454753
SK -0.4387546 -0.077379525 0.06393077 -0.014348841 0.8654525 0.5225307 0.024344465 0.00015743279 -0.042201575 -0.32162377 0.014368016 0.30519345 -0.02318016 -0.19034475 0.61031187 0.2742958 0.7645619 0.12198083 0.054091856 0.04775497
PQ -0.3815255 0.0671746 -0.52042603 -0.30714914 0.14764205 -0.36368376 -0.011697008 -0.2722858 0.69632924 -0.21207008 -0.46405777 0.3223734 0.21773632 -0.13787416 0.58545035 -0.6065271 -0.35263854 0.68238515 0.44950622 0.13303201
VP -0.7257898 -0.26995903 -0.39158928 -0.22834975 -0.21513903 -0.4666127 -0.15340433 0.48986134 0.4191438 -0.029023811 -0.59083205 0.14268193 0.65320057 0.12775417 0.4390593 -0.07205983 -0.032936774 0.59457815 -0.22924234 -0.21568595
AR -0.41087157 0.28711033 0.41489875 0.73427504 0.046042264 -0.085026 -0.61439437 0.32686096 0.30998638 -0.27537823 -0.29253545 0.34749502 -0.15386227 -0.4179816 0.40997976 0.56504977 -0.27268568 0.30091015 0.05020915 0.17644857
TL -0.12829603 0.7422779 -0.24621473 0.074776374 0.27246767 -0.5696043 -0.0453233 -0.25952655 -0.30824703 -0.017984211 -0.6375297 -0.04140348 0.036491733 -0.64617515 0.09418937 0.335055 0.516817 0.58837104 0.010143358 -0.10619724
KS -0.4469867 -0.042852566 -0.09454788 -0.20266992 0.53943646 0.25367966 0.16366446 0.1927375 0.3324463 -0.16222423 -0.5063043 0.66026735 -0.056478344 -0.045412272 0.45942417 0.44103488 0.7032783 -0.351659 0.27360418 -0.18655801
QA -0.486364 0.048503023 -0.60391617 0.44573703 0.22004607 -0.20303951 -0.010052979 -0.34556565 0.63926774 -0.7494556 -0.20312952 -0.2992107 0.0024226964 -0.5815629 0.021716885 0.24983299 -0.062993824 0.5461356 -0.15549505 0.54572976
VA -0.58508104 -0.1730041 -0.14013833 0.16169013 0.012742331 -0.72687817 0.19414891 0.3504926 0.09078058 -0.38369632 -0.074963644 0.20445555 0.4973459 -0.3566162 0.2867535 0.3628532 0.23597533 0.5296059 -0.3579903 0.41849658
PT -0.5517297 0.26140177 -0.6686002 -0.47847742 0.40611908 0.17061117 0.14082247 -0.3173235 0.36735117 0.5485196 -0.44553024 -0.2525672 0.24969448 -0.116720445 0.8104396 0.06699167 -0.16390552 0.49986315 0.015462392 -0.015951071
AT -0.550122 0.34587494 -0.21825191 -0.009948879 0.18654823 -0.18533006 0.21896547 -0.13931409 0.65524375 0.7229986 -0.21904588 -0.25131848 -0.19264673 -0.34121686 0.57608134 0.7390848 0.030183619 0.43449724 -0.22567317 0.20583276
LV -0.29552856 -0.23755448 0.06948142 -0.046316266 0.6190183 -0.15322806 -0.028717164 0.0806082 0.21283796 -0.27246842 -0.52078944 -0.14951631 0.4485275 0.52112263 -0.17614053 0.47164515 0.046882026 0.424131 -0.19456367 0.6911551
GE -0.88723177 0.3112673 0.40958497 0.43403313 -0.079440154 0.19035801 0.19928354 -0.41378793 -0.289905 -0.2585759 -0.28100276 -0.023660975 0.15379626 0.35421273 0.6338865 0.095030144 -0.120343894 0.38307473 -0.5653627 -0.019815572
EP -0.68396384 0.44042152 -0.13669804 -0.24285671 -0.1393246 0.23116645 0.3132602 0.32327726 0.58984745 -0.3341105 -0.70029396 0.025454788 0.75982124 0.26935175 0.3924672 0.40155318 -0.3230759 0.15293656 -0.16801701 -0.15850735
QE -0.57570475 0.20043671 0.02524213 0.095277235 -0.0061464473 0.017275367 -0.3510985 -0.7513439 0.47953302 -0.9986085 -0.52532876 -0.12128317 -0.107168436 0.027838595 0.2601773 0.08071468 0.19137026 0.26426092 -0.4914412 0.2086953
KA -0.6044007 0.18276137 -0.18994461 0.19686903 0.5064072 -0.2878825 0.35016993 -0.08874928 0.45039326 -0.24902573 0.10590784 0.68074983 0.40280616 -0.35988048 0.29729056 0.7513316 0.23407875 -0.3823773 -0.13607585 0.42165786
LT -0.32926816 0.2499855 -0.13286631 -0.3456789 0.3427625 0.07770379 0.47436714 -0.5473198 0.4973346 0.3309579 -0.3592703 -0.2256342 0.116837494 0.124024756 0.03942008 0.67255384 0.1990845 0.42807892 0.26339847 0.35868743
TA -0.6405115 0.45790064 -0.64044666 0.08866345 0.44928876 -0.64334005 0.12847966 0.059895333 0.057183757 -0.016672771 3.828422e-05 -0.019402802 -0.0055815666 -0.87038773 0.11864724 0.4980672 0.0805232 0.59145576 -0.3336286 -0.08409912
SD -0.7107035 0.09072536 0.35377762 -0.6600434 -0.10231243 0.46307924 -0.024621567 0.0867047 -0.30168673 -0.17245892 0.0402494 0.41260746 0.1562894 -0.090591766 0.062309496 0.44628346 0.58310044 0.76559967 0.4386036 -0.29678473
RK -0.33433607 0.5433234 0.5557915 0.2651115 1.1022487 0.37673134 -0.0908128 -0.31829226 0.08074781 -0.35054046 -0.1767228 0.27149928 -0.03084425 -0.35417536 0.5759019 -0.035682257 0.20528826 -0.33213064 0.013728316 0.23103979
EV -0.6044107 0.06410645 0.5133638 -0.10639819 0.4599718 -0.044749837 0.38962585 0.3241794 0.34878948 -0.4591876 -0.5520051 -0.26233774 0.38494018 0.45080706 -0.015473596 0.28037316 0.21066053 0.18621832 -0.63650817 0.34190527
AQ -0.31331253 0.18659142 0.1122916 0.0665514 -0.044710036 -0.6406145 0.13570946 -0.13826844 0.9927824 -0.2542532 -0.2785544 0.36245105 -0.27845144 -0.45113236 0.2732638 0.274458 -0.30148184 0.61787933 0.1260968 0.39609814
QS -0.4670882 -0.20774417 -0.34527677 0.039305024 0.19739279 0.50582707 -0.15492949 -0.08845326 0.48280874 -0.70628405 -0.7151742 -0.27289325 -0.49382964 -0.2778569 0.018874226 0.010308215 0.4405082 0.47731033 0.1477387 -0.025960183
GT -0.73801106 0.31870675 -0.07684431 0.20599544 0.23348993 0.14330795 0.7349009 -0.33173406 0.09969188 0.5449616 -0.2734098 -0.6396784 0.039172363 -0.005633009 0.5611201 0.07187857 -0.11423997 0.58538747 0.038612675 0.06201713
VE -0.75757754 -0.007419238 0.41426083 -0.21295066 -0.20670456 -0.49250785 -0.19803087 -0.07992066 -0.019179916 -0.4834132 -0.33850837 0.23812757 0.41960147 0.20610037 0.49285242 0.14795417 0.46112746 0.27195317 -0.6664993 0.05087063
KR -0.48357844 0.24437977 0.32947043 0.25147486 0.6060713 -0.12154321 -0.5302574 0.29470393 0.3810765 -0.42817548 -0.32645467 0.7714719 0.3382359 -0.15160765 0.44056848 0.2858134 0.26103285 -0.58152235 0.1938094 -0.20085736
GK -0.52685577 -0.21527332 0.43614405 0.70820874 0.6474624 0.38063666 0.36032468 -0.3355377 -0.1151263 0.034053523 -0.1645154 -0.050828442 0.10849453 -0.2951264 0.78570014 -0.10548711 0.35782093 0.17700526 -0.33090192 0.23483105
DE -0.96285754 0.34998772 0.33403134 -0.31561637 -0.009100847 0.59148955 -0.066308245 -0.5339757 -0.37264073 -0.26564717 -0.36065412 0.11657835 0.48599854 0.15083106 -0.30360487 0.59766394 0.2404751 0.12874982 -0.69369394 0.015379911
QG -0.5646277 -0.31540653 -0.1422123 0.71890354 0.051994737 0.16429085 0.19731846 -0.030368611 0.7238456 -0.30218178 -0.5409801 -0.06846418 -0.010115226 -0.29526684 -0.011961535 -0.34917966 -0.06362982 0.33289057 0.14227293 0.3235294
AK -0.19041076 -0.07230844 0.3406071 0.44760638 0.46419707 0.15110262 -0.10864715 -0.35552418 0.5036682 -0.07437515 -0.19741291 0.38747057 -0.09967034 -0.59732026 0.7080639 0.5966547 0.41963178 0.16317801 -0.43173295 0.48027086
TG -0.64141554 0.14743169 -0.12548122 0.3993962 0.38986483 -0.32070145 0.3181824 0.4188111 0.015067267 0.50196844 -0.26779684 0.065475434 0.10046232 -0.8583201 0.08244058 -0.06612232 0.18753956 0.33612385 0.0497291 -0.3105753
RD -0.67324185 0.5891762 0.9359626 -0.2385771 0.09253145 0.31420347 -0.30723614 -0.15685236 -0.22977038 -0.08945403 -0.029063644 0.5460105 0.23417613 -0.40429124 -0.09796833 0.105150335 -0.19782482 0.2473775 0.57025826 -0.18978164
GV -0.68459016 -0.24014634 0.21137796 0.43594733 0.6237498 -0.16566424 0.21211815 0.28989595 -0.08324384 0.001649801 -0.3686775 -0.4738033 0.24918307 0.35924417 0.195458 -0.11279051 -0.16208929 0.56264514 -0.41983658 0.3175697
TE -0.737768 0.6890517 0.027094405 -0.17257813 0.18362315 -0.41380453 -0.169607 -0.41552517 -0.2633453 -0.34351113 -0.30188125 0.024694845 -0.094947115 -0.2705682 0.2754469 0.36468387 0.4284605 0.26631483 -0.61638534 -0.4184696
GD -0.77870977 -0.105157405 0.65683687 0.20303206 -0.37769866 0.36909398 0.2301501 -0.21376498 -0.38245496 0.17412375 -0.104946695 0.24623144 0.345275 -0.18666965 0.19069177 0.027064655 0.04115578 0.8960617 0.118477 -0.18135726
GQ -0.5994759 0.017076798 0.07362295 0.25505444 -0.023395462 -0.24603291 0.63296837 -0.21891166 0.48546422 -0.271577 -0.2948011 0.045154262 -0.029040053 -0.045563597 0.30302766 -0.5568957 -0.28052324 0.69513494 0.4228836 0.19183786
KP -0.6826203 0.0303251 -0.47879654 -0.28896797 0.36620116 -0.08028404 0.038155325 0.064424686 0.6059296 0.083789885 -0.4847847 0.5723883 0.69092774 0.15781851 0.58904445 0.359302 0.03311428 -0.47377372 0.00019168181 -0.22049662
QR -0.47029665 0.122688785 0.23373519 0.525697 0.13681817 0.011650254 -0.7436113 -0.0811842 0.5214802 -1.1386219 -0.5383683 -0.07593838 -0.105007395 -0.3134129 0.008718766 -0.10041428 0.05961328 0.16356535 0.01850022 0.12450771
DG -0.79170936 0.023939235 0.26145202 0.2606987 0.16850471 0.6188329 0.44692475 0.35427257 -0.2352688 0.38416547 -0.37151554 0.14863002 0.5852622 -0.35978383 -0.4493418 0.3033027 -0.048025638 0.16783608 -0.16537526 0.2884432
NS -0.7532472 -0.2062821 -0.45917487 0.26985863 0.17403573 -0.029336048 0.17538849 0.16251697 -0.0112352995 -0.004361167 -0.65742135 0.36966646 -0.666665 0.27969277 -0.34990746 0.5617061 0.5022785 0.30184692 0.36879355 -0.3927621
EQ -0.36603317 0.51817036 0.46989182 -0.18923917 0.05656263 -0.19667207 0.64425826 -0.19226168 0.8690214 -0.88024616 -0.51984555 0.19156076 0.06356238 -0.11231062 0.065177016 0.082238056 0.2365239 0.08294345 0.24351667 0.24908969
TV -0.5501556 0.1428593 -0.19638865 -0.15886198 0.8073938 -0.67306775 -0.021312676 0.34439394 -0.119932085 0.045374 -0.48083353 -0.44081503 0.15563028 -0.30315363 -0.05641308 0.14898664 0.36593288 0.53997016 -0.6378183 -0.19656606
VV -0.67500937 -0.49715933 0.2820015 -0.216443 0.36062118 -0.6101201 0.001628077 0.60845876 0.027077064 -0.16886202 -0.47682166 -0.19452937 0.47005922 0.191048 0.18710695 -0.015450978 0.47628772 0.46087617 -0.6782951 0.26686218
VG -0.69784576 -0.45812902 0.31363425 0.33123928 -0.1095816 -0.39756718 0.3572818 0.70377874 0.13783051 0.16205752 -0.34337083 0.23264416 0.5916547 -0.12697914 0.4046901 -0.15019105 0.2554676 0.37860474 -0.040255908 0.11830422
PK -0.23372793 -0.12845555 -0.25003 -0.020476168 0.69840354 0.5386318 -0.17643468 -0.39491957 0.1222437 0.037733212 -0.41521737 0.4994805 0.4974088 -0.3097071 1.027282 -0.078065656 0.20649935 0.1650262 -0.32149282 0.1352277
ET -0.54880893 0.7008906 0.28939024 -0.44008008 0.2533016 0.10276472 0.7711193 -0.23279402 0.5294892 0.11464467 -0.4985442 -0.40179703 0.12524141 0.090588786 0.34217125 0.46257606 0.35247427 0.08775109 -0.12501262 0.09761332
DP -0.74167114 0.14374143 -0.36506024 -0.27133134 0.12121925 0.46647412 -0.1895687 -0.010770664 -0.016382976 0.17071983 -0.537275 0.14679815 0.74869484 -0.05350423 -0.5620405 0.41280326 -0.22364157 0.21742178 -0.22738717 0.10143452
VT -0.6821596 -0.054602228 -0.0056637633 -0.46151644 0.03774417 -0.5219337 0.5022149 0.07028415 0.30300507 0.40559128 -0.45812514 -0.4033393 0.29406422 -0.04675166 0.56382567 0.08702115 0.54671234 0.45828718 -0.28449288 -0.0797788
KV -0.55607414 -0.15428689 0.13292883 -0.1491358 0.9234874 -0.27876523 0.12184516 0.2110412 0.45201355 -0.13415162 -0.44238693 0.2875354 0.49911094 0.38247547 0.15668723 0.26112136 0.40866062 -0.36482853 -0.4801345 0.20576228
NL -0.39833525 0.22446007 -0.2811377 0.47063142 0.10144867 -0.48959932 0.1594549 -0.34992066 -0.036783252 -0.14514332 -0.7669681 0.41326183 -0.20684157 0.24039322 -0.6254262 0.47032934 0.60476726 0.28440237 0.2643112 0.00705073
IL 0.05091392 0.22448373 0.27487388 0.46644503 0.17357339 -0.1442019 0.03376021 -0.6281578 0.17150198 0.20558263 -1.276631 0.12230048 0.1607207 -0.20871189 -0.23367189 0.28785354 0.3260573 0.2779564 0.027968688 -0.10813141
RQ -0.32668343 0.8600792 0.3624865 -0.07583206 0.4604699 -0.3774724 0.06888712 -0.31319156 0.58704823 -0.6612712 -0.29126087 0.28135177 -0.07868712 -0.11564727 0.057677146 -0.2219588 -0.3337691 0.17260312 0.6834218 0.15957218
KG -0.6653295 -0.13031858 0.19635399 0.43468437 0.4588918 -0.013457422 0.5120815 0.29752508 0.4331815 0.44827685 -0.23715128 0.8034756 0.5694404 0.016794886 0.43640134 0.094927244 0.25749993 -0.50450337 0.22570246 0.061299067
DR -0.77589715 0.24934132 0.60775226 0.25528252 0.4343277 0.6564568 -0.582928 0.2554961 -0.31661707 -0.29479557 -0.3394196 0.16786827 0.35387278 -0.4646439 -0.63259226 0.25325885 -0.055734232 -0.036266576 -0.06385993 -0.023001699
TT -0.5749669 0.55328465 -0.43066606 -0.3782961 0.59753335 -0.46939528 0.32788542 -0.15119983 0.26017234 0.59341127 -0.43230066 -0.47817656 -0.18026982 -0.60908794 0.32502612 0.29711315 0.40259382 0.46648243 -0.131032 -0.4561207
VK -0.3408228 -0.49199915 0.48085108 -0.09449723 0.42060027 -0.26164934 0.06855441 -0.046493217 0.11532528 -0.27512985 -0.44441327 0.29049033 0.3681809 -0.40180546 0.6737909 -0.096026726 0.9214983 0.15000364 -0.57689285 0.26682296
DD -0.9128406 0.09668217 0.5604801 -0.43446678 -0.21202837 0.75766855 -0.022181029 -0.22532755 -0.44760534 0.1318401 -0.23826525 0.4566617 0.6325351 -0.31811166 -0.60489726 0.5236684 0.40033668 0.41349232 -0.16437683 -0.11557976
VR -0.5064286 -0.10508198 0.5589228 0.24746518 0.036136977 -0.5256043 -0.55079323 0.641968 -0.05179304 -0.5544254 -0.46767062 0.26722082 0.37992075 -0.2094269 0.38115448 -0.051926207 0.24820784 0.35277578 -0.08870643 -0.120373085
LN -0.15027012 -0.09260656 0.17360282 0.12808682 0.5194018 -0.037794836 -0.06026687 -0.66400594 0.15406874 0.24104694 -0.25338665 0.42287338 -0.17137311 0.723483 0.059290368 0.28725588 0.49990243 0.75772256 0.3806074 0.47289917
IS -0.22312237 -0.20825604 0.18762451 0.22611175 0.2971164 0.4284832 -0.0044367635 -0.107608095 0.32409665 0.23719469 -1.3018638 0.11156812 -0.17071708 -0.14077373 -0.091412716 0.32439595 0.36716664 0.24650535 0.038007587 -0.6564803
KT -0.583046 0.30298594 -0.06487111 -0.3663051 0.68847454 -0.18133299 0.4604981 -0.3430966 0.61882174 0.52469486 -0.33878982 0.07840693 0.24452 0.085173175 0.5143771 0.47322556 0.47380847 -0.44827446 0.13052008 -0.09918133
FS -0.6703915 0.10952064 -0.4920088 0.20952944 0.100113876 0.39674893 0.3980378 0.06805058 -0.46215016 -0.40220222 -0.7012389 -0.060440995 0.23858386 -0.024451468 0.15297513 -0.16091749 0.6791764 0.021865727 0.6977297 -0.19225948
KD -0.60291284 0.050049987 0.5641281 -0.49397144 0.021103911 0.03724115 0.009714165 -0.22325322 0.22383797 0.10476362 -0.12544186 1.0826421 0.538095 -0.23723662 0.17058238 0.37481746 0.67957026 -0.14196947 0.1684063 -0.18671387
PD -0.5194879 -0.13229789 0.1095523 -0.4568896 -0.23078561 0.32456505 -0.37281933 -0.41775352 -0.17291166 0.23260875 -0.25823206 0.5243115 0.6883173 -0.32831034 0.40343785 0.10809229 0.013867662 0.7505616 0.23302957 -0.32619885
SN -0.5106494 -0.08550198 -0.035500832 -0.20232467 0.6422373 0.0048399586 -0.045014206 -0.18357092 -0.13942547 0.23852637 -0.04196903 0.19461764 -0.5199778 0.6183463 0.2799435 -0.06610426 0.680585 0.88017535 0.4582033 0.018104093
RV -0.5678938 0.42806196 0.4516208 0.14712165 1.0976648 -0.20272823 -0.20608768 0.3579029 -0.035093367 -0.19619378 -0.3848558 -0.42537886 0.27645773 0.36275703 -0.011259222 -0.012035139 -0.2765987 -0.037912555 -0.13646428 0.27963585
DA -0.7537391 0.20197774 -0.16778572 0.17558716 0.3169557 0.37166497 0.1820803 -0.077576935 -0.067224406 -0.094558045 0.022296507 0.08287872 0.53997517 -0.60671216 -0.665332 0.7464545 0.044174515 0.20680879 -0.3260925 0.5583725
AD -0.55082726 0.033784617 0.53585494 -0.045973457 -0.4750195 -0.008829188 -0.2318848 -0.13817117 0.11080215 0.18622026 0.007614878 0.59312075 0.15675552 -0.57955796 0.10501391 0.68615353 0.26415497 0.6671274 0.022815172 0.13234833
VQ -0.36461478 -0.24695462 0.20448427 -0.25923884 -0.07603734 -0.92372334 0.23030959 0.17065331 0.59751946 -0.4678158 -0.49882403 0.28475645 0.26863235 -0.21925853 0.37701124 -0.31245247 0.26765504 0.57236105 0.123098485 0.17366596
QK -0.19850115 -0.19945198 0.04526284 0.3095859 0.6249077 0.2848326 -0.14484227 -0.6550088 0.59585977 -0.81717646 -0.47239476 -0.036952347 -0.10887062 -0.5359009 0.41093394 -0.049664915 0.6995272 0.106977515 -0.35633597 0.47524986
RT -0.5250102 1.0083452 0.16272004 -0.15519054 0.7476406 0.043649383 0.20692791 -0.17586204 0.20683646 0.36157998 -0.33886725 -0.4631116 0.013587183 -0.022805491 0.3538569 0.20963113 -0.21454066 -0.024036976 0.41920596 -0.073988475
EN -0.47525647 0.13331944 0.7287641 0.0190705 0.32703573 0.07590896 0.47345355 -0.40120634 0.1338158 -0.05629322 -0.32860136 0.28064713 -0.22309734 0.7507787 0.27598426 0.1040558 0.65927243 0.39688396 0.011105767 0.20090006
DV -0.7400651 -0.20790444 0.1924424 -0.23324578 0.6081907 0.1880506 -0.002576312 0.13888925 -0.17803828 0.05107804 -0.47907674 -0.37491596 0.61008906 0.025007289 -0.71056205 0.31774843 0.20445383 0.29814747 -0.670324 0.4030127
SI -0.39408833 -0.05882881 -0.045947768 0.029413546 0.98025626 0.04891226 -0.22828038 -0.009875006 0.28757074 -0.14601785 0.2631108 0.072813235 0.50039 0.22362868 -0.10209326 0.35136244 0.51813155 0.8302471 0.42747548 -0.5179727
FL -0.31320772 0.46708688 -0.32639253 0.32957858 0.015065701 -0.03406465 0.2684404 -0.45280132 -0.5471559 -0.42619658 -0.7319002 0.05440636 0.6396036 -0.10569733 -0.009209992 -0.07493103 0.6402298 0.09816482 0.6063714 0.30705127
EI -0.43603453 0.34926045 0.71566904 0.25221056 0.63927764 -0.056525305 0.25541648 -0.38679546 0.70252943 -0.383995 0.038691748 0.034217007 0.74169415 0.17725481 -0.2719879 0.36790133 0.53868645 0.400772 -0.05218317 -0.35907006
QV -0.540142 -0.34338993 -0.23165919 0.14807776 0.5313771 -0.17457765 -0.12826887 -0.07963347 0.6118651 -0.58878326 -0.6042601 -0.61091256 0.025434215 0.10417414 -0.16380121 -0.13788353 0.20405866 0.4808428 -0.5368746 0.48566052
VD -0.5861808 -0.32809806 0.68563956 -0.40837628 -0.473377 -0.32170358 -0.06982165 0.12289551 -0.09181205 -0.09742588 -0.32045877 0.48034853 0.5734559 -0.26940894 0.11308453 0.14255017 0.66380703 0.7106287 -0.041187495 -0.16625248
LI -0.16588143 -0.11117923 0.26436597 0.18510875 0.77122533 -0.13851921 -0.14809115 -0.6385639 0.45498377 -0.14774577 0.05417084 0.27249756 0.7239159 0.20347124 -0.30752128 0.53164977 0.33539692 0.5784133 0.43275622 0.0064379503
KQ -0.3420178 0.24434167 0.18733905 -0.34035525 0.41871467 -0.52072364 0.35825837 -0.29773155 0.9618327 -0.4165198 -0.33683112 0.82385856 0.19946009 -0.15967494 0.30585918 -0.014049374 0.37894785 -0.2928569 0.2919865 0.15753575
IP -0.3973675 -0.12519221 -0.22734348 0.1325316 0.096066445 0.027221417 -0.1449324 -0.31325114 0.63964236 0.46861535 -1.282448 0.0684211 0.5403758 -0.002792934 -0.06695949 0.12917008 -0.1992236 0.201156 -0.019430459 -0.75624806
SF -1.0393574 0.03584804 -0.30454862 0.15907061 -0.00094322034 0.29079393 -0.52488303 0.012383821 0.048082296 -0.0073383776 0.36904424 -0.34006616 -0.0024089417 -0.013569497 0.44876555 0.3079681 0.8087191 0.13185278 0.6740349 0.01864387
GF -1.1870029 -0.13439053 0.13040753 0.98172444 -0.1746569 0.31692275 -0.1408423 -0.22945683 -0.07156134 0.26008907 0.20379835 -0.43637508 0.19795752 -0.06697597 0.5555203 -0.1276242 0.3350546 0.08013768 0.3458332 0.15923473
TK -0.2900912 0.17745012 0.030347582 0.06643298 0.8556706 -0.19859858 0.027660165 -0.29244885 -0.18680158 0.032430805 -0.3346226 0.05343246 0.03487571 -1.0335435 0.45843023 0.16364004 0.8367082 0.084238745 -0.36917144 -0.16704993
TR -0.49497622 0.6737645 0.13124056 0.3396398 0.40620682 -0.492299 -0.59874433 0.2718566 -0.14334682 -0.36712396 -0.37584966 -0.036106627 -0.097166 -0.7973045 0.17344509 0.15518732 0.24481268 0.22306833 0.03679936 -0.5079068
LF -0.6606743 -0.12256283 -0.025226332 0.36563024 -0.18968646 0.26473722 -0.5054697 -0.5049515 0.32065934 -0.012179824 0.06474042 -0.0583345 0.41011393 0.1258329 0.13236287 0.487286 0.7295564 -0.013181201 0.6499955 0.56998545
NP -0.87965035 -0.09434103 -0.8081744 0.2612759 0.07234319 -0.47782484 -0.16991097 0.016238362 0.34408677 0.22804211 -0.5817853 0.3817553 0.027791072 0.4297059 -0.47227317 0.33168316 0.0103902435 0.14379758 0.20096391 -0.333781
GN -0.6945652 -0.20710425 0.3035405 0.6727311 0.41531414 -0.06813329 0.20728731 -0.42171437 -0.26965317 0.42350864 -0.16550513 0.03582308 -0.41811076 0.55154216 0.32894826 -0.44843972 0.27575836 0.8354057 0.12273186 0.12594993
TQ -0.39498532 0.46565175 -0.27640274 -0.4035544 0.27532214 -0.8746347 0.28502166 -0.19734012 0.45548883 -0.38783282 -0.36849433 0.06435669 -0.08963195 -0.7936405 0.15926115 -0.1655842 0.21696226 0.57012546 0.183737 -0.29177424
DK -0.5204279 -0.12087441 0.3723259 0.050704427 0.7474431 0.79466504 0.05067733 -0.3374229 -0.1828301 -0.024700658 -0.3095175 0.21092612 0.4363385 -0.57978565 -0.15968633 0.35588473 0.714096 -0.098902404 -0.5682469 0.36978066
QT -0.5293708 0.101161 -0.49120718 -0.15672822 0.3992324 -0.043708127 0.28621477 -0.6539885 0.82119393 -0.11395462 -0.56207484 -0.7923552 -0.27310115 -0.18657993 0.2117135 -0.044938955 0.25494775 0.41141084 -0.058562014 0.19435267
HL -0.11816702 0.27043378 -0.33505437 -0.018499954 0.2392132 -0.28695023 -0.6228243 -0.23794131 -0.23216921 0.08691498 -1.0276389 0.11705317 -0.01859973 -0.07644684 -0.10038216 0.18062003 0.24394199 -0.051748328 0.45832658 0.8565135
IK -0.21515289 -0.22789703 0.5018002 0.39706758 0.5791443 0.21058722 0.07238907 -0.6757541 0.39870313 0.18039554 -0.9808059 0.27132666 0.14490147 -0.43205434 0.21202965 0.10105944 0.65742856 -0.16532278 -0.41897658 -0.2772898
FG -0.9045761 -0.12179682 -0.21178935 0.8107197 -0.026383936 0.21090822 0.7807301 0.20378813 -0.25404057 0.0036743148 -0.36965916 0.043999087 0.57599366 -0.16787192 0.06322483 -0.40223277 0.4898811 -0.03601806 0.66655755 0.075694084
GI -0.5821739 -0.0059629423 0.39065865 0.7677837 0.6275479 -0.021364737 0.1382917 -0.43977907 0.28073692 0.14694798 0.21256706 -0.12912594 0.68568176 0.13434616 -0.0451903 -0.16831715 0.11957568 0.9084143 -0.014865709 -0.38097912
QD -0.4819408 -0.2255362 0.28238297 -0.17354888 -0.46677706 0.24885026 -0.26915565 -0.590025 0.3026584 -0.5797645 -0.35222566 0.16074207 0.12212 -0.5408431 -0.12397419 -0.0061054705 0.49905464 0.74619716 0.11430085 0.02674341
YS -0.8994038 -0.53856814 -0.2694753 -0.42779765 0.65312076 0.38109663 0.02339391 -0.093068376 -0.3645146 -0.34621492 -0.4922172 0.30475372 -0.46014214 -0.51628417 -0.24258538 -0.02233934 -0.32819176 0.19097614 0.39040396 -0.39123094
HS -0.4463729 0.00035260536 -0.39258417 -0.23789108 0.29187346 0.24600653 -0.618034 0.49482414 -0.22199295 0.15162313 -1.1011064 0.023190686 -0.42395103 0.03765071 0.07471768 0.25911024 0.2881294 -0.1346703 0.55305326 0.34950593
IE -0.5597804 0.19067883 0.59267944 0.2930115 0.070556745 -0.028120264 -0.25009257 -0.8205933 0.34711692 -0.011803515 -0.9952875 0.17197174 0.09212829 0.117047384 -0.022871332 0.2713141 0.22422495 -0.14117916 -0.5839888 -0.46858492
YG -1.2246935 -0.72935045 -0.024825051 0.16289358 0.35361862 0.12964132 0.5264355 0.051483624 -0.04476411 0.016252628 -0.11532692 0.36596408 -0.109947935 -0.5281167 -0.36550373 -0.45063317 -0.5482017 0.17745875 0.28173283 -0.067742616
KI -0.48268458 0.0032544518 0.42564932 0.11721232 0.9513562 -0.27089104 -0.0036438603 -0.44210705 0.58975697 0.04753934 0.16078982 0.57415575 0.8643476 0.15782034 0.002605412 0.31713292 0.64959973 -0.15332536 0.107339464 -0.3353338
NG -0.8364409 -0.22280848 -0.061531566 0.7752915 0.044218123 -0.4264751 0.52021706 0.38377166 0.22413456 0.35037208 -0.44038644 0.47047976 -0.074096024 0.2930992 -0.47347128 0.35928968 0.27022418 0.11415679 0.21680866 0.023086388
AI -0.32168525 -0.045110732 0.38907003 0.6244214 0.6258231 -0.35291693 -0.32113642 -0.37779668 0.7402183 0.22660278 0.29738772 0.19541743 0.41753805 -0.35583982 0.041225836 0.6229584 0.17747238 0.7243641 -0.09537961 -0.22583364
LH 0.1647067 -0.0519803 0.18115646 -0.053327594 0.4048517 0.088994876 -0.34246975 0.14154735 0.4161183 0.06178035 -0.4559934 -0.049706653 0.5543567 -0.16271995 -0.10312865 0.297455 0.36652112 0.63664925 0.9239331 0.87131083
NK -0.60959244 -0.27300525 -0.079060264 0.673255 0.7001472 -0.13572747 0.23184466 -0.3244319 0.12493222 -0.11774017 -0.36248365 0.5613968 -0.42137185 0.10724459 -0.07273096 0.5119386 0.96060723 -0.24154285 -0.19571736 0.00246594
PN -0.38410923 -0.24650323 -0.2781413 0.022994526 0.520197 -0.05795725 -0.41354507 -0.6474081 -0.17382523 0.6804737 -0.30107808 0.48632917 -0.09423369 0.47682774 0.5227823 -0.32007283 0.09860062 0.9057613 0.15325157 0.09895569
AF -0.8914788 -0.015207939 0.010443887 0.5714394 -0.4191803 -0.06549335 -0.52720004 -0.25994065 0.40511405 0.25871897 0.22006053 -0.13444486 -0.013005303 -0.45429215 0.532901 0.45444888 0.48613915 0.028045328 0.27219963 0.42105407
DT -0.6641564 0.37737274 -0.08220907 -0.5316925 0.4546789 0.5266784 0.451447 -0.38970923 -0.056866273 0.5815926 -0.4196806 -0.48060742 0.39354718 -0.26283982 -0.314365 0.593451 0.34238765 0.19507141 -0.1931395 0.21730886
KN -0.42884165 -0.11251796 0.36618042 -0.0957907 0.7650791 -0.31359175 0.025897438 -0.5042938 0.20899262 0.36620542 -0.20270605 0.825182 -0.051934205 0.65529597 0.47636497 0.028371172 0.8062465 -0.10020977 0.14426641 0.21841216
DI -0.53020406 8.040861e-05 0.28413257 0.052015617 0.89672786 0.2794688 -0.1438648 -0.5298242 0.05630713 0.057214748 0.0537297 -0.006951184 0.9413101 -0.13915266 -0.78456146 0.41825488 0.447969 0.45463225 -0.12675482 -0.18257359
QN -0.33524317 -0.2716155 0.06187772 0.33560577 0.4805013 -0.15805069 -0.25938812 -0.77542764 0.41981936 -0.27289838 -0.4731872 -0.060140576 -0.69406873 0.4113081 0.24432367 -0.45791793 0.5659531 0.6507623 0.08988981 0.41654
RN -0.35009456 0.49466538 0.65032727 0.24034849 0.94220966 -0.119056374 -0.2492396 -0.52061874 -0.1226134 0.15033111 -0.18326342 0.27755168 -0.45777288 0.5902379 0.19752617 -0.16269718 0.07404812 0.33914828 0.48622024 0.067899674
SH -0.20084894 -0.06690132 0.15862453 -0.34256735 0.6874947 0.21786831 -0.36434382 0.6727381 0.15824755 -0.101295784 -0.23745531 -0.38544384 0.16291025 -0.31271547 0.18079908 0.069892 0.44014826 0.546712 1.0478864 0.38713345
TD -0.5725369 0.35156417 0.2863115 -0.39676306 -0.0805375 -0.33809844 0.0022769088 -0.24725047 -0.33676684 0.10817438 -0.2012262 0.2612315 0.15521699 -0.8737608 -0.0033075453 0.2907885 0.641554 0.6675086 0.026329616 -0.57415885
VI -0.4264654 -0.48124555 0.5232248 0.09464113 0.47465935 -0.5905016 -0.07969076 0.018528942 0.30117455 -0.14505452 0.02391504 0.1796883 0.99082345 -0.058976512 -0.009945703 -0.051804747 0.6132598 0.83423823 -0.11995445 -0.35096586
IR -0.24810451 0.046939906 0.70955884 0.6649551 0.26545808 -0.09903394 -0.58357584 -0.08216305 0.32326317 -0.094175406 -1.2114226 0.20852113 0.09508432 -0.36499193 -0.23898688 0.045450535 0.0490816 -0.10322166 0.07135768 -0.53405005
GY -1.2623665 -0.70100236 0.5628158 0.16321646 0.12421261 0.41774753 0.18946858 -0.1357491 0.24157207 0.22640596 0.025717044 -0.2223799 -0.4698116 -0.1818521 -0.07964449 -0.27928212 -0.55721146 0.43249184 0.29192406 0.15238452
IQ -0.13313945 0.08071193 0.42102543 0.11015949 0.10541919 -0.47763097 0.32577345 -0.5440828 0.9278396 -0.0071313065 -1.1756145 0.3764449 0.091711834 -0.2205582 -0.13888386 -0.32187483 0.062233124 0.19288282 0.30591178 -0.34439513
SY -1.1461071 -0.5735579 0.19084759 -0.58020145 0.43196622 0.3709669 -0.10106866 0.2342666 0.40353888 -0.09458912 0.20015952 -0.0746396 -0.5728032 -0.10048744 -0.034003694 0.16752888 -0.111613974 0.32892627 0.59487116 -0.031589307
PI -0.33167404 -0.12427308 -0.2594004 0.118399344 0.8370953 -0.038347144 -0.43770656 -0.4771227 0.42198548 0.13794959 -0.023295136 0.10946753 0.92291903 0.03464033 0.3361396 -0.086379975 0.022333343 0.7914949 0.16473155 -0.5863548
NR -0.8875486 0.061538223 0.1782099 0.82970256 0.26046908 -0.4226551 -0.44231677 0.2822877 -0.016036984 -0.38841137 -0.41404718 0.48640153 -0.4612914 0.21540223 -0.546905 0.25097755 0.2696399 -0.07754069 0.36680993 -0.45822275
AN -0.3780251 -0.088961534 0.15952905 0.3917005 0.1934178 -0.23379488 -0.17375521 -0.45690915 0.14477712 0.61814183 -0.0643764 0.41144815 -0.5184634 0.2808506 0.44192752 0.37784326 0.44222265 0.83701503 -0.026646394 0.4076063
RI -0.33913904 0.53336763 0.64294404 0.37261686 1.1414251 -0.19000964 -0.35371077 -0.3567723 0.31992945 0.029557347 0.12590657 0.1268403 0.6954884 0.014647982 -0.20298597 0.037096575 -0.10669631 0.29598975 0.29778546 -0.30768156
NA -0.82123244 -0.03492768 -0.54845816 0.6077959 0.3113402 -0.6559561 0.2163146 -0.118916266 0.21335252 -0.011465993 -0.10026883 0.4337874 -0.22951294 0.04942407 -0.6138165 0.70433074 0.28877696 0.18857498 -0.05098293 0.13055561
IT -0.37765473 0.1855743 0.2086242 -0.035680797 0.37065047 -0.0019586568 0.3213854 -0.5841069 0.57746077 0.75762296 -1.0924081 -0.3928969 0.12702374 -0.16232722 0.11150299 0.25406566 0.34671003 -0.0486186 0.010679257 -0.45129994
NV -0.8521057 -0.33577794 -0.1951115 0.304176 0.5948429 -0.60977596 0.10366823 0.27358392 0.10347335 -0.105127804 -0.5493395 -0.011480213 -0.096992426 0.66139233 -0.6803698 0.3318868 0.59223205 0.066045076 -0.31776634 0.08250366
IA -0.32821897 0.045125294 0.063056074 0.7007876 0.27788734 -0.27300394 0.2286041 -0.45057935 0.5092655 0.17559731 -0.77234656 0.17150943 0.23705517 -0.6325097 -0.31951714 0.59173703 -0.05835854 0.07139896 -0.30265993 -0.18003462
FP -0.8426809 0.25475243 -0.8677649 0.21579912 -0.1687719 -0.023923926 0.20410609 -0.06739826 -0.11905899 -0.17695478 -0.6321099 -0.016454637 0.9185916 0.108209215 0.103330836 -0.27579948 -0.01624544 0.006925269 0.642265 -0.12978764
MA -0.69111395 0.5235282 -0.6298428 0.37750643 0.35352606 -0.18033507 -0.049166813 0.21187255 0.07128633 -0.07311828 0.115904436 0.90466344 0.14889382 -0.40977213 -0.30573225 0.02921311 0.11946044 0.46164274 -0.64630353 0.72234404
YL -0.4909705 -0.18612401 -0.07579194 -0.26207623 0.49167824 -0.23648241 0.056790702 -0.76542044 -0.47410798 -0.47406927 -0.56511873 0.36213532 0.0005755064 -0.36685404 -0.44487417 0.04785696 -0.27648434 0.25578362 0.16343053 0.23173563
HP -0.5892549 0.047999445 -0.81127226 -0.27595156 0.02952786 -0.19292356 -0.8078506 0.1945862 0.17716387 0.31741536 -1.0493286 -0.058319077 0.31580535 0.07228224 -0.04366992 -0.010740928 -0.2727984 -0.08361568 0.42119852 0.47684133
VN -0.3909625 -0.40030125 0.47247568 -0.0077451807 0.2857396 -0.7011142 -0.092547216 -0.09397131 -0.1206275 0.26159224 -0.37476608 0.2683925 -0.05021709 0.54132015 0.45702973 -0.30778852 0.8577714 0.8419649 -0.040247537 0.122967385
IG -0.43100488 -0.19717194 0.36188787 0.9190061 0.23984957 0.07816459 0.36914593 -0.02611035 0.35129437 0.75892967 -0.9122959 0.2957917 0.33874068 -0.2540971 -0.17135428 -0.090846136 0.17274854 0.021790152 0.13531277 -0.28239328
FE -0.94726866 0.38513598 -0.034068547 0.24407439 -0.075981855 0.03752129 0.1938864 -0.6513721 -0.42063293 -0.6803462 -0.4526273 0.036848504 0.66907877 0.23105778 0.18001795 -0.26599535 0.53016466 -0.28634575 0.012787489 -0.08700098
DF -1.0948725 0.05288951 -0.025950754 0.10721131 -0.081024244 0.63398105 -0.52023745 -0.3440031 -0.114034995 0.17853838 0.020083971 -0.3819972 0.5285563 -0.35808364 -0.34782827 0.4247887 0.7161306 -0.24152705 -0.0043299706 0.39158398
NE -0.94324654 0.2314196 -0.041353952 0.30337667 0.05505682 -0.42967144 0.043699488 -0.5481691 -0.040500514 -0.3550886 -0.46796408 0.44649282 -0.3268543 0.5712666 -0.32038316 0.68855673 0.54719317 -0.08928538 -0.31734315 -0.30605134
PH -0.05998816 -0.19785069 -0.2151724 -0.12788332 0.4015606 0.09253791 -0.72097665 0.097673796 0.3030645 0.39988667 -0.50793123 -0.15707734 0.7511388 -0.45581257 0.35498783 -0.4853338 -0.21623762 0.8631863 0.7888617 0.53844666
FR -0.7097426 0.284219 0.06849828 0.66817 0.10408742 0.03550569 -0.2023599 0.08108777 -0.4781646 -0.67616785 -0.5233066 0.17017666 0.5694844 -0.1621623 -0.08358878 -0.28878936 0.31621104 -0.27202332 0.599663 -0.057044882
GH -0.2511615 -0.20210166 0.5098547 0.30039686 0.38579983 0.16168824 -0.19523641 0.33947414 -0.003775002 0.351385 -0.33862236 -0.5110799 0.3194562 -0.37645507 0.11655423 -0.31255996 -0.025859708 0.8149741 0.5864203 0.7163754
NQ -0.7091809 -0.100701645 -0.17878586 0.16115788 0.10027671 -0.8886825 0.56832147 -0.18420938 0.71160185 -0.25203738 -0.45629504 0.50450885 -0.42883667 0.2531433 -0.56854826 -0.08789408 0.39622265 0.2724197 0.45937827 -0.058508005
ME -0.7655071 0.7203766 -0.12386061 0.2295706 0.07760506 0.04771717 -0.26911432 -0.2606129 -0.0013655197 -0.3341453 -0.3267446 0.9561395 0.083992384 0.18664771 -0.12869126 -0.20826909 0.43113738 0.18779929 -0.99510413 0.36310777
PF -0.8807614 -0.113703385 -0.5218321 0.31329024 -0.2915972 0.2349137 -0.78144306 -0.42601514 0.08251951 0.29014397 -0.031644616 -0.16549763 0.611881 -0.106738195 0.77097327 -0.106935814 0.31996056 0.14288017 0.40479833 0.16154252
TI -0.43070447 0.20062685 0.0266797 0.1367572 0.9193739 -0.54391664 -0.08005505 -0.3750099 0.1761328 0.15658045 0.11133708 -0.04323603 0.48051217 -0.5889369 -0.100599214 0.16429941 0.6287014 0.71532845 -0.015445467 -0.8188162
QI -0.32121915 -0.18283519 -0.0015955202 0.39742655 0.70196956 -0.13024694 -0.342814 -0.7711964 0.860876 -0.7034802 -0.06322607 -0.2630786 0.41789135 -0.109733194 -0.30880708 -0.058655486 0.5137458 0.7237081 0.0981439 -0.24191026
DQ -0.47395834 0.25998718 0.10756923 -0.4800794 0.22586605 0.10471095 0.47205743 -0.2980923 0.30563563 -0.30148757 -0.418933 0.23063578 0.3739711 -0.40076175 -0.68684214 -0.10444978 0.121235475 0.24622738 0.23503564 0.37261024
LY -0.6354456 -0.5648721 0.4509147 -0.34544277 0.16715372 0.2525068 -0.09766635 -0.42909506 0.57915485 0.011405137 -0.14805816 0.113520056 -0.15768704 0.06953574 -0.3161731 0.57201195 -0.26721817 0.2602862 0.5171572 0.6220149
IV -0.36222252 -0.29601195 0.48795515 0.22947377 0.6460158 -0.284389 -0.050335463 -0.032019626 0.3497132 0.2515901 -1.2348942 -0.29046184 0.2941481 0.13575867 -0.3510662 0.082007304 0.221998 0.12562402 -0.6097541 -0.24599443
ID -0.32746387 -0.08719216 0.8648409 0.02160073 -0.22861205 0.028224394 -0.14619927 -0.6022627 0.13339274 0.47607395 -0.95329946 0.49417356 0.45258662 -0.42256898 -0.3036941 0.3008866 0.39804676 0.3389116 0.025734494 -0.60055315
MS -0.57709867 0.34678534 -0.5845046 0.029753355 0.3255317 0.4924313 -0.06301349 0.5179733 0.1578782 0.002063458 -0.5783719 0.9088348 -0.43064812 -0.15453641 -0.19287845 -0.3597626 0.53535914 0.51518416 -0.4246209 0.14489251
EF -0.9985953 0.20150484 0.48429742 0.27706134 -0.28867134 0.21769434 -0.076478824 -0.22963071 0.45745298 -0.271862 -0.015443848 -0.36540055 0.31987634 0.0062541794 0.14698589 0.35236615 0.8428793 -0.41040325 0.24652572 0.24965084
NT -0.87122995 0.19668116 -0.4619069 0.023454309 0.35217634 -0.5912178 0.5835501 -0.35503003 0.4186661 0.5762623 -0.4354711 -0.20258227 -0.47487372 0.34936076 -0.31224212 0.49880219 0.506042 0.18905175 0.17983793 -0.26514044
FV -0.93378323 -0.062377732 -0.15458336 0.24666753 0.44967368 -0.20108245 0.3647566 0.17298019 -0.4903025 -0.37875563 -0.4921202 -0.5001804 0.7609776 0.31844988 -0.14865053 -0.3501747 0.55947864 -0.18318728 -0.054914184 0.3279175
RF -0.98924583 0.5437349 0.22285797 0.528906 0.16452841 0.16979137 -0.70300615 -0.28915226 0.2135829 -0.022545787 0.20137364 -0.40152013 0.1909898 -0.088775 0.27415547 -0.013007181 0.21018563 -0.36058313 0.6772202 0.15689003
GM -1.040409 0.6146561 0.17895856 0.5721108 -0.20508704 0.16701032 -0.025651501 0.03376805 0.44068062 0.60151595 -0.009013426 -0.19095522 0.108168624 0.27875793 -0.08428134 -0.86193895 0.0014102018 0.8945561 -0.14286268 0.26859233
NI -0.61802 -0.23324521 -0.09814705 0.6084321 0.755121 -0.5522237 0.06291234 -0.3408121 0.4339047 -0.08797084 -0.06401533 0.34293807 0.23952086 0.42917305 -0.68541074 0.40967053 0.6876246 0.44045502 0.22963421 -0.6082196
TN -0.38335872 0.22087087 0.0050740433 -0.033181313 0.76491845 -0.69248337 -0.12582208 -0.553744 -0.32004735 0.4795475 -0.22188537 0.06336591 -0.60360456 -0.038106047 0.28820392 -0.1052154 0.83151615 0.7395186 0.06120984 -0.21373573
FA -0.89722264 0.17237997 -0.5216514 0.5264839 0.15692708 -0.33394432 0.54312146 -0.18706615 -0.3074438 -0.49139544 0.032949183 -0.042099915 0.69961065 -0.32037592 -0.06384322 0.06673318 0.3411009 -0.14220709 0.26147947 0.48291624
PY -0.9172356 -0.6512411 0.09967293 -0.44589925 0.32065597 0.25175568 -0.63632774 -0.33784133 0.44527248 0.45133924 -0.05617653 0.068429984 -0.04089896 -0.2499778 0.31503972 -0.16253285 -0.70379126 0.33367607 0.3236296 0.13066156
HR -0.4652178 0.08235844 0.18194348 0.24245438 0.24411637 -0.04233601 -1.1876037 0.38694188 -0.18098627 -0.15645058 -0.94768125 0.10631623 0.054259863 -0.18001765 -0.06222127 0.012802199 -0.08547529 -0.38205498 0.45696163 0.4369695
LM -0.5364128 0.7478112 0.19391312 -0.1280012 -0.10166378 0.12569837 -0.39680222 -0.24703194 0.7497542 0.20223083 -0.04241863 0.20554754 0.17097482 0.43921232 -0.44695154 0.069518544 0.39405024 0.6142105 0.06326859 0.6357828
MG -0.7488512 0.24854642 -0.23319954 0.70785296 0.19657509 0.2071713 0.15780419 0.46831003 0.2876585 0.5783501 -0.32224903 0.9884197 0.097617276 -0.21269865 -0.37152478 -0.7704364 0.056998707 0.4749801 -0.23620419 0.3490887
HG -0.57368684 -0.20152937 -0.2324767 0.3048948 0.1993261 -0.043084987 -0.30657533 0.5154962 0.07113572 0.5189356 -0.8619074 0.090847574 0.14068773 -0.043208025 -0.0061232783 -0.1165986 -0.18039887 -0.28325918 0.5829039 0.72961706
TF -1.0204834 0.30902234 -0.34404787 0.2654483 0.0026766954 -0.3603305 -0.51498073 -0.35539648 -0.117229916 0.21676062 0.109067805 -0.44291562 0.036728106 -0.7757765 0.30621144 0.06805957 0.9598222 -0.040273014 0.30449432 -0.35747284
ML -0.13740003 0.6906302 -0.27345636 0.27667075 0.20759183 -0.009067438 -0.14330974 -0.0935606 -0.040587258 -0.0067234156 -0.6185909 0.8982237 0.038824007 -0.25835374 -0.50630456 -0.25056297 0.5684426 0.6118641 -0.2620038 0.6098077
SM -0.9262526 0.64989036 -0.0035503483 -0.27855745 0.094574586 0.19249545 -0.28956002 0.37733737 0.52168137 0.18942897 0.24368414 0.07311083 -0.22009802 0.3724366 -0.17972337 -0.28961426 0.6419913 0.7108564 0.07784544 0.19446197
RH -0.08812994 0.5910091 0.6664993 -0.011295043 0.8334971 0.035826452 -0.578257 0.24544953 0.20271061 -0.03588527 -0.3122962 -0.27182117 0.2090532 -0.45551005 0.06645397 -0.12396032 -0.020077985 0.19843219 0.9396548 0.45493543
II -0.27129635 -0.13015173 0.5526099 0.4504657 0.6714887 -0.05635461 -0.14687237 -0.71981704 0.60155874 0.50746894 -0.6148862 0.13423778 0.7015034 -0.10195081 -0.32470262 0.122723326 0.34349352 0.31227875 0.048226733 -0.7511245
YR -0.9244151 -0.36788216 0.34663144 0.1310517 0.45857543 -0.017522922 -0.5615174 -0.2253688 -0.411696 -0.66697973 -0.30108395 0.51189137 -0.07606873 -0.5144785 -0.35025388 -0.11365281 -0.6031392 -0.017244764 0.24666217 -0.20880535
VF -0.97029674 -0.4337659 0.15002988 0.10463348 -0.4608 -0.36824137 -0.38413832 0.14450076 0.1548253 -0.05335375 -0.05897193 -0.24451038 0.5658999 -0.17686361 0.53721106 -0.071828015 1.002692 0.06967841 0.08149169 0.19206288
EM -0.79301083 0.9481154 0.7644398 -0.047107406 -0.08802627 -0.040477645 0.056786045 0.1539096 0.82898384 -0.01489613 -0.16364928 0.020215716 0.16370915 0.31142738 -0.22948079 -0.052861888 0.64311415 0.060363762 -0.3681545 0.4409335
MP -0.69850016 0.35507238 -0.96829545 0.10209419 0.11534116 0.03328739 -0.3185995 0.3179495 0.3945242 0.29008183 -0.5739327 0.77587265 0.41070518 0.09506407 -0.26970002 -0.6436556 0.030301325 0.57553625 -0.36260822 0.18039498
CS -0.4307674 -0.7764911 -0.13431619 0.07018076 0.24937876 -0.05398657 0.059535954 0.07580757 -0.623334 -0.31088993 -0.82195944 -0.2237825 -0.022132456 -0.19195026 0.5678612 1.0801075 0.06744913 0.23509273 0.630218 -0.053392254
IN -0.28461167 -0.23507522 0.6190591 0.44553155 0.38712832 -0.13924731 -0.045210574 -0.82134414 0.19550832 0.6931728 -0.9113425 0.22981595 -0.25993857 0.3381306 -0.032647748 -0.18350817 0.5715704 0.46334788 -0.028174317 -0.24339186
FD -0.82428616 0.08681525 0.28921813 -0.06429429 -0.45627597 0.14269458 0.31209823 -0.4124511 -0.54831976 -0.2524619 -0.3187817 0.3671918 0.9056502 -0.2610151 -0.20470122 -0.27848417 0.7766896 0.17293696 0.61395174 -0.13705787
AY -0.84399045 -0.58139086 0.4772848 -0.23320806 0.04049501 0.03448842 -0.25244993 -0.20558992 0.7982911 0.32805607 0.02954806 0.102152474 -0.58862877 -0.5341534 0.042293496 0.49331614 -0.3240644 0.3224865 0.02313064 0.46339968
FK -0.56577533 -0.059246246 0.026162073 0.39948562 0.5497562 0.31680286 0.50839484 -0.48397014 -0.44132617 -0.32102287 -0.4539696 0.0332366 0.6086513 -0.34864643 0.36320707 -0.33202973 1.0670273 -0.36119294 0.15073033 0.19080609
DN -0.5501431 -0.0655557 0.5224158 -0.0109572895 0.64168686 0.3916934 -0.03435625 -0.5592895 -0.49359545 0.39850053 -0.3013702 0.20540081 -0.09530185 0.50448006 -0.5267159 0.12854035 0.69220495 0.5097782 -0.048452426 0.3205188
FQ -0.6333453 0.2613066 -0.23115137 -0.013631707 -0.054785214 -0.46393043 0.6582107 -0.28209275 0.17586164 -0.7074975 -0.49872032 -0.012503323 0.42834103 -0.13135584 0.011522128 -0.6571565 0.42178947 0.029826561 0.8051246 0.23681065
NN -0.7523217 -0.26245785 -0.03627184 0.3803853 0.47331068 -0.5448515 0.0068872045 -0.3840475 -0.022876676 0.39782572 -0.29402515 0.5258451 -0.7042118 0.7511729 -0.35119015 0.058243033 0.7402205 0.4669266 0.31756923 -0.0904586
AH 0.0017849412 0.002774118 0.26424557 0.15498586 0.2494024 -0.10841337 -0.55583334 0.47184932 0.4899381 0.3865008 -0.3417142 -0.27471164 0.2648608 -0.7224313 0.1761133 0.49354756 0.28511342 0.62004864 0.50354785 0.8080023
FT -0.7885072 0.44067422 -0.38646236 -0.097541064 0.1786338 -0.058077734 0.7778682 -0.46441916 -0.20160286 0.13156596 -0.5013459 -0.64753366 0.50154066 -0.13315205 0.20218018 -0.07064905 0.50575626 -0.13542257 0.5582874 0.019937048
KF -0.9933025 -0.087237164 0.056636207 0.13492018 0.016079195 -0.15238245 -0.29376647 -0.4865685 0.43797246 0.083434336 0.20352426 0.25037104 0.37948352 -0.12804835 0.41510198 0.23234344 0.8884668 -0.72691876 0.39457688 0.28150246
YP -1.023137 -0.50390595 -0.6310373 -0.3655244 0.28793254 -0.22489007 -0.28989103 -0.30474305 0.00064520363 -0.10272298 -0.4835461 0.19694042 0.3199928 -0.19270118 -0.33359265 -0.3828061 -0.78218347 0.31017295 0.26179856 -0.22580373
RY -0.90853107 0.047296155 0.8662658 -0.25431085 0.6164329 0.25168484 -0.32823506 -0.28699234 0.37428945 -0.048471782 -0.061929002 -0.10305281 -0.43445286 -0.21768671 -0.16129752 0.076467685 -0.636806 -0.19293071 0.6314132 0.11686924
CL -0.15514718 -0.18279092 0.10803508 0.37815443 0.049537763 -0.5187072 0.0333142 -0.5940884 -0.68565434 -0.1999376 -0.91187745 -0.1484493 0.32275945 -0.20253979 0.17760086 0.85398513 -0.065009736 0.36905515 0.48822862 0.3056747
EH -0.055048857 0.24280708 0.81991947 -0.20781717 0.25576007 0.17988847 -0.061433498 0.411248 0.51388925 -0.30052498 -0.5758477 -0.36732188 0.5898572 -0.36777207 -0.04141076 0.23864345 0.48473644 0.19586395 0.5500926 0.7100825
LC -0.48454046 -0.046071723 0.3978047 0.030200955 -0.02511348 -0.523852 -0.32354563 -0.37044626 -0.17376226 0.0020773427 -0.2063736 -0.34667397 0.5405429 0.45565495 -0.06792958 0.9795424 -0.032192245 0.4540884 0.6660795 0.5834395
ND -0.9336372 -0.12491517 0.27355993 0.07373643 -0.35063168 -0.29845387 0.094477944 -0.30430067 -0.11390662 0.09765425 -0.26184726 0.7889947 -0.09574008 0.10708979 -0.7293028 0.4997307 0.7456109 0.33322456 0.35439688 -0.5179899
YE -1.2262731 -0.034538224 0.30727583 -0.24903697 0.3262372 -0.10168213 -0.113006875 -0.87678504 -0.27864823 -0.7034102 -0.10146587 0.4266014 -0.13580234 -0.008335326 -0.19812733 -0.049430996 -0.39646137 -0.21494615 -0.38387522 0.009281773
AM -0.74877024 0.8458115 0.3087642 0.12593372 -0.22838598 -0.16928163 -0.38780293 0.13746054 0.9366468 0.44664642 0.09387588 0.123853974 -0.2634689 -0.1409052 -0.021309577 0.16133247 0.22822878 0.65610194 -0.5111568 0.5718263
EY -1.0162164 -0.16397338 1.0516312 -0.39320102 0.16039476 0.24990784 0.26404956 -0.23845306 0.70968807 -0.28619376 -0.15612729 -0.12144602 -0.20535265 -0.1351721 -0.27841228 0.37709737 -0.037981883 -0.30631223 0.023193777 0.23969632
DY -1.1969515 -0.49586985 0.52999353 -0.43521285 0.35607475 0.7806544 -0.17054003 -0.24174452 0.16685508 0.18340819 -0.11690041 -0.11687741 -0.018191993 -0.35136253 -0.80470365 0.20350282 -0.10683121 -0.07309396 -0.025401529 0.2826333
PM -0.789934 0.57678384 -0.20876926 -0.069363765 -0.030687325 0.17782488 -0.6644965 0.10662922 0.7193129 0.5681879 -0.14104083 0.14120956 0.12903981 0.25493568 0.13302201 -0.7471173 -0.005632844 0.8589452 -0.17056926 0.17472513
QH -0.07099903 -0.27356377 -0.021181813 0.0023529679 0.35258752 -0.019923119 -0.536036 -0.04357128 0.7270582 -0.4365174 -0.63579816 -0.62796557 0.14638254 -0.6531719 -0.1140621 -0.41759357 0.39413625 0.61959994 0.7279819 0.7009271
XM -1.1879923 1.2203372 0.16634996 -0.0029016754 -0.33235803 0.09343902 -0.33300987 0.59432137 0.526856 0.46332633 0.34296766 0.026387744 -0.24947615 0.035881594 0.11686295 -0.09247923 0.39802003 0.62119687 -0.39216256 0.572313
HQ -0.19048856 0.037693616 -0.306163 -0.31456876 0.30638227 -0.70102733 -0.4211462 -0.12438748 0.62143207 -0.20336092 -1.0376801 0.14573066 -0.1497374 -0.11458038 -0.046672165 -0.4145209 0.043064553 -0.12979148 0.8181193 0.805657
SC -0.83086663 0.04298455 0.32211226 -0.14271316 0.17135255 -0.45979464 -0.2759568 0.268524 -0.43626845 0.07081618 0.028754942 -0.55709565 0.18810001 0.43802947 0.21642561 0.8212289 0.110111944 0.545131 0.78964895 -0.07927025
HV -0.4333328 -0.2045712 -0.24379987 -0.13998319 0.7775994 -0.40929306 -0.6807972 0.3896613 0.050517853 0.12939006 -0.9360296 -0.2846673 0.13559845 0.4015534 -0.18228082 0.04662695 0.2563039 -0.18566975 -0.17968091 0.8999688
KY -0.9479262 -0.6408611 0.6587795 -0.45113808 0.44592783 0.0489508 0.038473263 -0.31337112 0.75284195 0.17258513 -0.023317045 0.4076772 -0.002519305 -0.10656468 0.053447403 0.32531172 0.16291082 -0.55941594 0.13176715 0.20702884
HA -0.42879274 0.19834696 -0.6424093 0.22014363 0.40453237 -0.4712308 -0.4783101 0.1155627 0.07578463 0.1662126 -0.49776635 0.0529555 0.22960763 -0.44689244 -0.12606698 0.42069793 -0.0070852456 -0.288359 0.19275084 1.0665135
YA -0.97105527 -0.35401285 -0.34469578 0.005535356 0.47008443 -0.4454514 0.10851648 -0.4548271 -0.19100977 -0.51731 0.20102888 0.2836274 0.27653062 -0.6996717 -0.34403 0.16266532 -0.43001577 0.09272802 -0.0890238 0.41747463
QF -0.9454327 -0.3072473 -0.2639492 0.43416697 -0.30988243 0.10572137 -0.5496141 -0.68494767 0.64290035 -0.51328796 -0.06626422 -0.49267307 -0.046108443 -0.36544818 0.18980484 -0.22798258 0.7060924 0.08240865 0.27244252 0.2578998
VH -0.16965464 -0.51308185 0.5424893 -0.18772355 0.21097387 -0.4689055 -0.38121814 0.51243687 0.18807442 0.06923856 -0.51484925 -0.19412182 0.6928235 -0.41764295 0.12217385 -0.28019577 0.6936528 0.5634126 0.54821837 0.41331875
MD -0.65379214 0.33138156 0.15967853 -0.2099559 -0.21790962 0.18549748 -0.13090491 0.08353947 -0.09050065 0.16002375 -0.14265111 1.2760412 0.29912987 -0.41350937 -0.4639662 -0.30398464 0.739906 0.64754236 -0.28159818 0.100972965
IF -0.750606 -0.24982387 0.394332 0.698839 -0.19511524 0.14952324 -0.44367373 -0.7387265 0.4905182 0.546529 -0.5946602 -0.2489892 0.37123373 -0.30164087 -0.032770928 0.104843244 0.7522851 -0.3153155 0.2791727 -0.34991333
NF -1.2206867 -0.2682195 -0.33675715 0.75647146 -0.20426115 -0.19381426 -0.3404342 -0.2697438 0.30663806 0.22204715 -0.039388303 0.084846884 -0.1517741 0.27899924 -0.33665138 0.25989535 0.9681721 -0.2380646 0.3950348 -0.08955185
MK -0.4261385 0.19845611 -0.0022027385 0.34781328 0.66743356 0.20881963 -0.106850326 -0.25526494 0.12882556 -0.07261888 -0.31959096 0.9337896 -0.07006097 -0.35102615 0.015453417 -0.520152 0.88369286 0.021848615 -0.6879078 0.64700174
HE -0.5454024 0.33685428 0.00951974 -0.15622476 0.12003339 -0.10760243 -0.98065895 -0.3185401 -0.13139503 0.036251843 -0.88346034 0.12642649 0.15005572 0.25083205 0.1326515 0.22308247 0.16974509 -0.5139704 -0.14168993 0.65320194
QM -0.68505126 0.49901763 -0.11230446 0.13890071 -0.07342771 0.1264516 -0.3578784 -0.3362801 1.1863794 -0.1552982 -0.20453589 -0.28379297 -0.21991904 -0.040665288 -0.37499785 -0.68540996 0.66921777 0.6944875 -0.19887048 0.4862018
YQ -0.76083916 -0.30701378 0.003063535 -0.5384587 0.36239076 -0.54467434 0.31315234 -0.5569048 0.25014985 -0.6262019 -0.37252927 0.45014694 -0.08107974 -0.31189662 -0.37242374 -0.44012943 -0.4620666 0.29604825 0.3706702 -0.048736684
KH -0.122750744 -0.064766906 0.4416574 -0.2748688 0.75221235 -0.07297516 -0.25001734 0.28037715 0.47026655 0.22856246 -0.30963808 0.2623172 0.7259698 -0.41885042 0.25659725 0.11752543 0.7162107 -0.38396424 0.7795649 0.55283445
CP -0.6847566 -0.5756623 -0.3143777 0.16829352 0.012472353 -0.51266915 -0.20082754 -0.2169451 -0.33103645 0.03249086 -0.84157896 -0.24987751 0.7959592 0.13618055 0.59318334 0.8037507 -0.62954354 -0.02064894 0.5929764 -0.17093845
FI -0.68044835 0.06150391 -0.014450066 0.5346805 0.6560793 -0.1932965 0.2951636 -0.64533716 -0.10074449 -0.31873223 0.053140424 -0.014908164 1.0136241 0.11476465 -0.3272616 -0.33684766 0.6847061 0.14727671 0.6548517 -0.29424623
TY -1.0041912 -0.30422148 0.35332936 -0.42351076 0.4648019 -0.4320012 -0.21653788 -0.19674991 0.25707284 0.3195009 -0.00065408513 -0.37665996 -0.4651792 -1.0260273 -0.20604324 0.23211034 -0.075133845 0.13794118 -0.0357448 -0.24668404
MV -0.58793706 0.028017337 -0.17878848 0.08900443 0.6763592 -0.29959184 -0.08196907 0.35383564 0.065601915 0.11911002 -0.5193716 0.39808482 0.29187018 0.14663097 -0.54201543 -0.49293897 0.33488613 0.33585483 -0.8469735 0.7020793
KM -0.80854315 0.7016131 0.4801293 -0.18419431 0.21940145 -0.10733289 -0.2167673 0.036035933 0.97550035 0.5202306 0.040972635 0.59183174 0.32465655 0.2126096 0.029667685 -0.11405896 0.71723104 -0.29004487 -0.25545236 0.25333834
VY -1.0362519 -0.99830675 0.675046 -0.6013287 -0.048904147 -0.35468873 -0.21023156 0.15974823 0.49331078 0.07976318 -0.22468153 -0.055399112 -0.03837181 -0.23326246 0.08056511 -0.16227444 0.08551564 0.1948416 -0.057973042 0.16034944
RM -0.7098347 1.256228 0.5403977 0.08039911 0.25280693 0.079401106 -0.5000508 -0.01763839 0.7079914 0.20044391 0.03137507 0.15053111 0.034822892 0.3430126 -0.23698346 -0.4479383 0.023212498 0.33096212 0.0455298 0.36463112
HT -0.37787044 0.36970717 -0.344587 -0.45010632 0.6066589 -0.19097057 -0.23871407 -0.050970435 0.19010733 0.7470973 -1.0026731 -0.52354556 -0.08626808 -0.031826522 0.17622143 0.16613433 0.14243661 -0.3581487 0.44110933 0.6041714
YT -1.0329707 -0.19352898 -0.28825945 -0.64439166 0.6448897 -0.17332765 0.5636557 -0.7867161 -0.031582903 0.21047296 -0.2939488 -0.2906797 -0.13315311 -0.36097714 -0.12381324 0.046414953 -0.3749746 -0.01145205 0.14932993 -0.17432246
MQ -0.33998373 0.47389185 -0.23183948 0.05902773 0.23060368 -0.57157695 0.099119276 -0.0049126553 0.64002454 -0.27734575 -0.44926828 1.1311107 0.007439767 -0.17211452 -0.35621536 -0.82404673 0.11742889 0.48967963 0.009690586 0.4925584
CG -0.668234 -0.71810806 0.18918376 0.7757954 0.26602712 -0.41424635 0.38135436 0.16474521 -0.5052629 0.36982888 -0.4960505 -0.019103378 0.49755824 -0.19473714 0.39205366 0.7799767 -0.27635285 -0.06618858 0.689083 0.14359526
TH -0.1163485 0.25780672 -0.023363767 -0.24908075 0.7055352 -0.5875035 -0.44231182 0.298253 0.05320404 0.33336285 -0.4038488 -0.5128116 0.25912565 -1.0517902 -0.09781001 -0.011030214 0.608402 0.54688805 0.54234254 0.09789352
MR -0.48312083 0.48295 0.15090364 0.64994586 0.23832221 0.04857944 -0.81095 0.43485 0.08632763 -0.4331502 -0.43146425 1.127614 0.14133362 -0.17932491 -0.36962152 -0.499587 0.14773321 0.2913139 -0.29085147 0.26694897
QY -0.93616563 -0.7222655 0.1748301 -0.14578603 0.016636563 0.16500448 -0.29947892 -0.67581135 0.8826101 -0.3814322 -0.25372118 -0.2783562 -0.4703237 -0.30758253 -0.2186692 -0.18844016 -0.05834333 0.23095042 0.008490452 0.44507644
YD -1.1478484 -0.47980878 0.48041293 -0.39439312 0.06035961 0.10373368 -0.05619519 -0.6816932 -0.31735945 -0.25467917 -0.008241636 0.70082146 0.13897812 -0.6098354 -0.5538785 -0.12972385 -0.27449867 0.3348917 0.19014917 -0.44806913
YK -0.70364827 -0.6247318 0.1792112 -0.14969352 0.9768031 0.057489537 0.12612157 -0.8015872 -0.2996337 -0.48644483 -0.21452993 0.40062013 -0.012381484 -0.68512595 0.1440233 -0.1023689 0.15107355 -0.2998634 -0.18097427 0.15675844
HK -0.19839062 -0.18759869 0.123982124 0.101177566 0.7914446 -0.002112587 -0.72218615 -0.27346846 -0.08808282 0.0912054 -0.8349151 0.22191678 0.06942529 -0.2544633 0.30539295 0.099194884 0.6784814 -0.6457847 -0.0152398115 0.9346756
FN -0.6049319 0.038408943 -0.09526151 0.32497913 0.24160545 -0.029060729 0.30759048 -0.6410488 -0.5617658 0.015487707 -0.39522803 0.14763074 0.090973556 0.63067245 0.06641133 -0.60867023 0.9292061 0.34104547 0.7000818 0.3121805
VM -0.8173381 0.30622736 0.4612276 -0.34282938 -0.3805715 -0.5733238 -0.32922593 0.4190903 0.5873345 0.26836288 -0.20267418 -0.058590703 0.2755969 0.17684941 0.034757312 -0.55130595 0.7226546 0.6751139 -0.40056378 0.2757374
AC -0.6355293 0.015856022 0.53925717 0.2704501 -0.18374002 -0.7643174 -0.49657953 -0.041841473 -0.03363067 0.37056077 -0.07074558 -0.40009192 -0.02725578 -0.064133205 0.30647296 1.0836335 -0.21213907 0.50327957 0.2547912 0.585873
YV -0.9689255 -0.70470744 0.16584378 -0.3235157 0.96013033 -0.39628592 0.11162649 -0.24067855 -0.25163546 -0.43278986 -0.42402157 -0.095271125 0.23709942 0.07333497 -0.46038178 -0.22526321 -0.29572308 0.009287244 -0.44936186 0.12854381
MN -0.5276382 0.11031908 -0.12404839 0.41224062 0.45306924 -0.06318946 -0.28740302 -0.2900773 -0.045111846 0.4616638 -0.2056199 1.0610857 -0.44089484 0.47900745 -0.2688121 -0.6347032 0.60786104 0.77578026 -0.273348 0.5823942
MT -0.63541615 0.6568032 -0.5550414 -0.2977766 0.47436062 0.1246504 0.27947026 -0.20669805 0.3462801 0.6874981 -0.3807317 0.3713316 -0.09719682 -0.032902755 -0.20882607 -0.3514709 0.45576754 0.35002613 -0.5205247 0.33037674
FF -1.034947 0.0052946545 -0.1962015 0.38672605 -0.1786688 0.070842795 -0.11462572 -0.3971553 -0.3229022 -0.14831069 -0.11707317 -0.23634861 0.67837167 -0.029333636 0.20242757 -0.26646382 0.9609309 -0.3599101 0.78615195 0.22988312
DH -0.30392838 -0.060599316 0.43382022 -0.2767475 0.6043156 0.5776272 -0.32438436 0.22837712 -0.08009118 0.21494597 -0.42578447 -0.39368644 0.63489753 -0.5596458 -0.62979513 0.080365516 0.49852073 0.30751395 0.46187967 0.54575884
TM -0.76520073 0.9311948 -0.079184316 -0.24847102 0.12492009 -0.40899014 -0.32693538 0.15435871 0.42532495 0.5634229 -0.009596676 -0.10884377 -0.12276766 -0.51166415 -0.214266 -0.31788388 0.7623676 0.6844219 -0.3402949 -0.049711324
HI -0.23529124 -0.09066499 -0.123071074 0.051975675 1.1084055 -0.46356162 -0.9000717 -0.32288104 0.15947051 0.48710504 -0.37367818 0.076927856 0.6819137 -0.01534598 -0.48744792 0.055158503 0.47010598 -0.0876239 0.52289027 0.17820776
VC -0.8540958 -0.39439893 0.69217646 -0.18331133 -0.178831 -1.1404595 -0.28832603 0.17024411 -0.31325945 0.17506653 -0.25245285 -0.43483493 0.5316552 0.20861961 0.25261858 0.46645504 0.17604956 0.4004737 0.24994583 0.16492905
CR -0.5933328 -0.46700642 0.5009028 0.6775644 0.22442524 -0.6248892 -0.40498748 0.019051112 -0.5832359 -0.6071301 -0.67736727 -0.14856143 0.25499788 -0.25595284 0.2743786 0.69444007 -0.48411986 -0.0014253355 0.5147437 -0.10600135
DM -0.9105441 0.6766925 0.36879343 -0.17688322 0.056487903 0.39889 -0.24553822 -0.1901499 0.332101 0.26313877 -0.04446837 -0.09501547 0.30152225 0.018838296 -0.90804684 -0.19226672 0.3878652 0.3413511 -0.35648853 0.59648585
YN -0.93405694 -0.7135886 0.10123399 -0.07203175 0.7540974 -0.21943375 0.04964802 -1.0043105 -0.5026178 0.17382711 -0.10714401 0.4143028 -0.4600281 0.19870877 -0.17387965 -0.48914945 -0.08218465 0.44316727 0.13710877 0.12498974
NM -1.1236193 0.40951222 -0.056956846 0.22632882 -0.15343645 -0.49159336 -0.14130579 0.054557215 0.6722596 0.4804085 -0.08928484 0.17892084 -0.42134875 0.5374743 -0.7940282 -0.20131655 0.76703525 0.35666087 0.030277688 0.07137041
NY -1.293603 -0.7321987 0.1597169 0.14292674 0.19332983 -0.1856789 0.10172194 -0.21797864 0.55329365 0.15914355 -0.08836021 0.2492574 -0.8313202 0.16830963 -0.7736267 0.29834384 0.1098755 -0.020055223 0.422107 -0.18608674
HH -0.110384755 -0.13751595 -0.25916135 -0.34039155 0.5158542 -0.14816615 -0.92298824 0.4313196 0.45174363 0.24135536 -0.9999042 -0.2609171 0.15153597 -0.50617784 0.0047177332 -0.38290995 0.1874705 0.11423488 0.96404845 1.0446494
YI -0.8218391 -0.56945324 0.24568154 -0.013028044 1.0496918 -0.3669888 -0.08610547 -0.76532674 -0.020670695 -0.28656155 0.17597422 0.2062931 0.50424784 -0.1714279 -0.56967837 -0.12647629 -0.09686122 0.3073616 0.21777438 -0.42012084
CE -0.6734085 -0.31477594 0.34435838 0.20670564 0.044292353 -0.5385862 -0.20788193 -0.70319855 -0.5271296 -0.43003383 -0.63593733 -0.1546057 0.36290735 0.22849199 0.5294252 0.84260523 -0.13020986 -0.11811471 -0.05397668 0.09992914
IH 0.13060717 -0.30186975 0.7370871 0.18776262 0.4744909 0.001426356 -0.32984057 -0.04477382 0.52167976 0.572026 -1.1466931 -0.24593043 0.5070994 -0.54375815 -0.28700438 -0.0067380616 0.53555787 0.28584966 0.55318713 -0.039409444
RC -0.68842417 0.57527494 0.70436025 0.08357206 0.32965648 -0.7023468 -0.43348423 -0.14690647 -0.36368656 0.07025925 -0.185708 -0.6104538 0.34319496 0.2684662 0.14374407 0.52185345 -0.45567635 0.10231053 0.77349204 0.24957697
GC -0.8855001 -0.068204574 0.6597087 0.5266941 0.020858435 -0.3693381 -0.0060361284 -0.02955798 -0.40748695 0.2593115 -0.1526674 -0.74291843 0.2820911 0.39374885 0.2214712 0.34515446 -0.25833663 0.64998984 0.28240642 0.11098854
PC -0.57778203 -0.042433646 0.0029676936 -0.074400924 -0.04544705 -0.5431973 -0.70697916 -0.28824368 -0.30609405 0.33188063 -0.3144001 -0.37686047 0.6032573 0.41862938 0.56508106 0.5565977 -0.48083463 0.72504115 0.5233872 0.19171005
SW -0.6719349 0.24722552 0.35080248 -0.75614023 0.5278678 -0.054674894 0.36114916 0.2884798 -0.69055855 -0.10026198 0.23494934 0.47394067 0.047544103 -0.039528456 0.5995555 0.0021599259 0.046960287 0.41137418 0.40202034 0.67906886
CA -0.59593964 -0.43659174 -0.11723774 0.55876213 0.17947291 -0.6659586 0.1915627 -0.24556953 -0.49665448 -0.26986519 -0.24299832 -0.14556572 0.45618516 -0.48410228 0.2265493 1.1794727 -0.3263679 0.1597965 0.38325408 0.5017776
IY -0.704289 -0.64551646 0.8216971 -0.11014949 0.2821756 0.21997273 -0.1508963 -0.6871895 0.66386414 0.54323363 -0.7728529 -0.08310215 -0.24459727 -0.3742939 -0.43831173 0.2681354 -0.081801854 -0.11875275 0.17524281 -0.27547085
DC -0.82732236 0.07676829 0.5198257 -0.10457096 0.14766389 -0.11639287 -0.32424617 -0.058007862 -0.621022 0.42090872 -0.25401273 -0.5875718 0.6906357 0.13601564 -0.49787387 0.83441436 0.042247135 0.30838394 0.04722126 0.3784361
HF -0.8498419 -0.07020801 -0.3396439 0.08564912 -0.12838605 -0.04635041 -1.0924277 -0.25254673 0.03990428 0.29787126 -0.46942893 -0.19857135 0.2669508 -0.117821336 0.03438994 0.029307738 0.65490896 -0.60603154 0.5939511 0.6895859
EC -0.728139 0.2506301 0.92914623 0.08917695 -0.10342735 -0.5643787 0.11245655 -0.072314724 -0.03913593 -0.13663225 -0.27377024 -0.5906026 0.42049435 0.4217077 0.065089956 0.8414799 0.21462394 0.05812051 0.29878864 0.34848857
HD -0.58702815 -0.010708886 0.2983741 -0.62375945 -0.18719827 0.15215187 -0.7991226 -0.026330613 -0.36105168 0.362636 -0.7263243 0.50361687 0.11660265 -0.26759908 -0.33045653 0.1700264 0.2858998 -0.10820822 0.6347112 0.32025322
CV -0.60279983 -0.78707623 0.25243473 0.23726107 0.55380046 -0.70414513 0.022081876 0.06911759 -0.5207671 -0.041273195 -0.7070845 -0.5180093 0.4065755 0.20904993 0.09273365 0.6269122 0.008197626 0.073138595 -0.10510102 0.4993635
FH -0.3038202 -0.08612993 0.051798005 0.13098407 0.36774272 0.047023576 0.08037321 -0.041310046 -0.111138314 -0.17835799 -0.5355478 -0.46192655 0.88633525 -0.5270638 -0.015113552 -0.5425269 0.7087771 0.008091945 1.1390144 0.4873721
YY -1.2397014 -0.88600725 0.3439409 -0.39147946 0.47769895 0.077852696 -0.099498674 -0.577241 0.16584618 -0.05002633 -0.028590566 0.3424571 -0.51897043 -0.56236523 -0.37694287 -0.16950521 -0.6525085 -0.05339274 0.2802078 0.27260998
TC -0.9037725 0.18211354 0.17214885 0.04785826 0.09558275 -1.0795416 -0.31707153 -0.18845382 -0.69574034 0.23795927 -0.12239882 -0.8244172 0.18340963 -0.41980538 0.043950424 0.6058489 0.27069527 0.38314304 0.29165262 -0.14447214
WL -0.43037125 0.29440847 0.22162935 -0.008481119 -0.36099255 -0.40577093 0.2824615 -0.3285878 -0.6541396 0.107399225 -1.1313254 0.48866865 -0.35014376 -0.37441766 0.09328669 0.23614101 0.011489481 -0.0027780891 -0.028831443 0.67483735
NH -0.252813 -0.16571593 0.026652334 0.3043374 0.4673186 -0.42345032 -0.35805875 0.43247417 0.34774825 0.25434443 -0.5329787 -0.0067547257 0.03178703 -0.08514126 -0.90552944 0.16071296 0.90042156 0.3672345 0.9525373 0.2376461
KC -0.71380275 -0.19179067 0.7408014 -0.17312075 0.40495202 -0.9481831 -0.18100224 -0.1753323 0.014231091 0.29253262 -0.1412823 -0.01964322 0.68675154 0.42127255 0.27352256 0.81749725 0.23708911 -0.45957747 0.46593451 0.2842256
CT -0.61036193 -0.41980964 0.096710585 -0.1396759 0.38775408 -0.5010141 0.42638785 -0.63958365 -0.24831976 0.42829725 -0.64212066 -0.7258281 0.30069104 -0.09451314 0.4337684 0.87077826 -0.121059604 0.009876968 0.47450975 -0.036161352
YF -1.3771585 -0.5236437 0.019035622 0.0032895776 0.11728561 -0.13947164 -0.4148921 -0.83652425 -0.23733096 -0.23932806 0.22539812 0.016842706 0.083015524 -0.3937607 -0.100338966 -0.20783803 0.20366389 -0.4644388 0.34266418 0.15989195
CK -0.26062083 -0.8596195 0.42409322 0.38694853 0.68674743 -0.19621424 0.05380982 -0.80883145 -0.49238664 -0.17058209 -0.56310034 -0.08255669 0.3915382 -0.50473845 0.5429748 0.8626372 0.41199556 -0.19279736 0.16301088 0.39577904
FY -1.1460669 -0.5608474 0.26545703 -0.27123177 0.01848001 0.25303963 0.2405762 -0.46773633 0.012270647 -0.17186467 -0.25565365 -0.2920875 0.19025156 -0.09494165 -0.3115887 -0.34128118 0.20695738 -0.38413417 0.8077587 0.39393592
HN -0.29773274 -0.04818992 -0.0684072 -0.018231131 0.56337464 -0.25806633 -0.7925851 -0.518588 -0.17243548 0.5852296 -0.7861652 0.2585193 -0.5260001 0.6064417 0.006226363 -0.14604637 0.45418966 0.15122966 0.43262595 0.75607234
CD -0.5672979 -0.6999262 0.525765 -0.06859054 -0.22528003 -0.34892425 -0.018535428 -0.4786613 -0.68079984 -0.04559856 -0.41520146 0.1959558 0.6872904 -0.34318691 0.24025477 0.96804017 0.07302463 0.3626522 0.5470896 -0.111025184
LW -0.21375221 0.04368675 0.50896746 -0.37789777 0.42164353 -0.26396063 0.35873923 -0.30464497 -0.2921286 0.066701986 -0.12859026 0.7001141 0.3959166 0.14859143 0.25327283 0.2747789 -0.31534556 0.50184464 0.34030303 1.1220858
WE -0.9386986 0.37711716 0.37098593 -0.20419674 -0.31126982 -0.21237154 0.10330357 -0.44495276 -0.49335948 -0.08718991 -0.8497792 0.44226712 -0.48735985 -0.13833566 0.4911739 0.1585731 -0.1920944 -0.36977005 -0.5005102 0.41401356
CQ -0.32621077 -0.5312469 0.32563055 0.09175173 0.17499809 -1.1901752 0.31920445 -0.46595928 0.09839701 -0.54428923 -0.65016955 -0.14117631 0.15093802 -0.19471914 0.3619293 0.52906823 -0.3224925 0.107235715 0.90148103 0.2891752
IM -0.47292358 0.53798497 0.6209363 0.16985089 0.022222621 -0.0527419 -0.42780042 -0.20678864 0.8610795 1.0008156 -0.8367929 0.13860737 0.056468464 0.0641694 -0.45504627 -0.3961789 0.5693965 0.24637705 -0.20265457 -0.13285962
QC -0.6655144 -0.33154604 0.32964155 0.22453794 -0.07214946 -0.7418387 -0.46997488 -0.56646454 0.12383958 -0.56337124 -0.4612447 -1.0612537 0.096087515 0.12580258 -3.5412457e-05 0.3676808 0.002505995 0.46784565 0.32440326 0.3517752
IC -0.56353736 -0.14398381 0.92764324 0.29266283 -0.038379993 -0.65621823 -0.37522018 -0.5762317 0.07724394 0.494003 -0.95712274 -0.6433586 0.4051483 0.12598652 -0.24449128 0.6219278 -0.04137022 0.028508069 0.27103984 -0.19365309
MI -0.4262805 0.30999675 0.023533035 0.4818836 0.8157793 -0.058812886 -0.2321281 -0.2373386 0.39026734 0.15756637 0.045284018 0.9132743 0.63584906 0.053687982 -0.7091244 -0.39710936 0.5337024 0.72946334 -0.37606037 -0.16213936
GW -0.6846031 0.121203594 0.61132914 0.015484072 0.29033458 -0.090258405 0.66364604 -0.05818477 -0.66690224 0.250256 -0.042015225 0.43580133 0.008929875 0.0839172 0.6612813 -0.29372728 -0.4665954 0.64842016 -0.0067932284 0.80120844
MM -0.9851833 0.81320316 -0.08662031 -0.003976317 0.05333647 0.2022411 -0.4351751 0.20157874 0.68752736 0.32583916 -0.1488214 0.69976103 -0.1184139 0.088715166 -0.51311225 -0.86854446 0.3168873 0.5595144 -0.6070512 0.33021158
HY -0.9507935 -0.4552537 0.19439133 -0.53070575 0.16094019 0.013793005 -0.69869155 -0.09974082 0.20133013 0.38341162 -0.64974743 -0.17269383 -0.4833916 -0.21406235 -0.3076573 -0.03564386 -0.22592446 -0.48777395 0.6948735 0.8808574
PW -0.53349674 0.166421 0.046854902 -0.56786424 0.3560901 -0.24918066 0.044646654 -0.14928561 -0.40569407 0.25437772 -0.15570813 0.47311223 0.511692 -0.18053117 0.8825454 -0.49327958 -0.5436504 0.47443226 0.00878024 0.6998149
WS -0.7249114 0.102097444 0.2405316 -0.3929236 -0.20520511 0.10806181 0.22933742 0.3402717 -0.7162791 0.09908502 -1.1301297 0.41605896 -0.69191337 -0.37650773 0.30609408 0.17221485 -0.06784832 -0.051672753 0.10317076 0.20847581
WG -0.9305002 0.09470123 0.071082175 0.19464982 -0.38753158 -0.20013572 0.5263824 0.35361388 -0.45284602 0.42190495 -0.9293724 0.506741 -0.41448185 -0.20225292 0.3847931 -0.15774956 -0.42260286 -0.105649784 0.084773704 0.51466024
WA -0.8005621 0.31546965 0.02620917 0.13083121 -0.15096341 -0.545968 0.28435436 0.05643985 -0.48634428 0.15674113 -0.59878767 0.54810625 -0.1850894 -0.5945211 0.15517749 0.4130947 -0.45942953 -0.20331055 -0.3228535 0.76106775
YH -0.45403725 -0.6515867 0.21869199 -0.42168996 0.81365025 -0.24403629 -0.3624085 -0.22257408 -0.075339265 -0.13678055 -0.29002824 -0.028771002 0.28815213 -0.79454434 -0.44755697 -0.33973476 -0.29978034 0.20557491 0.6645837 0.59225845
WK -0.5281335 -0.16737652 0.41818556 0.020602338 0.27519554 -0.1295403 0.33161804 -0.4348456 -0.49097788 0.16113363 -0.93092436 0.5630991 -0.32420018 -0.64945155 0.62472993 -0.079792574 0.25324303 -0.50524396 -0.33968917 0.48708463
CI -0.35177538 -0.64129394 0.48180088 0.52725977 0.8245744 -0.7838097 -0.25622103 -0.61186796 -0.19537324 -0.11578512 -0.19558485 -0.16846791 0.7298854 -0.026490992 -0.13405374 0.8298818 0.14330186 0.25715235 0.67590386 -0.30172992
AW -0.5535949 0.17268668 0.57262254 -0.32863092 0.14931718 -0.40959555 0.17648795 -0.101494595 -0.018937727 0.3544933 0.116116606 0.66545445 -0.23454547 -0.4485042 0.61496246 0.30087677 -0.43206516 0.45662704 -0.12976123 0.97986454
WR -0.7628156 0.2691365 0.60643107 0.15591641 -0.17361093 -0.33258623 -0.12554498 0.27327782 -0.522475 -0.30132666 -0.9619938 0.5580223 -0.50249904 -0.5386324 0.38133135 -0.112215996 -0.29397178 -0.32960698 -0.11407762 0.23521397
NC -0.98724043 -0.09797856 0.26273334 0.395106 0.06991664 -1.0763836 -0.18229397 -0.26270488 -0.3493832 0.42440084 -0.3446839 -0.26072213 0.031193323 0.5584436 -0.5951433 0.83267725 0.347187 0.051690068 0.5637582 -0.0785304
FC -0.91946733 0.20480168 0.26432365 0.2623243 -0.057250924 -0.64200634 0.06376977 -0.22976802 -0.7202328 -0.14353825 -0.35688558 -0.7574266 0.84752834 0.2577342 0.007313834 0.23078793 0.31894502 -0.09948317 0.95960444 0.20332909
DW -0.5738426 0.25533718 0.66655976 -0.67723376 0.59567547 0.18209009 0.30980825 -0.09468261 -0.80939746 0.2627102 -0.12666906 0.399122 0.5079451 -0.25341928 -0.15084785 0.15427335 -0.17056052 0.2793657 -0.094332404 0.82699656
EW -0.5854116 0.47567505 1.0144874 -0.60040355 0.28929204 -0.17730705 0.6426065 -0.002025785 -0.30869657 -0.16082956 -0.22611631 0.3140623 0.45043057 -0.10613142 0.47466537 0.15021192 -0.13216731 -0.05074267 -0.07518923 0.74218917
CF -0.92109877 -0.6424169 0.02961695 0.40943226 -0.15756421 -0.4691494 -0.40722868 -0.56433445 -0.37522227 -0.119344145 -0.22295623 -0.5793796 0.32691228 -0.14790806 0.6458592 0.75362056 0.4153878 -0.26208943 0.69501686 0.22469075
MF -1.0938051 0.15437023 -0.4668341 0.5446442 -0.27627313 0.052638825 -0.7251393 -0.19471845 0.09266652 0.2328553 0.2516513 0.66344315 0.21227011 -0.32352397 -0.27561766 -0.5775029 0.985004 -0.018410271 -0.063586116 0.5709724
HM -0.6647101 0.71807367 -0.022951733 -0.24504289 0.03565429 -0.12487841 -1.0263585 0.21896724 0.35368717 0.67878747 -0.598351 -0.027900763 -0.1311896 0.2198682 -0.28027645 -0.39284205 0.44307896 -0.11393407 0.17294022 0.9676667
FM -1.0164661 0.7920594 -0.004828796 0.2082682 -0.30373514 -0.2469181 0.027768277 -0.22140664 0.11362672 0.19606674 -0.17760372 -0.24772426 0.52421093 0.22572902 -0.38334766 -0.82121706 0.86039704 -0.03256285 0.24728289 0.49030814
HC -0.6899724 0.04486485 0.032461517 -0.17080605 0.116834305 -0.8455738 -0.8497179 -0.0638876 -0.459138 0.4148252 -0.7992236 -0.63420254 0.34112203 0.26311633 0.01597843 0.52104104 0.027955193 -0.2599243 0.76723844 0.6158471
WD -0.8475938 0.27409023 0.7282445 -0.3604847 -0.705442 -0.143631 0.1144408 -0.15510325 -0.791394 0.47548085 -0.77091944 0.8793813 -0.06738959 -0.4121532 0.14918262 0.17104195 0.004903182 0.07057057 0.030259747 0.08306135
RW -0.6023955 0.65861 0.77842355 -0.29821396 0.63520277 -0.29189613 0.110905476 -0.031306196 -0.5695446 0.006287012 0.11592876 0.34519967 0.105880946 -0.1912395 0.4992186 -0.2575886 -0.4626535 0.09175787 0.44910228 0.868678
WV -0.7304107 0.04541126 0.254769 -0.24263975 0.31194204 -0.49902904 0.2911933 0.34000507 -0.55794287 0.112658404 -1.107663 -0.06372448 -0.24875255 -0.064057134 0.100866295 -0.030950112 -0.03578922 -0.31355134 -0.5559878 0.64520884
CN -0.41908443 -0.8998149 0.6856325 0.28115657 0.57058495 -0.63610053 -0.0646183 -0.6897702 -0.83458227 0.30602995 -0.53840035 0.124469884 -0.102118224 0.50658286 0.34439367 0.5467916 0.3202464 0.40025765 0.48040986 0.30653194
TW -0.40096882 0.5792471 0.26275793 -0.5877292 0.70166725 -0.70281625 0.3961178 0.02525518 -0.8050176 0.36991647 -0.12152334 0.3843014 0.10985017 -0.82971674 0.5560991 0.008350779 -0.062123716 0.46986514 -0.004470328 0.2186593
WQ -0.5773229 0.15193555 0.33663926 -0.3112257 -0.23996714 -0.7382525 0.51563 -0.27412245 0.0181333 -0.15815473 -0.9318241 0.68319625 -0.3792035 -0.5745952 0.26535678 -0.40535286 -0.3087314 -0.15461852 0.3237851 0.32636765
QW -0.32077923 -0.15775351 0.5114133 -0.3920817 0.3520481 -0.2503331 0.19430558 -0.8075356 -0.109729975 -0.40037084 -0.2569067 0.102591105 -0.008943259 -0.5483553 0.247718 -0.5329166 -0.07666055 0.50379944 -0.025509942 1.0565835
YM -1.2710443 0.20419212 0.23347637 -0.46662995 0.18580064 -0.31447423 -0.35413688 -0.60087115 0.1137695 0.29092222 0.16718107 0.23814023 -0.13550507 -0.06551324 -0.6632374 -0.659108 -0.14424223 0.15456253 -0.13470224 0.30681312
WT -0.86354667 0.4373151 0.06958309 -0.66488427 -0.22102405 -0.29998153 0.56365865 -0.24895193 -0.35107836 0.58326125 -0.9522875 -0.16366845 -0.29874414 -0.16406761 0.43587577 0.1466381 -0.0928352 -0.20552249 -0.10372049 0.43868423
MY -1.0505928 -0.44451547 0.21246116 -0.3561389 0.32709053 0.10876726 -0.4316089 -0.03550503 0.4982186 0.3227332 0.007857877 0.88738066 -0.43224442 -0.2600359 -0.625167 -0.3303619 -0.19824651 0.26425913 -0.5253998 0.6156842
MH -0.05552717 -0.038616493 -0.009594248 0.24230604 0.5571091 -0.18413983 -0.6895936 0.5091002 0.29762363 0.36743775 -0.38995245 0.5995614 0.31098256 -0.5385393 -0.58389395 -0.7262815 0.4349907 0.6940386 0.28464657 1.003366
KW -0.5006443 0.17595749 0.6429852 -0.6545652 0.75681436 -0.4949858 0.31822434 -0.18117921 -0.22493385 0.18242031 -0.0024365208 0.83861494 0.3894779 -0.124852836 0.6018334 -0.0119916685 0.14940757 -0.34113327 0.17449152 0.6901699
YC -1.1686776 -0.44879472 0.3839226 -0.2602248 0.29768008 -0.84830904 -0.22307195 -0.75035197 -0.6634399 -0.15885991 -0.11980694 -0.31366804 0.16558407 0.05807394 -0.22024642 0.2400478 -0.582955 0.03319692 0.5023123 0.12175112
WP -0.8368216 0.29338238 -0.22408172 -0.25801393 -0.5262665 -0.34482658 0.093108654 0.14091788 -0.22489202 0.3013488 -1.0720849 0.42355448 -0.04024666 -0.28417656 0.28114378 -0.033995476 -0.5918378 -0.0586927 -0.07202341 0.22963922
VW -0.3671559 -0.1539718 0.69539076 -0.59287643 0.29304722 -0.6965197 0.43461105 0.2637924 -0.5822046 0.24323611 -0.2673329 0.5015254 0.42663568 -0.21047421 0.5694532 -0.10096694 0.053561326 0.679304 -0.11506155 0.67694354
CC -0.6248515 -0.5060176 0.51425683 0.23678823 0.16718301 -0.801951 -0.2146968 -0.37466884 -0.6007297 0.056633156 -0.49597904 -0.4592898 0.30027503 0.16234566 0.16512479 1.0261023 -0.26227763 0.25518107 0.66573113 0.39876318
CH -0.12383969 -0.77997935 0.5413461 0.11906794 0.6549839 -0.4875652 -0.26799104 -0.010717192 -0.13689339 0.12305649 -0.5702073 -0.64474803 0.4747735 -0.6845913 0.24488343 0.7121656 0.046543602 0.20426495 1.1566436 0.4946009
WN -0.6842987 0.038254023 0.4948138 -0.19492078 -0.07824318 -0.32509616 0.06065044 -0.51989704 -0.6913187 0.5519513 -0.7435147 0.59063125 -0.8549774 0.12942581 0.3765658 -0.36262465 0.11845232 0.24518527 0.19040467 0.46391454
CY -0.8283998 -1.1387945 0.7814496 0.013731861 0.30741957 -0.23556986 0.07379361 -0.42284855 -0.03905073 0.115732126 -0.34227544 -0.2141518 -0.21150489 -0.2495814 -0.015616797 0.94632417 -0.42990014 -0.10233645 0.6410201 0.42796528
NW -0.7887207 -0.17840125 0.24347693 -0.0064518163 0.39359096 -0.9681152 0.49893212 -0.14654562 -0.52963394 0.3452707 -0.20597318 0.8372532 -0.2971003 0.21659456 -0.061773874 -0.094373114 0.13988946 -6.1997605e-05 0.48129424 0.36197853
IW -0.32372156 0.06121391 1.0717129 -0.16615842 0.34821087 -0.300557 0.34790722 -0.6548575 -0.2968702 0.85333157 -0.83246785 0.48747975 0.24806632 -0.43536898 -0.060108326 -0.24108349 -0.11120557 0.004031318 0.069579825 0.20905617
FW -0.72471535 0.26768973 0.33403867 -0.15571879 0.22471295 -0.4257987 1.006748 -0.46184468 -0.9024034 -0.032763377 -0.31419256 0.3148347 0.69834024 0.027137313 0.29556996 -0.47436303 0.18311095 -0.07166316 0.4543761 0.74134654
WF -1.1067314 0.04675113 0.42193037 0.24652119 -0.63977057 -0.42669898 -0.22203737 -0.16162816 -0.42559707 0.49414083 -0.50077087 0.126609 -0.14300473 -0.4854428 0.5318233 -0.042446584 0.60545784 -0.7214239 0.2067589 0.6405464
MC -0.8991702 0.049882505 0.34438598 0.29084167 -0.08328365 -1.0534446 -0.5261895 -0.11743194 -0.5133474 0.24809717 0.0046691014 0.23226684 0.3774111 0.36163482 -0.7203832 0.1920913 0.21444605 0.39624715 -0.27442166 0.8958409
CM -0.5640565 0.020233152 0.7155844 -0.000110000474 0.024349468 -0.9458003 -0.58937615 -0.14961493 -0.06665256 0.4841676 -0.2731787 -0.34522414 0.2069726 0.31025335 -0.41535392 0.47383526 0.15988423 0.46221828 0.09074674 0.6401399
WI -0.53256494 -0.09432077 0.5155104 -0.0062182345 0.30647025 -0.79052794 0.09117569 -0.65960073 -0.38028902 0.24599856 -0.46047282 0.26971033 0.46337438 -0.53754014 -0.11136704 -0.063134715 -0.053689174 -0.029524043 0.114379145 0.027882276
HW -0.5151058 0.03910888 0.23502032 -0.597704 0.4643196 -0.5802668 -0.24866095 -0.09100265 -0.56250477 0.31564358 -0.5406837 0.270584 0.05195134 -0.23232378 0.45473742 -0.1607405 -0.28771496 -0.35721374 0.46380845 1.3005456
WH -0.2686255 0.1287805 0.7584193 -0.47528282 0.029937597 -0.22110276 -0.23885274 0.5478361 -0.45351112 0.3601871 -1.085583 0.041625302 0.0847661 -0.7749737 0.09808895 -0.12336732 0.09313879 -0.082153164 0.4760703 0.72929937
WY -0.95474494 -0.2007993 0.8131505 -0.5762636 -0.04524006 -0.31897134 -0.05159206 -0.25817284 0.09366609 0.23006782 -0.6441085 0.31306097 -0.6470062 -0.7059816 -0.04986078 -0.06508116 -0.2769295 -0.58655787 0.13688852 0.837513
WC -0.83808917 0.043911774 0.67858535 -0.13297997 -0.42900348 -1.1696942 -0.010393095 -0.38798663 -0.77198493 0.26617926 -0.7605215 -0.08308628 -0.011314999 -0.02470905 0.23483005 0.2990737 -0.10323094 -0.045926657 0.079139955 0.6263441
WM -1.0919886 0.5324053 0.4985722 -0.2574194 -0.53646386 -0.49481654 -0.33705398 -0.09796099 -0.091578305 0.77149534 -0.594275 0.2707154 -0.006049546 -0.14146401 -0.057274338 -0.53019476 0.169188 -0.15703623 -0.5425764 0.51511556
YW -0.8944976 -0.3362695 0.36864516 -0.57730025 0.54694545 -0.44893512 0.5966558 -0.59763056 -0.69762325 -0.15015432 -0.04972379 0.6680571 -0.11826397 -0.5323283 0.02555743 -0.013267199 -0.57029444 0.07804035 0.22059876 0.636327
MW -0.68498313 0.38638088 0.38617277 -0.33513442 0.58856606 -0.35414064 0.17627415 0.1118807 -0.4950499 0.22982557 0.01082465 1.1914958 -0.059329536 -0.3533858 -0.18508302 -0.44616848 0.014486174 0.23492713 -0.3932523 0.9268029
CW -0.4828664 -0.141675 0.8068392 -0.096766405 0.1948745 -0.8493072 0.22022215 -0.5217654 -0.83955777 0.08717308 -0.3727768 0.34644523 0.285507 -0.08191687 0.39150143 0.4081412 -0.58499604 0.21045214 0.49842224 0.770246
SX -0.6944601 0.031990256 -0.041540746 -0.25974572 0.4225084 0.119635165 0.04818061 0.3243796 0.10893234 -0.056116894 0.11983827 -0.06763868 -0.08848244 0.027617741 0.3466436 0.24539457 0.43918192 0.46106994 0.34998858 0.029978776
RX -0.755691 0.7205391 0.40510187 0.053021982 0.85099626 0.14307912 -0.33099335 -0.084454134 -0.024250273 -0.05329773 -0.13574833 0.23844619 -0.043248102 -0.2136752 0.4329386 -0.4680469 -0.7341086 -0.07868443 0.4061852 -0.044981077
KX -0.64738244 -0.12569642 -0.18797956 -0.11274206 0.6677365 -0.16684811 0.09522563 -0.11569578 0.59640616 -0.0026334492 -0.083455816 0.75216556 0.2810501 -0.29497135 0.80891776 0.32069442 0.5455961 -0.727428 0.21056652 0.09608167
WW -0.9170739 0.13999908 0.81126565 -0.18323682 -0.107459806 -0.6516435 0.62478304 -0.10465076 -0.9997357 0.3424432 -0.6219787 0.40155318 0.10890876 -0.33504918 0.4877179 0.016056372 -0.3619147 -0.23824047 -0.09966382 0.7580619
LX -0.37422064 0.07120225 -0.0161024 -0.13347493 0.2477908 0.19585435 0.023047997 -0.46825337 0.47786584 0.04236084 -0.13340382 0.4592247 0.06974765 0.05997663 -0.30857208 0.36410874 0.15191449 0.5309819 0.3306383 0.22425157
YX -1.4822018 0.009556338 0.2983576 -0.16102806 0.7571115 0.058014236 -0.41143203 -0.24793781 -0.39416325 -0.50510514 -0.11378843 0.37444264 -0.5899228 -0.31110245 0.012264028 -0.7425718 -1.0418465 -0.28334218 0.63792086 -0.07980445
EX -0.667101 0.43895382 0.30956692 -0.10136261 0.18797494 0.30796072 0.72485304 -0.011502324 0.5992443 -0.36041173 -0.37186694 -0.06751959 0.02085746 0.04357292 0.11918615 0.56813496 0.52675486 0.119583555 -0.3314674 0.027182369
FX -0.84355134 0.043214638 -0.12564912 0.44961327 0.25217256 0.2529385 0.36799872 -0.21773513 -0.43705708 -0.36287972 -0.46068752 0.21997191 0.1666021 0.026888277 0.0874312 -0.75598925 0.63083065 -0.27192673 0.86299026 0.1943101
VX -0.51610136 -0.038039215 0.15183079 -0.23814438 0.13253663 -0.47593838 -0.028504962 0.3809434 0.09860852 -0.08485036 -0.47421697 0.12490797 0.16736731 -0.10621845 0.56776243 -0.1622047 0.56095237 0.412827 -0.19053724 0.0005086577
QX -0.462982 -0.09788268 -0.29065 -0.009368324 0.22969456 0.3197867 -0.22037683 -0.2696472 0.5309434 -0.7205448 -0.36544874 -0.042155128 -0.14796554 -0.26456246 0.03827649 -0.118252374 -0.22835748 0.82503474 0.12176705 0.1503759
AX -0.41264707 0.16630796 0.2652625 0.42372996 0.16231379 -0.049189255 -0.056908973 -0.0015621808 0.57820195 -0.10474235 -0.17457318 0.09668784 -0.031950004 -0.18970007 0.4507319 0.6333783 0.2862642 0.25270277 -0.16084331 0.2698447
NX -0.8655845 -0.16263302 0.09741998 0.26292095 0.28321698 -0.3980338 0.24754627 -0.09374086 -0.04813965 -0.0076115564 -0.5222794 0.5301835 -0.47672114 0.4268367 -0.5133689 0.0848019 0.47299135 -0.0071345847 0.2125042 -0.09366465
PX -0.5154896 0.20044371 -0.40020594 0.27701315 0.30608368 0.033285197 -0.28402743 -0.10153323 0.05640252 0.15738736 -0.33919683 0.28780037 0.26096717 0.105402246 0.5576122 -0.091142036 -0.34211615 0.55399394 -0.005942217 0.050947215
DX -0.8218582 0.14389654 0.3041957 -0.32464194 0.14972186 0.8102222 0.098615445 -0.1466312 -0.05128353 -0.17169903 -0.25902292 0.22654891 0.41673812 -0.15199183 -0.24023592 0.47751883 0.16074249 0.115167096 -0.31354868 0.16349183
TX -0.5355711 0.43672043 0.017135391 0.011280903 0.49523827 -0.28812996 0.065475665 -0.1734557 -0.18609542 0.07808151 -0.3322854 0.058171116 -0.08547015 -0.48348647 -0.14643131 0.17171559 0.342019 0.29103455 -0.099169 -0.23317462
GX -0.7444604 -0.031558085 0.22780685 0.20420204 0.07936211 0.07093249 0.2282794 -0.08595443 0.1373101 -0.030007066 -0.28281638 -0.08024287 -0.20541053 0.11501791 0.030128928 -0.19439037 0.018375007 0.43678683 0.23443884 0.26073208
HX -0.5420135 -0.057828773 0.08892056 -0.11140656 0.61186033 -0.047704976 -0.37231666 -0.048871 0.02147927 0.23326756 -0.5405309 0.19224742 -0.28162283 -0.27822363 0.11978846 -0.17080072 0.09297733 -0.40845102 0.45922196 0.53516793
IX -0.5230656 -0.21926875 0.51290375 0.1542844 0.24084622 -0.15218253 0.028602608 -0.37952256 0.17986037 0.33219793 -0.76817155 0.05222775 -0.002711551 -0.053486485 -0.08694479 0.062263396 0.3989769 0.06108127 0.05858829 -0.29238352
CX -0.71739197 -0.33193612 0.26713902 0.1468255 0.08719128 -0.25512868 -0.014768577 -0.19161257 -0.31595084 0.04696688 -0.35152054 -0.1400161 0.3320739 -0.08508838 0.18079895 0.38715768 -0.12759669 0.006967969 0.40683535 0.28268847
MX -0.62163013 0.21357276 0.18030149 0.19726382 0.1612132 -0.006935731 -0.36740756 0.033890616 -0.025086949 0.078817554 -0.3016061 0.5830384 0.22267821 -0.12436449 -0.23546392 -0.23033935 0.12859902 0.12318916 -0.072846405 0.36261666
WX -0.69005287 -0.007065434 0.2057327 -0.001093041 0.061105788 -0.22198066 -0.044653725 -0.023239776 -0.1640286 0.17961049 -0.41968974 0.17391096 0.013362432 -0.16668423 0.052699734 0.004037401 -0.006017151 0.07010951 0.13004293 0.21467464
