421 20
EE -0.47343877 -0.69940794 -0.5147544 0.28248507 -0.0059714573 -0.29828677 0.19519478 -0.5779273 -0.5895101 -0.28146052 -0.25053695 0.2632753 -0.62666506 -0.2318422 -0.29114637 -0.1699479 -0.18073499 0.9715884 0.36805975 0.25349852
SS -0.45590892 -0.56727755 0.26628485 -0.022471318 0.16641858 0.100980334 0.124002285 -0.9481149 -0.05497406 -0.41718304 -0.80593014 0.33949152 0.2946159 -0.09651179 -0.056174375 -0.023223562 -0.96683276 -0.028886968 -0.33759665 -0.044683974
LL 0.23105645 0.022480957 0.12604143 -0.03257455 -0.106828734 -0.23806547 -0.059621677 -0.561427 0.10539768 0.05389966 -0.010793602 0.16657858 -0.08832282 -0.50483716 -0.8380653 -0.4644346 -0.3885165 0.54062515 0.10918133 -0.16503789
LE -0.15625712 -0.27690014 -0.14557067 0.13575514 0.14618528 -0.12249223 0.09202255 -0.4956607 -0.26512823 -0.26394123 0.1058054 0.27170283 -0.011649088 -0.48444948 -0.7442513 -0.6069233 -0.10503677 0.8639979 0.11138546 0.087553605
EK -0.33090723 -0.8523456 -0.7289535 0.28044486 0.06093848 -0.07679425 -0.13601975 -0.17310047 -0.32411736 -0.051292047 0.032300312 0.09758876 -0.42632544 -0.9258007 -0.19373949 -0.3597962 -0.24012525 0.40899003 0.10561328 0.05273133
KE -0.2362718 -0.6566241 -0.5575503 0.73810965 -0.10136035 -0.116293855 -0.19476026 -0.60073245 -0.558544 -0.3376963 -0.0899573 0.18333802 -0.33224648 -0.5078999 -0.098115996 -0.6370861 -0.027586497 0.36734062 -0.009908793 0.030001754
KK 0.041642487 -0.89567554 -0.64099824 0.5762511 -0.3026925 -0.032865766 -0.30171582 -0.36869395 -0.32882753 -0.29862684 -0.13213098 0.0025782376 -0.39703393 -1.0000839 0.13297346 -0.5300044 -0.24854898 -0.077354476 -0.1480242 -0.14151426
SL -0.19421303 -0.018923378 0.16569471 0.21201573 0.0010815487 -0.20924237 -0.086410314 -0.82972497 0.13291706 -0.072611794 -0.5474947 0.24507023 -0.022815002 0.038741656 -0.43685275 -0.3677718 -0.70130986 0.24575299 -0.2298907 -0.10262542
LS 0.065906584 -0.39187828 0.24400459 -0.41205147 0.07348992 -0.09722472 0.08791693 -0.7185509 -0.10124628 -0.12210953 -0.3061559 0.25071037 0.2970473 -0.38697186 -0.61906004 -0.21899176 -0.6563806 0.26470318 0.023456456 -0.081180595
EL -0.030577391 -0.28604415 -0.390829 0.11342562 -0.053805612 -0.49346277 -0.12848675 -0.5019549 -0.08578067 0.31654567 -0.26793867 0.17910025 -0.48120555 -0.4152753 -0.65121514 -0.3697663 -0.22336443 0.5258375 0.28834602 -0.13353358
PP 0.6593056 -0.62412935 0.6792445 -0.30578327 0.19941433 -0.1303212 -0.17137411 -0.29022786 0.14422105 -0.09067088 -0.7727296 0.4364207 -0.7609201 -0.5799483 0.4570297 0.14738166 -0.47803456 0.8826885 -0.4627059 -0.21231337
LK 0.004218533 -0.46214682 -0.3514982 0.15295768 -0.059543528 0.012107034 -0.0751976 -0.21663953 -0.11727381 -0.23682201 0.28000915 -0.04493377 0.018301379 -0.9104234 -0.5889608 -0.5073332 -0.3770622 0.4169584 -0.07873907 -0.109479934
AA 0.6301411 -0.86126274 -0.10645541 0.4598456 -0.54319644 0.33855242 0.4619862 -0.8310087 0.35518909 0.09501599 -0.4664968 0.28640458 -0.19802861 -0.02061117 -0.27833867 0.022550803 0.2274037 0.59499085 0.18181507 -0.6444753
GG -0.08850888 -0.41328815 0.94030756 -0.09550703 -0.35748017 0.30195445 0.993392 -0.7651074 -0.017720716 0.3277293 -0.16325742 0.052223023 0.05328995 -0.527498 0.89865756 0.006948126 -0.39714846 0.01331688 0.33124304 -0.59624547
AL 0.40801322 -0.11972405 -0.01728951 0.39004385 -0.36577997 -0.33532572 0.122763395 -0.7089785 0.45984197 0.09300484 -0.35970947 0.118043646 -0.32424703 -0.116813034 -0.63062876 -0.49864686 -0.10994683 0.43630558 -0.02224459 -0.61912084
SE -0.54811513 -0.35718918 -0.13523392 0.46544158 0.23752683 0.069737345 0.17682198 -0.83906543 -0.2002291 -0.59576946 -0.31495813 0.42598695 0.072849706 -0.07231327 -0.21424513 -0.3329067 -0.47083122 0.66126424 -0.05987248 0.21954723
LA 0.56307894 -0.38984653 -0.15781005 0.0063176835 -0.11169818 0.36630598 0.21875553 -0.76290625 0.12633592 0.23892058 -0.045488637 0.2807892 0.08718544 -0.36392382 -0.6416956 -0.042888567 -0.02438465 0.64100534 0.10978458 -0.074087866
EA 0.20298477 -0.8709783 -0.58302164 0.121754654 -0.07153307 0.17329007 0.29152822 -0.7151695 -0.1590633 0.43305275 -0.33285108 0.2620029 -0.23420563 -0.14400296 -0.4056883 0.060412064 0.104667135 0.68449044 0.38621873 0.003508177
KL 0.09600927 -0.27192545 -0.2926131 0.4621371 -0.20599076 -0.37133193 -0.36315423 -0.52488744 -0.19857182 0.15592204 -0.23463844 -0.046885826 -0.49091077 -0.5884581 -0.21116474 -0.68214786 -0.20519723 -0.018670935 0.026537636 -0.2751198
SP -0.06097192 -0.29044342 0.54319245 0.13705534 0.4464575 0.1857014 -0.1940518 -0.67457694 0.059177734 -0.123243265 -0.86633795 0.45089322 -0.36628258 -0.29521525 0.30472913 0.3377191 -0.76571876 0.4380545 -0.24463838 0.055705473
KA 0.3720843 -0.947964 -0.524181 0.65635294 -0.39564213 0.34531122 -0.08820696 -0.81561214 -0.12788486 0.27718055 -0.13116406 0.23298517 -0.16185895 -0.42080432 0.03959799 -0.1504904 0.18259233 0.07248587 -0.03511679 -0.15721832
LQ 0.2636515 -0.2287946 0.053204883 0.077234656 -0.20779043 -0.011049665 -0.11379984 -0.05116529 -0.3652724 0.47195873 -0.37255588 0.1169292 0.26128998 -0.43732065 -0.8082675 -0.4774518 -0.16034156 1.0930239 -0.1408724 0.029990451
AE -0.080734275 -0.54618543 -0.18417862 0.6917244 -0.32850772 -0.1172454 0.44680855 -0.7203777 0.02447052 -0.4625031 -0.21138039 0.30288845 -0.07475354 -0.15551148 -0.4956681 -0.44064847 0.10910982 0.7353552 0.042700276 -0.40374252
PS 0.24972726 -0.56668943 0.4968196 -0.52446896 -0.09852649 -0.14932004 -0.0088551175 -0.60367626 0.107167885 -0.40338993 -0.5670596 0.24634439 -0.16931124 -0.30198473 0.11166484 -0.0023739517 -0.76547354 0.3568921 -0.6192494 -0.26576054
AS 0.28190878 -0.6323011 0.115031004 0.15291388 -0.38414633 -0.20145111 0.38721707 -0.8859818 0.22105193 -0.30103558 -0.6501146 0.20390323 0.15676713 -0.05662888 -0.41736257 -0.10015756 -0.45042786 0.10613683 -0.29576585 -0.6653917
SK -0.2951397 -0.66521823 -0.24104187 0.51519716 -0.04871606 0.22784738 0.03195939 -0.5631032 -0.09585509 -0.46324217 -0.37312716 0.08858199 0.014373472 -0.56452256 -0.032292265 -0.24623163 -0.5889257 -0.023353303 -0.45030004 0.01843821
LR 0.039846886 0.03783405 0.15308568 -0.07338078 0.26784617 0.08056388 0.43190038 -0.22366054 -0.09576402 0.0037306838 -0.37642416 0.037883684 -0.18550007 -0.86965954 -0.73114115 -0.5540495 -0.07686061 0.48746917 0.17799975 -0.2522889
ED -0.23745652 -0.6258551 -0.24920507 -0.01988363 -0.10427847 0.046071485 -0.039882433 -0.72726434 -0.40746582 0.041796293 -0.09671302 -0.5378719 -0.5411444 0.2698387 -0.24241757 -0.35670385 -0.50398296 0.7270803 0.31817698 0.54865193
ER -0.3564346 -0.29007846 -0.2750528 0.12492894 0.36814216 0.113450624 0.52365667 -0.2086369 -0.39744127 0.24272664 -0.64843357 0.089173004 -0.630637 -0.74067605 -0.47321513 -0.67930466 0.10566874 0.29247454 0.48264942 -0.25832173
GS -0.29644337 -0.6218456 0.8682448 -0.099645086 -0.32205278 0.04293803 0.4351074 -0.71361655 -0.1038371 -0.11655929 -0.19382706 -0.0031395967 0.074547224 -0.35915655 0.15393145 -0.06078603 -0.7797943 -0.23173034 -0.021111308 -0.47043386
SG -0.150743 -0.21178958 0.29510105 0.068958744 0.07557873 0.14708145 0.6486206 -0.78749853 -0.2541042 0.00514157 -0.4273941 0.26854253 0.35255662 -0.27565923 0.6857674 0.12861037 -0.61302257 0.27080837 0.095829494 -0.3448142
LP 0.40189824 -0.22437145 0.3836917 -0.12246634 0.34149748 -0.061779298 -0.15978646 -0.36675957 0.08430238 0.19055554 -0.25681344 0.28403974 -0.42046353 -0.6042537 -0.15773389 0.24541381 -0.42206925 0.8845097 0.09101488 0.041495055
VL 0.35138643 0.23136616 -0.15788044 -0.24223487 -0.2725767 -0.0674491 -0.37441713 -0.72735745 0.081091255 -0.2571524 -0.06455892 -0.26718315 -0.047495387 -0.4612613 -0.40827626 -0.12912062 -0.07780152 0.6112027 0.01660752 -0.71788424
RL -0.038985785 0.117069304 0.09015272 -0.082802325 -0.11038695 0.3025495 -0.0777587 -0.7302997 -0.00042125338 0.33048424 -0.33060285 0.38593203 -0.5603655 -0.48636606 -0.5368252 -0.61657584 0.20147707 0.20325862 0.10047428 -0.14285378
KS -0.07242319 -0.76139474 -0.23617232 0.20864667 -0.15853254 -0.21983159 -0.23598205 -0.81691647 -0.24980693 -0.13155179 -0.44117215 0.12990196 -0.05609987 -0.55313015 0.09002532 -0.31704855 -0.57977426 -0.3921575 -0.19420624 -0.13206911
SR -0.51466936 -0.11102925 0.43354547 0.18133987 0.20050766 0.4447021 0.45537588 -0.50781965 -0.06215426 -0.3254803 -1.1922328 0.14221005 -0.054485057 -0.5583371 -0.1698224 -0.462103 -0.49242502 -0.12789357 -0.16767897 -0.24751683
DL 0.010121345 0.18191123 -0.5030269 -0.30433726 -0.0074577243 -0.5198557 0.04790496 -0.54146254 0.18610798 -0.0075465585 -0.36160505 -0.25717443 -0.3153759 -0.07913698 -0.2131623 -0.6823961 -0.6030312 0.5693708 0.25258106 -0.3938723
SA 0.20910409 -0.5656457 0.108394526 0.27363682 -0.045564312 0.4835481 0.22563225 -0.9675911 0.1335048 0.05158584 -0.5754243 0.47539118 0.25789234 0.10248741 -0.15526077 0.26426956 -0.41671082 0.40484226 -0.26049182 -0.119164675
ES -0.39570233 -0.7864476 -0.3902824 -0.1721923 0.061341733 -0.29884282 0.095993765 -0.70139503 -0.41697356 0.06438168 -0.4426632 0.2163445 0.032223243 -0.15072119 -0.3163472 0.037092652 -0.7275977 0.25421056 0.15358505 0.015956094
RK -0.27077168 -0.4904814 -0.27628726 0.055476245 -0.32396162 0.6834784 -0.059398033 -0.49487644 -0.22147495 -0.22431996 -0.30818146 0.1943833 -0.51643205 -0.9735164 -0.1541947 -0.509559 0.1546621 -0.038417377 -0.07110025 -0.032082856
RR -0.3236201 -0.09159381 0.23965687 -0.12466122 0.07979377 0.7631828 0.30503207 -0.30874774 -0.21487246 0.0022162972 -0.83957416 0.13211897 -0.52159 -0.79104495 -0.20836683 -0.65401304 0.22506109 0.11715597 0.04922091 -0.28393668
RS -0.49400872 -0.35445252 0.27469057 -0.52632755 0.119152315 0.74605966 0.12851255 -0.89405996 -0.26189077 -0.21792951 -0.9038701 0.39734522 -0.05025892 -0.54415435 -0.10228064 -0.3757636 -0.27342233 -0.31032386 -0.19416165 -0.03532023
PL 0.58815753 -0.18809833 0.4102949 -0.31356955 -0.15019707 -0.40085268 -0.11237614 -0.4730088 0.28808135 -0.20985654 -0.27050397 0.036904894 -0.58491755 -0.38327986 -0.052011102 -0.2587532 -0.5262981 0.5864918 -0.38345954 -0.2787458
GL 0.059309803 -0.12274151 0.6623595 0.19371232 -0.45068985 -0.110957585 0.16225022 -0.57743216 0.15447333 0.1041397 0.22101635 -0.06698223 -0.49243468 -0.3041217 -0.2575779 -0.383862 -0.4533441 0.1439601 0.1539826 -0.49917552
RE -0.5179481 -0.25274995 -0.15739475 0.1250343 0.14743237 0.61926186 0.2153561 -0.63946337 -0.47141206 -0.041771725 -0.331565 0.48583853 -0.5326521 -0.524892 -0.42617047 -0.69597614 0.5298698 0.51667947 0.19320424 0.0012653524
LG 0.25943413 -0.09763882 0.04876131 -0.25977767 0.043648455 -0.120011345 0.4797487 -0.528422 -0.14317934 0.25615767 0.029278632 0.23979494 0.42750937 -0.68454283 0.14530218 -0.0429341 -0.38057595 0.55111516 0.43916926 -0.41259852
PA 0.8774537 -0.81912506 0.19826958 -0.16291137 -0.19672665 0.44223937 0.13897191 -0.6822097 0.2492391 -0.18758884 -0.4359917 0.3088703 -0.4551776 -0.2398795 0.1725746 0.3035742 -0.2250336 0.72600985 -0.35350087 -0.15653816
GK -0.1963099 -0.6637141 0.20242499 0.6144113 -0.51858157 0.28988397 0.1952057 -0.43801504 0.18662983 -0.1944373 0.5154906 -0.27246326 -0.30906975 -0.9712031 0.18889888 -0.2478655 -0.4126425 -0.13425888 -0.04024833 -0.24300137
QL -0.051878538 -0.2306717 -0.0150036 0.015593203 -0.15078907 -0.5721895 -0.5697395 -0.52878577 -0.22641851 0.41817966 -0.41886896 0.06585208 -0.19857259 -0.12683447 -0.6232344 -0.58162254 0.09468088 0.36841664 -0.13643332 -0.81381947
LV 0.2890523 0.20818923 0.3078009 0.36495158 0.10863701 -0.005178702 -0.24998946 -0.6863217 -0.28172767 -0.019991051 0.29910013 0.016491136 -0.03916335 -0.2765288 -0.25562716 -0.3589328 -0.33693242 0.65573895 0.5771983 -0.3601253
SV -0.044882096 0.15403996 0.46597895 0.60884404 0.21353494 0.116973855 -0.27818093 -1.0049915 -0.42203242 -0.32520515 -0.2907652 0.3289852 0.08572121 0.059234593 0.24980083 -0.13983594 -0.73364574 0.22192557 0.059883427 -0.37946627
AK 0.4349088 -0.67752683 -0.48131797 0.6972473 -0.51273113 0.044805594 0.23669566 -0.5181349 0.2371973 -0.41148964 -0.13510013 -0.10611057 -0.3646647 -0.588167 -0.25613058 -0.35559586 -0.06735215 0.21451339 -0.18047807 -0.58772
LD 0.24892421 -0.26658988 0.07119506 0.0004940711 -0.1317926 0.26959905 -0.18483046 -0.6805515 -0.12537655 -0.061363123 0.044512138 -0.5221972 -0.16744108 0.08487302 -0.67065245 -0.59810555 -0.48844332 0.6340436 0.09582944 0.34633404
EV -0.16710588 -0.14040485 -0.06581555 0.5453796 0.1494024 -0.25579152 -0.26806697 -0.74704355 -0.6929684 0.041492555 0.12186527 0.21469045 -0.40997478 -0.10008741 0.060061272 -0.12766287 -0.3068262 0.5711009 0.62261385 -0.2900947
KR -0.08780541 -0.33499965 -0.13510767 0.4111086 0.11467649 0.24345998 0.095318876 -0.21582101 -0.30041593 -0.056593575 -0.7249926 -0.08676475 -0.46448877 -0.91803396 -0.0439617 -0.73915267 -0.09009471 -0.18814738 0.058362443 -0.32168248
PG 0.7030048 -0.3161755 0.45394635 -0.40902054 0.0029238581 -0.063633755 0.46807522 -0.48805937 0.05236654 0.0541362 -0.36923137 0.34472996 -0.13541655 -0.74035215 0.7459412 0.07296897 -0.41869518 0.4574528 -0.13455862 -0.49951288
AV 0.5352582 -0.18785836 0.21766534 0.90769356 -0.24598524 -0.0069688237 -0.006452419 -0.77523553 0.022272967 -0.19753176 -0.023059107 0.13145642 -0.28678405 0.091756046 0.053348932 -0.24713172 -0.14024627 0.5949294 0.31482247 -0.853434
DS -0.27493542 -0.3204838 -0.29225916 -0.47726455 0.11352859 -0.35454488 0.20383054 -0.7751989 0.0004684754 -0.36043078 -0.5762696 -0.23199901 0.05429624 0.09738605 0.1184992 -0.42277485 -0.955616 0.34153712 0.27379143 -0.25619268
TS -0.20068197 -0.68676627 0.14662597 0.1662511 0.18348132 0.3174102 -0.02481682 -0.3075874 -0.008832352 -0.26714766 -0.4948955 -0.092707925 0.089589015 -0.2102736 -0.3765729 0.3395053 -1.2164546 0.11672378 -0.14272967 -0.5523724
AG 0.5103506 -0.30835503 0.07066768 0.27871847 -0.37725273 0.009024961 0.80317336 -0.6870698 0.13193311 0.14207658 -0.43319136 0.1492305 0.14740534 -0.29644045 0.42447248 -0.017396709 -0.119037926 0.35646906 0.23790301 -0.9543422
TL 0.08180449 -0.23809215 0.031004576 0.43711397 0.18452516 0.16960701 -0.3100204 -0.13136724 0.2985005 0.14220028 -0.00258165 -0.20440969 -0.29883736 -0.33111012 -0.726576 -0.07914672 -0.79837334 0.3800425 -0.001479161 -0.56034446
GE -0.4636978 -0.48922607 0.41181764 0.45999426 0.02082695 0.27681035 0.29714054 -0.33508563 -0.087918326 -0.24103464 0.5228528 0.12237243 -0.31889752 -0.5398451 0.17170034 -0.44960114 -0.20330627 0.527541 0.22108394 -0.14242288
LT 0.1102184 -0.07867559 -0.19286032 -0.19848214 -0.22268267 0.34300205 -0.13974309 -0.16792704 -0.28500015 0.038501203 0.28506288 0.56159234 0.18339448 -0.42470548 -0.3655812 -0.34045658 -0.7708315 0.7137353 0.2040393 -0.39480078
ST -0.14751253 -0.14835635 -0.03492758 0.15787517 -0.07907689 0.5550703 -0.17351867 -0.57854044 -0.13879928 -0.19434182 -0.27337748 0.7670232 0.23369321 0.015314117 0.24678822 -0.093022466 -1.1414183 0.32917064 -0.25973013 -0.30276585
VS 0.09141045 -0.22622672 -0.11698139 -0.4748104 -0.052229762 0.23134854 -0.24477768 -0.95113665 -0.13821924 -0.7092593 -0.5330611 -0.16074662 0.40339944 -0.3548352 -0.15532091 0.16566609 -0.44107583 0.28893122 -0.062275745 -0.59776384
AP 0.5670722 -0.66122943 0.42664948 0.42046762 -0.1505783 -0.14498964 0.066869445 -0.65860903 0.5006077 -0.16376288 -0.73186404 0.35135594 -0.6702859 -0.31147036 0.30751988 0.3460609 -0.2548083 0.5818918 -0.14566354 -0.57986766
QE -0.5118415 -0.69869417 -0.1253194 0.2208221 0.017635783 -0.27557188 -0.27732196 -0.5298106 -0.64107656 -0.005920492 -0.30372578 0.23831783 -0.1212679 -0.0092978105 -0.44003668 -0.5420039 0.33430886 0.6609888 -0.032092366 -0.60458195
PE 0.15528575 -0.48992535 0.12829679 -0.05470823 0.078263976 -0.14310658 0.04624124 -0.41815665 -0.05747585 -0.6176501 -0.043358024 0.2926362 -0.56243914 -0.39508247 0.11818987 -0.39161086 -0.24241376 0.996086 -0.421322 0.17502092
RG -0.08703256 -0.06707338 0.41428196 -0.43777955 -0.12171153 0.64431536 0.77810436 -0.71468896 -0.35310572 0.3905181 -0.5189079 0.3442666 -0.2577805 -0.82448083 0.6519935 -0.15469272 0.27194896 0.13970028 0.29520592 -0.36392274
DE -0.51459444 -0.37822574 -0.6573387 -0.047818612 0.14047208 -0.34562647 0.25001457 -0.66250944 -0.101550974 -0.46144077 -0.15832992 -0.265025 -0.23360786 0.12389646 0.06881975 -0.5658333 -0.4363075 1.0589358 0.4442252 0.04491784
VA 0.53336424 -0.3619011 -0.31261837 -0.1286095 -0.35567108 0.6007513 0.053384546 -0.8659092 -0.04013829 -0.25159436 -0.26194483 -0.06908245 0.056911 -0.21789904 -0.19185607 0.45310175 0.18479082 0.86698765 0.02701892 -0.5686245
SD -0.2598307 -0.30990857 0.207129 0.16993816 0.028074209 0.32271856 -0.12134357 -1.0188775 -0.24371597 -0.3538981 -0.54723066 -0.3672941 -0.10724654 0.4017625 -0.155836 -0.41608098 -0.785484 0.30989793 -0.089390926 0.4563081
VE -0.17286655 -0.037253972 -0.42864844 -0.060552143 -0.087755345 0.17618364 0.013194878 -0.7906853 -0.29446858 -0.7287376 -0.08491855 -0.019046465 -0.06918215 -0.41958815 -0.1978584 -0.06507371 0.21386148 1.0442191 0.1156225 -0.26226068
EG -0.020026516 -0.50333977 -0.28779393 -0.14748171 0.103042446 -0.3122777 0.4860771 -0.54918045 -0.44927117 0.3665489 -0.24204895 0.28440037 -0.110961184 -0.52603084 0.40023568 0.08730813 -0.23414245 0.5637008 0.6339016 -0.23564233
SQ -0.068248935 -0.2990425 0.29142693 0.2870189 -0.13404888 0.1565073 -0.022218183 -0.26466265 -0.26605427 0.3312065 -0.95353025 0.31659475 0.43406123 -0.12342711 -0.22272205 -0.23716637 -0.5266172 0.6926166 -0.58466494 0.070253186
GA 0.36672866 -0.6852137 0.66929775 0.23444313 -0.5652971 0.6831133 0.51649225 -0.8234254 0.17228055 0.2811358 0.034310278 0.068611115 -0.20263478 -0.20789158 0.13271417 0.15972945 -0.029388081 0.30879614 0.28191122 -0.37242255
VK 0.13966085 -0.27076885 -0.57947487 -0.051699657 -0.2752899 0.29445797 -0.41504446 -0.50391346 -0.18536049 -0.74558246 -0.04479775 -0.36500177 -0.10524765 -0.89948684 -0.07166321 -0.06307922 -0.029933896 0.5086046 -0.10876508 -0.51138985
IL 0.18261631 0.40256402 -0.63709277 0.41232598 0.27149227 0.093779325 -0.22643916 -0.60155934 0.21239762 0.21084173 -0.31589404 -0.13831244 -0.61246365 -0.05737464 -0.13945259 -0.42446962 -0.3747994 0.2683095 -0.52471656 -0.44304937
KP 0.18075407 -0.7731681 -0.059483252 0.47366685 0.3591098 -0.06401776 -0.5483545 -0.31615496 -0.18754035 0.1544875 -0.18495938 0.18250187 -0.6312611 -0.85719746 0.7586254 0.012907306 -0.33691302 0.20626001 -0.14068301 -0.06275719
GR -0.2130509 -0.14645617 0.8297281 0.13813671 -0.23619923 0.45091274 0.8048562 -0.28278595 -0.0065353205 -0.015874753 -0.3144198 -0.2677837 -0.53637654 -0.9131315 0.23984474 -0.5085176 -0.17832908 -0.08159414 0.31787595 -0.4902592
KD 0.05717035 -0.6450122 -0.19137287 0.4656214 -0.42260927 0.29972914 -0.49679974 -0.71384263 -0.42214927 -0.19989862 -0.08879981 -0.50015986 -0.55243 -0.057906236 0.025780581 -0.7432255 -0.3665978 0.047407594 -0.060635943 0.29226565
KV 0.21642648 -0.14387186 -0.07361996 0.87267476 -0.012802976 -0.11976466 -0.51975244 -0.75276417 -0.5781335 -0.09875236 0.19198166 0.068287484 -0.3146539 -0.38093743 0.29029363 -0.43975526 -0.33824798 0.101365216 0.32239103 -0.43483543
KT 0.059380885 -0.45914507 -0.7290287 0.44867516 -0.4902276 0.27703854 -0.4566626 -0.38905406 -0.3838992 0.05991331 0.18195336 0.54650325 -0.24354321 -0.46794912 0.3064533 -0.28566727 -0.79141533 0.1414468 0.08886045 -0.310742
ET -0.26792222 -0.37437 -0.57042944 -0.050160076 -0.11652244 0.111889265 -0.2497893 -0.30941314 -0.36521152 0.18070027 0.064214475 0.61224824 -0.22202088 -0.22045003 -0.0019334084 -0.08421786 -0.9021233 0.64918894 0.46763283 -0.16047612
VT 0.21419704 -0.030907897 -0.48000425 -0.25969607 -0.4415505 0.59747666 -0.42476276 -0.45383886 -0.18687473 -0.5002647 0.15269351 0.25046992 0.16443881 -0.4726837 0.06450241 0.14832875 -0.55211365 0.71683204 0.092052534 -0.84388727
KG 0.20307152 -0.4742205 -0.34227666 0.38156328 -0.23803462 0.0105894115 0.21419719 -0.6424036 -0.5249953 0.15889993 -0.2020043 0.030535216 0.00890703 -0.80497485 0.8309709 -0.14808343 -0.16345407 -0.113537 0.22488612 -0.46558157
VV 0.3675302 0.30596226 0.156972 0.21368214 -0.11202457 0.17805725 -0.42391035 -0.92902386 -0.35721624 -0.606412 0.0561893 -0.15226912 -0.08844626 -0.25103122 0.16914949 0.025734296 -0.10558806 0.714997 0.33849993 -0.7789145
PV 0.58281976 -0.010813233 0.5836695 0.20051359 0.04170155 -0.082210384 -0.31101748 -0.63143677 -0.35374865 -0.4456815 -0.029021421 0.2630119 -0.61230034 -0.27368122 0.4722658 -0.1809392 -0.48660746 0.55791295 -0.16805089 -0.41568628
PK 0.46246004 -0.7998838 -0.052584898 0.058998857 -0.24634914 -0.033409357 0.07516785 -0.25481305 0.036221158 -0.6429633 -0.27948302 0.011905145 -0.70020485 -0.97357136 0.24003784 -0.18340215 -0.4760682 0.22670588 -0.7009111 -0.08784592
TE -0.46535334 -0.45376936 -0.28087124 0.607452 0.33220586 0.34714457 0.054802276 -0.09009059 -0.19637996 -0.41659978 0.1055742 -0.0061660996 -0.25608724 -0.27360383 -0.6133267 -0.071372345 -0.57900417 0.9344782 0.088365294 -0.2315054
IS -0.1761173 -0.12237454 -0.611729 0.08325523 0.26250458 0.23704179 -0.065759376 -0.80796635 -0.14923489 -0.033888422 -0.6111313 -0.13563561 -0.13511612 0.18378128 0.24693644 -0.09740245 -0.5955609 -0.0037989016 -0.6969642 -0.50940794
TP 0.18198915 -0.69359076 0.37006998 0.40071324 0.5250053 0.34908327 -0.21836871 -0.0460136 0.19270025 -0.02564809 -0.38617525 0.017756267 -0.5033892 -0.50635004 0.07137511 0.6458414 -0.83107626 0.6396029 0.0008362282 -0.49254042
EI 0.24158005 -0.5655146 -0.67199177 -0.16055909 0.34919947 0.09211965 0.080739275 -0.3814471 -1.0462922 0.34683573 -0.086117014 -0.31400573 -0.38958967 -0.40199038 -0.4185527 -0.19931695 -0.4482047 0.2022895 0.30708537 -0.100698754
TA 0.298734 -0.7908264 -0.120111704 0.5121065 0.08648562 0.88608927 -0.0061915983 -0.2925512 0.20470497 0.10265648 -0.09871359 0.08336248 -0.018980516 -0.1112914 -0.57453763 0.4475043 -0.53568333 0.65889204 0.087159134 -0.53172094
GP 0.14851436 -0.52770543 1.0797465 0.23980226 -0.05484553 0.028994106 0.25701678 -0.47494638 0.03588282 0.18692797 -0.12731695 0.21222818 -0.75175816 -0.5276715 0.4996593 0.34557992 -0.4888993 0.35551956 0.06861221 -0.29748857
QK -0.2332644 -0.8974167 -0.35264164 0.2207804 -0.18774185 -0.15197615 -0.5940491 -0.27864018 -0.38432235 0.09358333 -0.19796549 -0.033312086 -0.04518349 -0.42617697 -0.28803554 -0.51658195 0.11737635 0.18214868 -0.19146758 -0.86740804
AR 0.20955907 -0.2861383 0.14537048 0.39768538 -0.18386517 0.22540134 0.6777874 -0.33870456 0.23838638 -0.066590585 -0.6793575 0.035337217 -0.3194822 -0.52949375 -0.47607008 -0.61380786 0.21918766 0.2664522 0.044267118 -0.8283344
EQ -0.056154866 -0.5589769 -0.50235826 0.2844371 -0.29121268 -0.006957176 -0.052788798 0.023457618 -0.5738324 0.5813132 -0.6452446 0.20845473 -0.21018885 -0.33072004 -0.5632464 -0.33047578 -0.12267117 1.0319403 0.050249483 0.08398068
NL -0.0345355 0.47285658 -0.09778654 -0.17819043 -0.3962383 -0.16523395 -0.16931947 -0.87626654 -0.30488205 0.12055465 0.1534943 0.21945971 -0.50406724 -0.54470384 -0.6195516 -0.25831285 -0.33693016 0.08498367 -0.603813 -0.29765576
KQ 0.24537036 -0.49019396 -0.31493175 0.66437703 -0.32490078 -0.04928886 -0.37571195 -0.03916102 -0.59014136 0.39654022 -0.52549773 0.027516747 -0.0071831825 -0.7145213 -0.09745043 -0.59515893 -0.034218475 0.54475695 -0.3836979 0.04891086
RA 0.1533366 -0.43857118 0.049846057 0.0012499848 -0.16185099 0.87276715 0.24330848 -0.8667259 -0.008974501 0.31226468 -0.39106932 0.43847933 -0.2537759 -0.4332078 -0.33246633 -0.08238814 0.5169585 0.37800735 0.19795287 -0.15201423
TV 0.15220797 -0.09604616 0.37051612 0.7393302 0.3146033 0.37176263 -0.36975747 -0.30557832 -0.19940178 -0.15491307 0.16518328 -0.019962084 -0.32445213 -0.095167466 -0.14161897 0.2235572 -0.83804214 0.6163326 0.41756403 -0.83598685
TK -0.01833521 -0.7157938 -0.47187984 0.68010753 0.04981225 0.49674654 -0.24324115 0.011059374 0.030774431 -0.30675703 -0.0020028085 -0.42610323 -0.1669435 -0.7378137 -0.3814709 0.09794306 -0.7174501 0.2634658 -0.0460354 -0.6090202
VP 0.41357532 -0.08659536 0.13115805 -0.29922 0.13405846 0.17811744 -0.4453958 -0.63980955 -0.040053315 -0.4263504 -0.46441293 -0.115086965 -0.41297072 -0.5600667 0.32059824 0.71089745 -0.25468764 0.98379403 -0.084667124 -0.40014863
AT 0.37991118 -0.34634146 -0.25261155 0.41110742 -0.65025103 0.3349245 0.050508983 -0.42359287 0.24029315 -0.22091241 -0.018233128 0.6739684 -0.07134483 -0.12241203 -0.03815647 -0.08987471 -0.7583631 0.4758692 -0.0138017135 -0.9423897
LI 0.6993487 -0.22648136 -0.15480852 -0.30052903 0.24505845 0.25523296 0.070350096 -0.40195704 -0.59473884 0.4074043 0.1632949 -0.4288472 0.03059833 -0.49592215 -0.5930743 -0.37812263 -0.57147104 0.15385036 0.14988813 -0.1794659
QA 0.21057089 -0.84646857 -0.04235868 0.048583902 -0.14017448 0.22083656 -0.22080469 -0.65457284 -0.20160256 0.57571036 -0.45482984 0.3178652 -0.017021121 0.28243825 -0.4948786 -0.0399448 0.30084538 0.61688703 0.04193191 -0.84678775
QS -0.3141833 -0.62777704 0.2641171 -0.3512479 -0.007194232 -0.2969565 -0.37065122 -0.6439464 -0.47694203 0.18645184 -0.6522424 0.018992556 0.29566368 0.14134058 -0.30801353 -0.25913346 -0.30234554 0.11426673 -0.29675943 -0.89281744
LN 0.11683368 0.24829558 0.06985875 0.34465465 0.43401346 -0.28583142 0.4564712 -0.43874678 -0.5497124 0.19243191 -0.035985734 -0.16757897 0.2636386 -0.59301656 -0.8212026 -0.055412434 -0.53380716 0.5209747 -0.32339337 -0.22918802
EP -0.008263708 -0.7278686 0.057145007 0.07714816 0.3619777 -0.33044645 -0.03007844 -0.44113994 -0.32017794 0.1047816 -0.3618768 0.2979444 -0.86825424 -0.43371612 0.25949934 0.42894986 -0.29588392 0.89651823 0.22868103 0.11341734
TG 0.02871682 -0.44944924 -0.05588741 0.23248252 0.5662876 0.47880918 0.39982498 -0.00020608105 -0.0235613 0.17319368 0.17201138 0.03821755 0.24933925 -0.7929788 0.4169681 0.22751251 -0.61429095 0.3858409 0.15914503 -0.8981046
KI 0.5987645 -0.6490784 -0.5789426 0.25135416 0.20822206 0.1349971 -0.21786562 -0.45623448 -0.9219922 0.27253368 0.032051746 -0.40704682 -0.3965634 -0.49582836 -0.076015115 -0.509479 -0.42480102 -0.2222676 -0.02382734 -0.18129593
DD -0.27469304 -0.26468688 -0.34854198 -0.27820775 -0.03324884 0.03472453 0.22212481 -0.8468087 -0.047485944 -0.3577915 -0.24522115 -0.87304187 -0.47340846 0.4674485 0.06619722 -0.7229411 -0.7917519 0.71379703 0.38883552 0.35427773
DK -0.10495175 -0.40469393 -0.90633166 0.002398727 -0.10641805 -0.19125311 0.029648367 -0.3149152 0.081295334 -0.37539777 -0.147603 -0.5367393 -0.266603 -0.6204227 0.123164475 -0.6645739 -0.64820343 0.2650842 0.22650348 -0.23865703
QQ 0.03462467 -0.47217935 0.24020806 0.10454697 -0.26587936 -0.2719562 -0.4182749 -0.01828952 -0.5563016 0.8102763 -0.75964767 0.14708197 0.13950302 -0.03615426 -0.4868975 -0.4748003 0.07965203 0.8995449 -0.40501627 -0.62101567
IK -0.12966388 -0.05797819 -0.9483664 0.578768 0.13712579 0.4076396 -0.22179832 -0.38031444 -0.04710631 -0.13064604 -0.22675152 -0.37439933 -0.50019413 -0.5346274 0.2361295 -0.35551184 -0.23330824 0.22408453 -0.6024833 -0.2575043
NS -0.38706714 0.046986252 -0.02836525 -0.40690812 -0.24280897 0.017036427 -0.0055904957 -1.0336707 -0.60420275 -0.21162647 -0.096371256 0.26769805 0.00082243874 -0.32786226 -0.2833221 0.12914032 -0.7452801 -0.11788561 -0.7934812 -0.26962402
GT -0.016853515 -0.24152778 0.39413175 0.13999613 -0.6697034 0.6153432 -0.053743087 -0.27454117 -0.011596363 -0.023793174 0.47117326 0.37678272 -0.15636571 -0.2898049 0.35817385 -0.027264783 -0.97622395 0.3748107 0.19425763 -0.6783841
GV 0.14945479 0.0145569425 0.86539876 0.5934462 -0.08518409 0.2638147 -0.11769856 -0.6638413 -0.32472017 -0.017471576 0.39409086 -0.06658357 -0.3243676 -0.1450764 0.3277608 -0.3001988 -0.34244272 0.27673158 0.36048996 -0.7128835
AQ 0.42485544 -0.44154727 -0.053131744 0.69713885 -0.74692476 0.17364939 0.2143039 -0.10489116 -0.06030859 0.27726284 -0.68613106 0.21299239 0.12702774 -0.14121862 -0.4227106 -0.42286414 0.013710737 0.89578724 -0.34753552 -0.59295964
PR 0.40350452 -0.28008395 0.5020361 -0.35328147 0.1503207 0.22728206 0.41254503 -0.062774695 0.10476532 -0.4777615 -0.87100655 0.14681232 -0.66499805 -0.93266845 0.067092754 -0.47776678 -0.316003 0.34331447 -0.4162674 -0.39100838
FL -0.49248043 0.13897093 -0.1647902 0.025748065 -0.12979446 -0.19147334 -0.34370428 -0.8753828 0.431959 0.637886 -0.33758473 -0.39443293 -0.40704042 -0.38649687 -0.45147905 0.15097904 -0.24983627 0.08892776 -0.023546973 -0.3245787
EN -0.12420837 -0.012436692 -0.39994606 0.45076114 0.4657189 -0.59350204 0.38706768 -0.47955737 -0.7128844 0.29708028 -0.2303039 -0.1330733 -0.18378322 -0.60314494 -0.5887931 0.17029554 -0.46511754 0.5493535 -0.032458033 -0.08465298
RP -0.025678653 -0.24967457 0.5168656 -0.15369481 0.3661761 0.5745821 -0.13234249 -0.576857 -0.13699695 0.16188328 -0.63078415 0.44786793 -0.8679388 -0.6865348 0.33672705 0.12651162 -0.05583888 0.38023567 -0.022573987 0.13483484
RD -0.2364306 -0.16458142 0.29850513 -0.27921852 -0.06714069 0.9755601 0.07329364 -0.88556665 -0.2125824 -0.073358394 -0.4532539 -0.3617957 -0.6176538 -0.0706018 -0.20256807 -0.76687026 0.08151902 0.20841204 0.072817035 0.43509644
DG -0.031169 -0.17629936 -0.44454554 -0.40263712 0.030596247 -0.20697212 0.474868 -0.5183652 -0.06079574 0.025346622 -0.3705648 -0.25912392 0.06302733 -0.41631624 0.8288283 -0.34009543 -0.4021828 0.5279253 0.6284194 -0.49702635
VG 0.27890363 0.11689225 -0.13053559 -0.3462702 -0.22640793 0.22953182 0.31270844 -0.7647843 -0.34676766 -0.26718846 -0.13996808 -0.18064038 0.30695665 -0.63280576 0.5564376 0.31034127 -0.08052612 0.59840035 0.3192867 -0.87468654
GD -0.08282502 -0.45433939 0.7139882 0.14051367 -0.43176976 0.4744344 0.2341412 -0.68723226 -0.1808558 -0.15526062 0.16999598 -0.64129317 -0.49484903 0.12090469 0.16738568 -0.5421602 -0.48867467 0.24658133 0.26193592 0.036074363
QR -0.32879815 -0.2980013 0.1877033 0.020145241 0.03287586 0.067662284 -0.091142595 -0.1799158 -0.32754537 0.25521716 -0.80709153 0.08730776 -0.15096113 -0.42801675 -0.5008086 -0.7495459 0.3270994 0.22668292 0.082381815 -1.0532765
AD 0.33213714 -0.49787256 0.11659049 0.3910883 -0.57372653 0.27438605 0.21498768 -0.8265909 0.20278509 -0.13322231 -0.3347737 -0.59838676 -0.25122055 0.47768667 -0.30938253 -0.49431428 -0.24999194 0.45812494 -0.16402608 -0.18034264
DV 0.06850255 0.12884167 -0.17416275 0.22438484 0.15937686 -0.3266124 -0.16380751 -0.74277085 -0.26547343 -0.32762676 0.02803827 -0.34997314 -0.24594995 0.13034375 0.39517576 -0.5347658 -0.5954346 0.6450434 0.7018703 -0.58008516
SI 0.37947953 -0.2485274 -0.026222331 -0.0759774 0.42558277 0.36530906 -0.005718017 -0.7969685 -0.70243096 0.20939064 -0.52978736 -0.34353247 0.06873228 -0.12558839 -0.14341532 -0.14100583 -0.8485211 -0.26238358 -0.14610197 -0.012895769
KN 0.073050424 -0.010147626 -0.2780002 0.83374786 0.27406812 -0.36098638 0.12372259 -0.5235696 -0.7248293 0.093043566 -0.1433659 -0.46605298 -0.082317725 -0.79608166 -0.20708387 -0.18511596 -0.49740103 -0.049629357 -0.32679752 -0.21607918
VR 0.10984146 0.3137958 -0.06615982 -0.263643 -0.08221026 0.5209044 0.15910922 -0.47724912 -0.017558314 -0.44584125 -0.6016577 -0.44371465 -0.2148642 -0.8049487 -0.290692 -0.16211174 0.25203007 0.5276842 0.026909914 -0.762073
IE -0.39666358 0.14272207 -0.8609519 0.6110351 0.4437025 0.34905374 -0.010139499 -0.55949455 -0.23818469 -0.2116764 -0.07565978 -0.061081048 -0.5180956 -0.08081858 0.039744556 -0.4939315 -0.096677765 0.7294741 -0.30763507 -0.10829215
RQ -0.18644615 -0.032695275 0.119497836 0.12050276 -0.39075005 0.7682847 -0.1234542 -0.01846772 -0.5414937 0.5856647 -0.8332442 0.3071445 -0.18966004 -0.51280284 -0.42169467 -0.4593549 0.13265724 0.7492987 -0.23341273 0.05008828
DR -0.37286407 -0.016200807 -0.12640496 -0.3444351 0.16622104 0.15053736 0.73094165 -0.22681245 0.019762678 -0.21231715 -0.79233176 -0.46712327 -0.27355042 -0.49503404 0.11080265 -0.96764016 -0.41969264 0.20694424 0.5561322 -0.46199962
FS -0.74278754 -0.38064313 -0.013694286 -0.16781186 -0.12311395 -0.05745483 -0.20401049 -1.0465304 0.21113594 0.37009466 -0.5333748 -0.23080014 0.020489827 -0.38455305 -0.074138224 0.4397544 -0.57972944 -0.26015583 -0.013287274 -0.3044525
RV 0.021885905 0.4184715 0.35343763 0.3588684 0.06541907 0.553525 -0.33612397 -0.91570365 -0.61600953 -0.023672646 -0.09929174 0.2989625 -0.4810195 -0.36843795 0.10449128 -0.37062743 0.1779791 0.29168528 0.42416114 -0.39343137
DA 0.27451977 -0.32267278 -0.63856536 -0.21615551 0.0067415144 0.23928127 0.32405272 -0.780151 0.31598482 0.09099521 -0.41882828 -0.1956742 -0.02735873 0.16930327 -0.12945056 -0.15944755 -0.34991762 0.688148 0.43344057 -0.26554316
TT 0.045767017 -0.3831817 -0.18374689 0.2785302 0.0841241 0.7909009 -0.16232827 0.055538747 -0.041642193 -0.11143851 0.12259639 0.46069184 0.11123968 -0.2789279 -0.09533954 0.26226133 -1.2185329 0.5839919 -0.11232071 -0.9288984
PT 0.5650054 -0.33111587 0.05145227 -0.42596218 -0.35733712 0.38992727 -0.21139841 -0.16323267 0.02855001 -0.2838318 -0.041691273 0.6572977 -0.435098 -0.24795197 0.42678323 -0.12510616 -0.984597 0.7342284 -0.43796176 -0.49048343
RT -0.19767793 -0.01369091 -0.17442141 -0.26518854 -0.2183075 1.103399 -0.29627684 -0.3559783 -0.3013419 0.1187153 -0.116463944 0.78091466 -0.3570917 -0.47349185 0.06273375 -0.323875 -0.35290873 0.26521817 0.17305258 -0.40429598
VD 0.2005204 -0.0016167273 -0.17729986 -0.15898868 -0.28357506 0.5504155 -0.34348124 -0.95280176 -0.23908557 -0.5361349 -0.08877332 -0.7163326 -0.09503348 0.032264534 -0.22602351 -0.10969756 -0.2546908 0.63988996 -0.022930391 -0.08588064
QP 0.012123746 -0.6953738 0.61680543 -0.072140045 0.24313983 -0.3266024 -0.75545996 -0.23529524 -0.4322436 0.38946298 -0.776738 0.28802204 -0.366495 -0.13405307 0.24433446 0.18817627 -0.15965801 0.67508554 -0.2708679 -0.7724733
NK -0.25498915 -0.050242685 -0.4990262 0.117405415 -0.5345731 0.11489482 -0.17988159 -0.53710437 -0.5267405 -0.15229848 0.39922082 0.036091592 -0.3519524 -0.8663171 -0.42049828 -0.10321161 -0.4884751 0.04669093 -0.8206659 -0.1693696
PQ 0.656587 -0.44447526 0.39417183 -0.076286964 -0.24421896 -0.07506488 -0.30666843 0.113893464 -0.23247589 0.12539911 -0.6197628 0.20035124 -0.22653438 -0.32148087 0.11392614 -0.2264934 -0.38922486 1.1764438 -0.84282285 -0.11942073
DP 0.023017973 -0.30264723 -0.22230236 -0.30987006 0.3883323 -0.27307436 -0.11044685 -0.36095187 0.2639548 0.02659042 -0.6477878 -0.2776998 -0.6494889 -0.099504896 0.56161696 -0.124406666 -0.68790287 0.7607264 0.23115608 -0.12623027
HL 0.044798188 -0.09011218 -0.058081802 -0.3570359 0.20500043 -0.044346403 -0.46136189 -0.49971923 0.4913193 0.5521405 0.10171187 0.052557416 -0.15821987 -0.29653114 -0.62863 -0.999743 -0.41011727 -0.016690606 -0.35602385 -0.5263176
QG -0.07957725 -0.37708676 0.1879283 -0.26560378 0.027564755 -0.33114815 0.09673904 -0.4694336 -0.54497313 0.6070489 -0.45589796 0.18199356 0.3177478 -0.284912 0.39395347 -0.17267479 0.101448864 0.33515528 0.08194567 -1.0412133
PD 0.5104514 -0.32900688 0.48355645 -0.33846787 -0.14023322 0.32981372 -0.23720345 -0.60536826 0.0075143473 -0.4646363 -0.21855602 -0.5260542 -0.54943305 0.005649319 0.117987365 -0.49509764 -0.52506906 0.672596 -0.5179676 0.3258012
GI 0.53051955 -0.44717774 0.37392297 0.04810685 -0.10182523 0.50420636 0.33177593 -0.4782051 -0.6298523 0.39744708 0.35898963 -0.5953796 -0.4837278 -0.17673606 -0.001994577 -0.11236943 -0.689938 -0.2121862 0.16196805 -0.4972647
SF -0.050965123 0.16019677 0.014305013 0.45094135 -0.45034522 0.1292753 0.25767055 -0.78588873 0.034246467 0.400595 -0.44645134 -0.052408833 0.3618104 -0.28342488 0.13373029 -0.15164623 -1.163421 0.1449827 -0.24899858 0.47106
QV 0.03259876 -0.17488682 0.33645836 0.3909104 0.000295962 -0.26722476 -0.7974581 -0.54194146 -0.65354115 0.18256775 -0.13263442 0.06676421 -0.18215296 0.14247586 -0.038009986 -0.32643563 -0.048126567 0.584756 0.17889178 -1.0246847
GQ 0.021715404 -0.41698545 0.86427855 0.41215098 -0.67492515 0.27358413 0.012371501 0.17737283 -0.2950039 0.5430781 -0.27915397 -0.13251466 0.065350845 -0.2991761 0.06580554 -0.33160678 -0.4256577 0.68401074 -0.2526155 -0.32392406
DI 0.47700703 -0.19335863 -0.67279315 -0.49591228 0.36409637 -0.040867746 0.09386898 -0.40715912 -0.5094024 0.22050086 -0.14513834 -0.86363965 -0.2914218 -0.1418858 0.087896004 -0.45049572 -0.7358707 0.26657042 0.2567904 -0.345564
SN -0.15004563 0.2115598 0.12123698 0.47382808 0.54889905 -0.15082823 0.40203017 -0.72829664 -0.48423344 -0.07508148 -0.5320249 -0.11056835 0.26964456 -0.32438746 -0.31995657 0.16790308 -0.802304 0.27991113 -0.6096489 -0.10777309
LF 0.27380368 0.29329014 0.039083354 0.033600945 -0.59728914 -0.025855072 0.07073605 -0.47650614 -0.024755396 0.49779582 -0.09069624 -0.1319071 0.33661652 -0.7650245 -0.33736652 -0.42044345 -0.72542423 0.5190614 0.24645643 0.365392
VI 0.8261296 -0.10728398 -0.38363454 -0.46466026 0.10110005 0.42642605 -0.23625094 -0.6786082 -0.56314623 -0.17026232 -0.015793819 -0.7366885 -0.013448315 -0.51368976 -0.17274679 0.038388252 -0.30961064 0.28094608 0.09166646 -0.5475775
VQ 0.34677812 0.010370431 -0.17310844 -0.040345978 -0.5459923 0.25679064 -0.31343824 -0.30325976 -0.3762194 0.049939513 -0.5903101 -0.15715913 0.3988828 -0.3513655 -0.30218127 0.054484397 0.019438244 1.1621016 -0.30418688 -0.39963782
QT -0.18046261 -0.3356311 -0.18358807 -0.16665451 -0.38707432 0.19363727 -0.694124 -0.19206521 -0.53017277 0.30582276 -0.17751554 0.6591633 0.066723235 0.05858083 -0.10669276 -0.2882536 -0.47098255 0.4657484 -0.079655364 -1.2650484
RI 0.38853797 -0.17494068 -0.20218371 -0.29247296 0.3992701 0.96357197 0.027294816 -0.46892738 -0.87091434 0.48009995 -0.20456792 -0.07750112 -0.5042707 -0.5332985 -0.25389215 -0.4762015 -0.044925556 -0.13360128 0.13801225 -0.24476507
AI 0.99387705 -0.43788642 -0.28582144 0.28279692 -0.06326905 0.27735525 0.4263913 -0.6245212 -0.3724996 0.26095656 -0.05905616 -0.4964664 -0.22463942 -0.07404312 -0.4497786 -0.32324076 -0.21798737 -0.010891245 -0.12797849 -0.7215886
TR -0.28522316 -0.3086771 0.14198363 0.4094948 0.28905073 0.7074223 0.37918591 0.19664073 -0.02472367 -0.20171264 -0.53623533 -0.32571355 -0.31066826 -0.681406 -0.5911843 0.017089097 -0.5624362 0.37019777 0.10843958 -0.6848675
IA 0.32833868 -0.18433331 -0.82094413 0.57663924 0.1406024 0.83919144 0.16492206 -0.747191 0.1283214 0.34987682 -0.38460338 -0.09453485 -0.24032792 0.12813866 0.12334476 0.034437384 0.05734755 0.46561968 -0.33387277 -0.4423073
IP 0.169042 0.13351204 -0.27521536 0.39345667 0.5894633 0.2430684 -0.38484225 -0.5187053 0.06997891 0.279019 -0.5512154 0.023602387 -0.9102902 -0.22292349 0.553501 0.29547507 -0.364537 0.5581432 -0.596503 -0.21819752
TQ 0.11436897 -0.4507139 0.050986674 0.5465191 -0.11167826 0.500832 -0.23786303 0.35027236 -0.17735799 0.351495 -0.46965697 -0.1362364 0.11562212 -0.19679515 -0.47403646 0.13466616 -0.6822356 1.0597923 -0.38396513 -0.4061837
IT -0.06043775 0.18484312 -0.8465291 0.34101644 0.04044893 0.7514419 -0.24759655 -0.23779643 -0.1968742 0.12138316 -0.13670342 0.2536299 -0.25964022 -0.022200717 0.4683689 -0.13298388 -0.7136979 0.48682034 -0.44383928 -0.74866825
NE -0.5310035 0.03168892 -0.4105166 0.07600698 -0.15902452 -0.08922401 -0.052009236 -0.87031037 -0.6849954 -0.27253586 0.48751593 0.27987894 -0.1891427 -0.401304 -0.36502972 -0.086412996 -0.1979647 0.6413392 -0.55819976 0.025216347
TD -0.059816916 -0.5234583 0.2055318 0.32366553 0.058152642 0.7832603 -0.2697023 -0.26850656 0.00950935 -0.17839561 -0.03755565 -0.7793251 -0.29415646 0.1289173 -0.58012 -0.13202377 -0.83903277 0.5639534 0.029734308 -0.016489655
DT -0.12815863 -0.008526589 -0.5692026 -0.45832878 -0.10188802 0.07999553 -0.08710769 -0.26621568 0.010714762 -0.083590224 0.09691191 0.09362674 -0.040297877 -0.018823862 0.2940834 -0.4236709 -1.23154 0.6850703 0.37136206 -0.43685427
IQ 0.09960607 0.21228296 -0.5742102 0.5863124 -0.056011364 0.39033753 -0.28322357 -0.072306804 -0.35025883 0.6192912 -0.6742353 -0.101011224 -0.22477344 -0.11541515 0.100433 -0.3409331 -0.06876346 0.82792157 -0.8382318 -0.2695642
QD -0.16043332 -0.5160217 0.23248824 -0.044127166 -0.33376488 0.026792599 -0.67939115 -0.76178336 -0.418511 0.19750124 -0.48242033 -0.5866072 -0.20684926 0.5149193 -0.38540924 -0.636075 -0.06604796 0.4448768 0.0084488345 -0.24029005
AF 0.27722532 -0.10341194 -0.098462075 0.6517697 -1.007834 -0.10233504 0.47630098 -0.64663374 0.3699642 0.5338996 -0.22378436 -0.20916852 0.3813795 -0.54723334 0.0035941391 -0.37696782 -0.42541474 0.24744053 -0.07808974 -0.06303281
GF -0.07935027 0.06773672 0.63483083 0.32956865 -0.94598615 0.13323668 0.6014287 -0.723228 0.059409056 0.47404924 0.06875219 -0.38736862 0.0088304635 -0.7244249 0.43893608 -0.19036403 -0.7412756 -0.019006196 0.20207098 0.12727892
IR -0.12457751 0.44375303 -0.435703 0.34126812 0.392344 0.5977456 0.23857273 -0.29985642 -0.039163373 0.05565696 -0.70858765 -0.40462932 -0.60769135 -0.40345767 0.056232642 -0.58208066 0.13355774 0.2964193 -0.2913531 -0.660709
GN -0.095102616 0.25364143 0.7698039 0.63053423 0.07183397 0.023120133 0.6824361 -0.48773167 -0.6093095 0.22325723 0.12749802 -0.42517397 -0.047509946 -0.57585734 -0.17833243 0.11218364 -0.67104876 0.00048908615 -0.23826678 -0.56756717
FE -1.1001403 -0.13914599 -0.48463428 0.37155214 -0.054651514 -0.003831682 -0.07549233 -0.9214592 -0.053640366 0.2091573 0.0003085139 -0.22899923 -0.27119344 -0.4701463 -0.20002 0.26400298 -0.0044891457 0.40525794 0.14836472 -0.061914496
LH 0.3062702 0.43638167 -0.013896483 0.103749976 0.560668 0.3547194 -0.14578037 -0.5447253 0.253291 0.24626939 -0.029092396 0.37141618 0.51108485 -0.52758116 -0.5052369 -0.7086986 -0.4013014 0.72696865 0.2051086 -0.07971497
ID -0.01299299 0.14399864 -0.38488713 0.35080627 0.21356365 0.6663224 -0.1819856 -0.7940641 -0.20700634 -0.08023119 -0.084537216 -0.78400606 -0.62634134 0.29585895 0.17176524 -0.4389466 -0.3723952 0.4207417 -0.46219638 0.12304241
IV 0.12888348 0.5354894 -0.19097959 0.7548331 0.45543367 0.4593588 -0.23094614 -0.79509586 -0.27064085 -0.009731688 0.03423684 -0.1348258 -0.55178547 0.24723114 0.51992553 -0.34532973 -0.22311613 0.5020236 -0.07011527 -0.65528077
YL -0.57343614 0.009869602 0.09302953 0.012084012 -0.19772638 -0.32679868 -0.110506915 -0.25151423 0.22431636 0.024744244 0.05811971 -0.42873675 -0.024719639 -0.31999782 0.0020567535 -0.63071114 -0.09941711 0.6600064 -0.670434 -0.5587709
LY -0.024705231 -0.3594997 0.2639967 -0.30012277 0.2027715 0.35621154 0.072476834 -0.33822572 -0.6943834 0.21363208 0.4150509 -0.41885906 0.65746707 -0.42242506 -0.27184683 -0.44547334 -0.17352709 0.7647294 -0.023891866 0.017604496
SH -0.04534774 0.16843386 0.21866187 0.42566675 0.51999784 0.48263258 -0.35076848 -0.6856329 0.19308963 0.09829065 -0.8196973 0.4681111 0.7086528 -0.29563162 0.050585035 -0.80625635 -0.66917986 0.22173314 -0.07334038 0.011891891
QI 0.3352281 -0.55352306 -0.19520845 -0.20548727 0.2474693 0.024239274 -0.45556465 -0.3790423 -0.9874671 0.569893 -0.2644848 -0.43370885 -0.21628046 -0.034649093 -0.31519634 -0.37816307 -0.15651788 -0.02598089 -0.07964078 -0.9185566
TI 0.48903626 -0.511061 -0.23458529 0.15105811 0.39252827 0.6710005 -0.006990148 -0.036672205 -0.5512117 0.25852636 0.09278625 -0.5517676 -0.23076373 -0.25894824 -0.4713658 0.1336959 -1.0532584 0.096254416 -0.04042211 -0.67030436
HS -0.14271761 -0.5208683 0.11153079 -0.6322303 0.40318757 0.16308044 -0.21917763 -0.73495674 0.41384345 0.3143832 -0.24301067 0.23131257 0.3432333 -0.262026 -0.29834968 -0.6415824 -0.7542169 -0.38620338 -0.3532187 -0.49509135
ME -0.8424183 -0.4871376 -0.36789322 0.0013831232 0.17707513 0.03498186 0.5566972 -0.5196817 -0.08956142 -0.1756314 0.45192164 0.23233315 -0.8905845 -0.038848188 -0.5603703 -0.2317483 -0.09953103 0.6576177 -0.26220742 -0.46382555
NV -0.0885524 0.6003237 0.2763807 0.21944267 -0.23183268 -0.040412266 -0.42723325 -1.1031318 -0.8842839 -0.09775349 0.50594693 0.20891814 -0.31967917 -0.21633545 -0.100790165 -0.06823569 -0.36842906 0.26135364 -0.338734 -0.43191352
IG 0.08940179 0.44562435 -0.542029 0.20963742 0.23704456 0.5929762 0.53159875 -0.61085325 -0.11406999 0.39643195 -0.18763922 -0.19622847 -0.08213408 -0.27645814 0.8666452 -0.037020184 -0.3189813 0.20157737 -0.1366827 -0.7316028
AN 0.36581454 0.15149756 -0.003938601 0.7678178 -0.014429856 -0.31309327 0.7736464 -0.6185077 -0.3086334 0.020777768 -0.292622 -0.23372681 0.03721901 -0.27001625 -0.55971044 0.099587135 -0.28094074 0.4774813 -0.44125387 -0.7283249
YS -0.91631 -0.45285934 0.26066688 -0.30835602 -0.22864334 -0.18646961 0.06806529 -0.3785912 0.067196496 -0.18260328 -0.44986296 -0.3494455 0.39620903 -0.16559307 0.2848752 -0.30811667 -0.47652215 0.36597365 -0.80796903 -0.61292577
DF 0.060894404 0.3719064 -0.4219352 -0.10780788 -0.41882 -0.12908618 0.29055667 -0.466143 0.23218209 0.41567248 -0.39577436 -0.56297654 0.042818137 -0.31725532 0.24071307 -0.60697556 -0.98772776 0.51800835 0.34139144 0.22826271
VN 0.15668385 0.48980436 -0.25266019 0.22350933 0.08380507 0.025028873 0.30824926 -0.77209336 -0.53268814 -0.34336329 -0.25898382 -0.58262795 0.14737168 -0.517987 -0.38750464 0.46344897 -0.33362392 0.6418429 -0.22172982 -0.5279794
NR -0.44338825 0.54775286 0.07821323 -0.1520862 -0.28567496 0.24471042 0.22528556 -0.4289673 -0.5452126 -0.019588169 -0.17139788 0.15880531 -0.3892184 -0.92800534 -0.51499546 -0.31885824 -0.21042544 0.0051473696 -0.5792624 -0.5131644
II 0.5991646 0.015123202 -0.7085742 0.23823565 0.4610978 0.63630676 -3.019155e-05 -0.46210712 -0.5945175 0.27862066 -0.22168158 -0.71507776 -0.5078332 -0.1322878 0.30392876 -0.18295735 -0.43532282 0.02909004 -0.4847575 -0.4872253
NP -0.113336265 0.02022949 0.200302 -0.17535324 0.08983167 0.041631408 -0.46205956 -0.68246543 -0.43251005 0.20751847 0.05653757 0.24297895 -0.66484576 -0.6049059 0.16990882 0.5901018 -0.45662057 0.36085555 -0.917472 -0.02130482
PI 1.0938795 -0.42018872 0.15882872 -0.45465603 0.32920742 0.24556704 -0.027650792 -0.27348134 -0.62447083 -0.09435299 -0.05329134 -0.48582712 -0.5273438 -0.44495493 0.15058465 -0.22493675 -0.7175099 0.22914097 -0.39786696 -0.266828
YG -0.66692007 -0.38384748 0.35080868 -0.28910524 -0.29843298 -0.13430436 0.64411575 -0.2327451 -0.042235576 0.28270167 -0.20686553 -0.33429286 0.5353575 -0.40612713 1.0302061 -0.30135387 -0.21347028 0.59101415 -0.39369863 -0.8070956
EF -0.19084692 -0.10939349 -0.51235026 0.30936635 -0.64555556 -0.3357437 0.2405884 -0.54790807 -0.32852352 0.6558189 -0.13562773 -0.1360064 0.0006260943 -0.5807131 -0.084535986 -0.23339532 -0.56058055 0.5203819 0.38798675 0.4426935
RN -0.17562345 0.4394599 0.21732302 0.29506338 0.45064718 0.35454682 0.41417947 -0.68450266 -0.682389 0.16466947 -0.4839232 -0.12674193 -0.20624864 -0.8078909 -0.44994912 -0.025748938 -0.012756088 0.13307068 -0.22287385 -0.07102693
FG -0.63228506 -0.029266393 -0.06597018 -0.15355557 -0.31776237 0.09023103 0.4202587 -0.9279045 0.030758929 0.70757526 -0.2828314 -0.27702957 0.043626077 -0.6495209 0.590518 0.52196723 -0.19013235 0.03216765 0.43203083 -0.5711886
SY -0.5467739 -0.60706365 0.5429875 0.05059489 0.30669752 0.659473 0.13013057 -0.66859746 -0.5918406 0.027049907 -0.35881582 -0.113658786 0.83905125 -0.051778477 0.3730045 -0.29202044 -0.27867457 0.3203539 -0.5641336 0.011005647
NI 0.34122553 0.110518456 -0.2636142 -0.3716906 -0.05298698 0.24167691 -0.16357557 -0.7840771 -1.0209396 0.3881912 0.41637245 -0.2913774 -0.3045349 -0.55497426 -0.38465822 -0.038721286 -0.52902603 -0.20682497 -0.513239 -0.23032585
NG -0.006170574 0.26585856 -0.1545069 -0.33103314 -0.24609917 -0.12490371 0.25381088 -0.8904234 -0.69238263 0.31645042 0.36719176 0.393887 0.038207103 -0.5853021 0.32345882 0.34383094 -0.3074276 0.3210675 -0.35653284 -0.5201992
DQ 0.00137318 -0.045210443 -0.45779088 -0.21103887 -0.15614864 -0.18429035 0.031458613 0.12753151 -0.3439357 0.25234056 -0.69725335 -0.3737706 -0.014812924 0.0883758 -0.04688154 -0.64478266 -0.6162465 1.2016104 -0.022725433 -0.19832382
NA 0.16132586 -0.10361718 -0.41164792 0.05589863 -0.46038502 0.5559405 0.078324854 -1.0603672 -0.3845112 0.2643654 0.13010456 0.3993505 -0.15569611 -0.25545365 -0.6273844 0.4486445 -0.12117602 0.25736004 -0.5948456 -0.17903493
GY -0.3507903 -0.5485646 0.9972998 -0.0435789 -0.19085327 0.7046456 0.55018365 -0.37526822 -0.7212103 0.31644753 0.33422276 -0.6379822 0.48748353 -0.33670795 0.5229855 -0.22224116 -0.2410963 0.31306264 -0.17163244 -0.35567445
QN -0.21973598 0.11178651 0.22895981 0.35480502 0.40717465 -0.6072004 -0.09872113 -0.5202826 -0.91218483 0.42393038 -0.4576679 -0.2616338 0.17826456 -0.19560754 -0.6064208 -0.055072628 -0.2380151 0.2941506 -0.35003054 -0.9028221
KF 0.18915716 -0.007767821 -0.38133043 0.5999213 -0.74908036 -0.0756541 0.030837372 -0.64004207 -0.21325636 0.4682936 -0.11564234 -0.3084732 0.049819246 -0.7260292 0.23939444 -0.5130794 -0.5596853 -0.009256066 -0.06110225 0.2758246
FK -0.72327745 -0.34088635 -0.6370483 0.23832545 -0.2255945 0.13487595 -0.4028046 -0.6543446 0.18918823 0.30282903 -0.15048014 -0.6027232 -0.28574723 -0.80839103 -0.065126546 0.26860192 -0.263907 -0.07235661 -0.07985581 -0.26563427
KH 0.19135967 0.048706908 -0.32350498 0.6494766 0.42327857 0.2115661 -0.5228944 -0.5532402 -0.1357433 0.20746423 -0.12859632 0.29312995 0.23894157 -0.78589237 0.17656578 -1.1830176 -0.17918743 0.037001204 0.02763179 -0.09021438
VF 0.44437423 0.46806604 -0.28085288 -0.037083317 -0.8830134 0.26326805 -0.046690192 -0.7703609 -0.068571 0.013226722 -0.25089765 -0.5478994 0.4388429 -0.7063913 0.118207894 0.057146475 -0.56653154 0.6198276 0.19070134 0.025984243
EM 0.041208804 -0.36389333 -0.48268953 0.05324906 0.103006855 -0.31490666 0.6252226 -0.5958376 -0.7314631 0.695405 -0.045945268 0.46974316 -0.49631098 0.10437766 -0.0048979404 -0.5396927 -0.23771808 0.6756715 -0.002047785 0.20629719
FV -0.5887233 0.32037392 -0.06291927 0.59616303 -0.11654946 0.060830183 -0.47011012 -1.170852 -0.061972298 0.31724253 0.06616933 -0.349331 -0.37200457 -0.13296624 0.18019924 0.35090557 -0.3315119 0.12196585 0.47377977 -0.56474096
MA -0.13802043 -0.7454791 -0.31006208 -0.084506 -0.0026246828 0.5741246 0.6852884 -0.74684685 0.43541816 0.3033723 0.37508923 0.24574292 -0.55638504 0.1756934 -0.57993805 0.26475796 -0.019243658 0.56370175 -0.29318887 -0.63894534
RF -0.2079276 0.37500262 0.035370328 0.01340478 -0.6229322 0.47865266 0.3633686 -0.730362 -0.1593905 0.57615274 -0.57701963 0.03817334 -0.19775198 -0.8763591 0.0501653 -0.49306002 -0.30748925 -0.019907756 0.041678514 0.5693902
NT -0.16752364 0.28287363 -0.33153114 -0.15111488 -0.56499434 0.4034157 -0.42049494 -0.5253262 -0.48259246 0.097886555 0.49994272 0.5820327 -0.12274694 -0.37681425 -0.17938317 0.18707483 -0.79257756 0.4695272 -0.6568061 -0.5201739
NQ -0.11304054 0.224 0.043374423 0.032226797 -0.59120494 0.15561251 -0.36042142 -0.19856986 -0.76696473 0.609739 -0.07145765 0.23518783 0.1003599 -0.562736 -0.50952303 -0.030082269 -0.37825072 0.6534591 -1.0213735 -0.12293062
TN -0.04656678 0.043128524 -0.054315053 0.7492507 0.6254912 0.25605255 0.37544376 -0.11045846 -0.4151249 0.13266347 -0.05472333 -0.36569744 0.19251628 -0.4240086 -0.776985 0.36418155 -0.9241517 0.452092 -0.29467222 -0.7028248
FP -0.44637907 -0.24262378 0.10890682 -0.059565127 0.091422886 -0.06263207 -0.4046075 -0.7461062 0.45011827 0.62375945 -0.57385206 -0.22197725 -0.65753895 -0.47988832 0.21821296 0.80403894 -0.40940696 0.3744628 -0.083008766 -0.032222625
PN 0.52517253 0.19027475 0.4297815 0.09113579 0.4602191 -0.327828 0.47443485 -0.34870908 -0.35553467 -0.17694297 -0.14887354 -0.4153719 -0.29146057 -0.6838179 -0.055956163 0.14239134 -0.65757465 0.56562346 -0.9581622 -0.19161332
ML -0.3040646 -0.18362166 -0.10771623 -0.11726679 -0.10445933 -0.19319531 0.38556266 -0.4710559 0.276825 0.29245308 0.2932066 0.08885475 -0.99007106 -0.021632882 -0.7277794 -0.30540803 -0.35057542 0.36162025 -0.3814093 -0.6180421
YE -0.966887 -0.4171775 -0.24320588 0.21688198 0.05792671 -0.047023658 0.17650394 -0.26905462 0.054512095 -0.23339424 0.27406573 -0.2973207 -0.040251236 -0.43632805 0.37396297 -0.6508633 0.17396626 0.8803457 -0.551093 -0.20549946
FR -0.7700135 0.0894052 -0.034424543 0.010673335 -0.017810963 0.31084043 0.09837787 -0.52215606 0.40340334 0.47497085 -0.7321801 -0.52163076 -0.30453208 -0.89291954 -0.24693277 0.05805091 -0.0067009954 -0.0577495 0.19827276 -0.5134239
YK -0.6179113 -0.5205403 -0.38300666 0.28022873 -0.30123588 -0.16409807 -0.11967566 -0.18174206 0.12466174 -0.17374718 0.35345683 -0.6612265 0.18739735 -0.80373347 0.3287487 -0.46044052 -0.07323817 0.4493622 -0.810023 -0.50299597
FD -0.71684533 -0.08613587 -0.031199832 0.08533371 -0.39080667 0.43512076 -0.40765095 -1.1088449 0.0797528 0.35714358 -0.19320357 -0.9044581 -0.33430192 0.105090894 -0.10672413 0.12828939 -0.3651458 0.23211889 0.13125971 0.20762856
IN 0.022807706 0.6404889 -0.4763781 0.69315696 0.7052756 0.04992626 0.29864794 -0.5388151 -0.48192862 0.20433617 -0.33660072 -0.5377281 -0.23363392 -0.25513327 -0.063695684 -0.025984734 -0.5207991 0.38286778 -0.69134283 -0.39021236
HR -0.064645484 -0.2135967 0.25622544 -0.43248877 0.47224116 0.42947343 0.05398104 -0.25056922 0.50498945 0.37609172 -0.37802374 -0.0287679 -0.33690137 -0.6434187 -0.38547862 -1.1531705 -0.24653299 -0.29476213 -0.052157152 -0.6109573
PF 0.59072894 0.0895587 0.14384757 -0.15094955 -0.5900638 -0.1377714 0.06582051 -0.30198136 0.16905203 0.28532496 -0.17843266 -0.22957903 -0.108273596 -0.91396123 0.44456783 -0.3526407 -0.82234 0.48567814 -0.5157126 0.4944385
KY -0.22743219 -0.7735542 -0.2357958 0.3762584 -0.025247952 0.4240781 -0.16656221 -0.42550695 -0.8414087 0.21083023 0.43859893 -0.54509765 0.5315313 -0.40755197 0.32102403 -0.52597654 -0.11116429 0.28025734 -0.0999824 -0.05658887
TF 0.01020592 -0.056594536 -0.1407974 0.5978153 -0.3729942 0.42348728 0.25421903 -0.034256138 0.2707283 0.5566094 0.00933761 -0.40573442 0.17384216 -0.5379156 -0.17878017 0.09278418 -1.2494965 0.47528654 0.09015789 0.075308874
CG 0.033158924 -0.4637646 -0.20135933 -0.08557534 0.14782414 -0.48852733 0.28759244 -1.2787442 0.5476629 0.50450975 0.35538635 -0.059976883 0.6616606 -1.1091307 0.69805664 0.029522981 0.10744937 0.036131352 -0.10119858 -0.33474764
FA -0.35092062 -0.23132873 -0.32945004 0.16608098 -0.40982282 0.51041645 -0.11218622 -1.0923159 0.31460348 0.7560026 -0.48486838 -0.22808307 0.010256246 -0.21552463 -0.24580282 0.666596 0.069799334 0.29222628 0.22587976 -0.28121918
LM 0.32092434 -0.057332065 -0.14034681 -0.09145589 0.11642756 -0.0025747563 0.7392141 -0.47250703 -0.42825148 0.5734403 0.20277716 0.4816101 -0.058657885 0.09210249 -0.3696105 -0.78111416 -0.3994619 0.7657747 -0.23440622 0.07645783
EY -0.4544843 -0.79044765 -0.26207957 -0.16538173 0.17349982 0.25891605 0.10482609 -0.3729966 -0.87335926 0.35501707 0.29999563 -0.47504342 0.21709368 -0.2795803 0.15750967 -0.15527433 -0.1357867 0.7934576 0.21327469 0.2551181
FT -0.8318744 -0.12847179 -0.48953104 -0.1116484 -0.3619076 0.5249384 -0.52451044 -0.62188846 0.34118018 0.5070918 0.07099074 0.092767894 0.04165528 -0.30387497 0.15661052 0.4538347 -0.70508343 0.34132108 0.14502575 -0.45669553
LC 0.22782065 -0.3245195 0.29211816 0.27235308 0.49524584 -0.21076915 0.09765953 -0.82013834 0.20126055 0.5181874 0.42767522 -0.31554967 0.36179143 -0.67890406 -0.34623075 -0.202191 0.049024336 0.7728045 0.07398339 0.40722618
MK -0.5917465 -0.6425613 -0.6754783 0.0030988732 -0.034269914 0.19907334 0.43550533 -0.27591237 0.17818631 0.011158337 0.45726177 -0.10837093 -0.748488 -0.4773779 -0.46220064 -0.38901952 -0.17185171 0.15142742 -0.5958802 -0.5655865
FQ -0.44487768 -0.03314894 -0.15270081 0.2091435 -0.43849283 0.21678601 -0.43900856 -0.2951592 0.0061089383 1.0322886 -0.8123974 -0.23677693 0.0474027 -0.4871074 -0.35035163 0.2905326 -0.121282 0.60618526 -0.2632126 -0.097587824
MS -0.7077531 -0.6397038 -0.083207875 -0.36135647 0.035606034 0.13433711 0.58059174 -0.7202152 0.21084936 -0.08690565 -0.007839499 0.17364012 -0.43979675 0.09508153 -0.4632313 0.16714358 -0.68053687 0.0047971057 -0.57609296 -0.67678326
KM 0.22266173 -0.6475828 -0.5904376 0.4267186 -0.18141918 -0.040655013 0.4760606 -0.5855394 -0.59226894 0.5426047 0.1062273 0.48654765 -0.5328278 -0.0063774437 0.29182988 -0.8614687 -0.33988816 0.11389302 -0.36152086 0.15574588
DN -0.12012232 0.3181024 -0.34644282 0.047966868 0.58053714 -0.5429204 0.779895 -0.5511522 -0.27684543 -0.016091628 -0.28484884 -0.7818622 0.053179603 -0.17290771 -0.19172794 -0.2685057 -0.7787308 0.56537205 0.05320745 -0.30738097
HP 0.2531707 -0.4774724 0.32681155 -0.48011154 0.7231038 0.15729228 -0.6783525 -0.32153562 0.57271117 0.68118614 -0.11961743 0.12990586 -0.49042666 -0.40248066 0.30421638 -0.33354223 -0.52730966 0.18246034 -0.27219874 -0.30237728
RH -0.10286375 0.43109557 0.1931727 -0.06421575 0.4576774 0.8947846 -0.3131358 -0.6248006 0.0053507197 0.33490995 -0.3653384 0.4417242 0.14832424 -0.7806361 0.015094138 -0.98128814 -0.04530909 0.21298529 0.21562643 0.08527319
CS -0.13575196 -0.539389 0.07144528 -0.4482399 0.24947868 -0.44871756 -0.067049064 -1.4081774 0.6752782 -0.05322391 0.07930016 -0.16566382 0.4979883 -0.47090757 0.026698016 -0.023082566 -0.30973586 0.0013277777 -0.48246074 -0.13319209
IF 0.15672381 0.62394905 -0.70242035 0.6443101 -0.4294839 0.35813022 0.16153567 -0.5346622 0.013160071 0.67157835 -0.33265513 -0.48946252 -0.21964891 -0.3516465 0.4885723 -0.27257803 -0.60460544 0.3104481 -0.3488193 0.05270006
ND -0.3263788 0.25097376 -0.07255522 -0.21895176 -0.6427799 0.35181838 -0.2559472 -1.1324056 -0.65717417 -0.09501932 0.1588046 -0.45750296 -0.50411254 0.1840191 -0.46470457 -0.22858146 -0.5022889 0.29790804 -0.5427972 0.2868529
EH 0.029871704 -0.022388767 -0.41658688 0.25788826 0.7059392 0.13408554 -0.25485474 -0.39436808 -0.048012048 0.4783418 -0.3097944 0.467886 0.1816377 -0.5183206 -0.12819517 -0.80066353 -0.279709 0.60620344 0.4105691 0.10116504
CL 0.22033685 -0.019302983 0.013114659 -0.15331174 0.0992915 -0.60181355 -0.21724422 -1.0500915 0.6569981 0.14408231 0.40785003 -0.22601373 -0.1673217 -0.63069385 -0.29611075 -0.4295287 0.13665016 0.42040473 -0.19638363 -0.30997857
DY -0.49506742 -0.36547968 -0.12816705 -0.5254736 0.2836426 0.21275671 0.3545983 -0.31016615 -0.53804785 -0.108501084 0.1575959 -0.8227714 0.51889604 -0.039666843 0.5184615 -0.65709317 -0.5249131 0.78609335 0.1222951 -0.16017924
YR -0.7471745 0.17479466 0.32525623 -0.0047267466 -0.08751102 0.17361994 0.39374423 0.020784082 -0.053218994 -0.21140558 -0.30838826 -0.6315755 -0.076002546 -0.70882154 0.19861597 -0.8064471 0.07439425 0.40842572 -0.5913458 -0.88781995
MG -0.26178157 -0.3137442 -0.18033281 -0.3387215 0.14523424 0.10011584 1.1764582 -0.50135106 0.009908933 0.5208852 0.3234677 0.19734795 -0.5646648 -0.2617646 0.20568766 0.2023067 -0.1958945 0.26236865 -0.13138135 -1.0109941
FI -0.13859463 -0.13451333 -0.44592008 -0.18394926 0.07740724 0.33701366 -0.22003208 -0.7581964 -0.37208742 0.8445703 -0.06928929 -0.98614913 -0.28297192 -0.5288792 -0.097737834 0.37805602 -0.5139346 -0.3254308 0.2342755 -0.36039245
VY 0.04302874 -0.2776847 0.05711535 -0.31557202 -0.07588291 0.61129403 -0.17881064 -0.6460618 -0.61885566 -0.33439225 0.2240769 -0.6926651 0.7673998 -0.5209887 0.2326432 -0.020354528 0.19395898 0.8637775 -0.2675136 -0.26753563
PY 0.2580148 -0.7348222 0.33010343 -0.2791148 0.6052648 0.44258907 -0.07061026 -0.20162643 -0.50458115 -0.09168294 0.49130246 -0.19761056 0.26833552 -0.90512055 0.7317326 -0.3983785 -0.12712847 0.6442874 -0.8067726 0.17791955
NN -0.16698427 0.6116575 -0.026763301 0.32874525 -0.0906441 -0.20282942 0.17303585 -0.6812917 -0.9319556 0.182512 0.17232966 -0.11640129 0.02672778 -0.6750333 -0.66256714 0.23974067 -0.5139749 0.28230816 -0.876293 -0.44391188
SC -0.00076425343 -0.3939071 0.50922483 0.5076875 0.7202599 -0.0033563508 0.030590853 -1.1917677 0.10094486 0.15282303 -0.051665965 -0.0037946568 0.5445562 -0.23642409 0.20274504 0.08688896 -0.3986038 0.37467325 -0.42565274 0.3922321
YV -0.4696294 0.08844919 0.3033756 0.5779061 -0.1667234 -0.16164413 -0.23351902 -0.48225617 -0.15417627 -0.12533866 0.31560245 -0.5248252 -0.061429884 -0.05010534 0.5880754 -0.5428027 0.06251663 0.7344767 -0.32131612 -0.80168074
AY 0.14139959 -0.7196426 0.17240857 0.269003 -0.27666253 0.4814129 0.42691994 -0.47368687 -0.31700832 0.1250716 0.13081229 -0.4641988 0.73743546 0.05734657 0.008097903 -0.522 0.18431625 0.64280283 -0.17402324 -0.55944145
HT -0.17636274 -0.38209268 -0.34315214 -0.27013692 0.39183688 0.6289994 -0.55390024 -0.03496142 0.19375777 0.63171726 0.4238329 0.7492309 0.10652599 -0.7572446 0.20424668 -0.7472893 -0.671764 -0.013888102 -0.20398661 -0.75332695
HK -0.23311703 -0.5929821 -0.47820038 -0.048167326 0.16541217 0.195325 -0.52400166 -0.36391896 0.38989148 0.20536985 0.33672503 -0.13918188 -0.04151139 -0.86195743 -0.32069916 -1.0252827 -0.3138532 -0.2665069 -0.33602738 -0.31379327
NF -0.093205675 0.51811975 -0.07868672 -0.03549754 -0.970705 -0.050360672 0.05589238 -0.7359066 -0.51830953 0.550638 0.07790118 -0.07937817 0.018008118 -0.7258782 -0.04847759 -0.13281953 -0.7169147 0.14289404 -0.7288389 0.27883917
HG 0.10766085 -0.22504024 -0.06014556 -0.7422477 0.3622904 0.19265614 0.2030567 -0.5430492 0.23711976 0.6791769 0.04549729 0.30606812 0.1607496 -0.44265026 0.23069942 -0.671924 -0.4687253 -0.14260295 0.21246092 -0.72049
GH 0.05052615 0.20216237 0.8274439 0.4981473 0.17204571 0.59389776 0.025966499 -0.5118129 0.2763719 0.21806553 0.052598715 0.21012521 0.3782024 -0.5124225 0.26620835 -0.7389865 -0.42737728 0.18122011 0.15127283 -0.33593386
XM 0.3621192 -0.62862563 -0.31781635 0.18218575 -0.119217426 0.16843668 1.1745023 -0.8500419 -0.063238144 0.50181425 -0.004370842 0.970586 -0.48495823 0.4676553 0.2377842 -0.42901054 -0.40602404 0.6256025 -0.42914698 -0.039600275
VH 0.42590117 0.55130374 -0.19357212 -0.1236583 0.25116125 0.7482167 -0.55813074 -0.6440146 0.23304547 -0.1247697 -0.25670868 -0.15820558 0.6402857 -0.6228038 -0.036344096 -0.54931104 -0.089930266 0.7027818 0.20226745 -0.44876117
EC -0.1352211 -0.90738565 -0.24536353 0.5869433 0.57463384 -0.4145293 -0.0884963 -0.7859206 0.036315426 0.8223256 0.52618325 -0.25485674 0.09863638 -0.9736331 0.26230735 0.003204571 0.06658872 0.6202831 0.13481104 0.5931887
HE -0.4083765 -0.55309165 -0.2914599 -0.040488202 0.6641671 0.25426137 -0.2218288 -0.49223483 0.3364249 0.14956881 0.4179809 0.40019155 -0.044807617 -0.28567362 -0.6248198 -0.92690235 -0.22355397 0.21459554 -0.1591367 -0.361279
YD -0.60257304 -0.31060904 0.21275578 0.011044841 -0.40446028 0.314731 0.020082688 -0.48345405 0.021251429 -0.1736997 -0.04661473 -1.1107659 -0.15807907 0.23255078 0.42720568 -0.71319914 -0.07614603 0.7044272 -0.69688165 -0.0875189
SM 0.03792231 -0.131574 0.07203448 0.2393319 0.1451161 0.030140067 0.6962226 -0.9186244 -0.41037574 0.48868245 -0.24823588 0.7065019 -0.06568645 0.44799963 0.12044462 -0.40021244 -0.6762552 0.29846516 -0.5617124 0.08013129
HQ 0.124017306 -0.38527733 0.087032795 -0.12118857 0.16891482 0.40395617 -0.6294719 0.16543844 0.2648562 0.99560815 -0.29163715 0.18300049 0.16186732 -0.370276 -0.48291388 -1.0361736 -0.32582828 0.4141173 -0.5306068 -0.44475392
RY -0.411195 -0.4292642 0.27565604 -0.38482216 0.14185956 1.0195801 0.06552044 -0.4169546 -0.74950904 0.3742252 -0.061841704 -0.21693733 0.15764919 -0.5584129 0.041612342 -0.55816793 0.2936024 0.40915224 -0.113115415 0.25495747
QF -0.008195359 0.023851957 0.034016196 0.23204571 -0.82236785 -0.31842822 -0.31509382 -0.4811186 -0.30231595 1.0368325 -0.4219932 -0.28370246 0.32019493 -0.24202625 -0.0041920324 -0.4401406 -0.3234027 0.20262271 0.022324597 -0.4501328
AH 0.51750237 0.227275 0.057593275 0.59676594 0.036052294 0.33161458 0.0932877 -0.67352057 0.5551003 0.19490534 -0.45555457 0.18968877 0.52818763 -0.22825775 -0.2680083 -1.0013524 -0.058342542 0.38414347 0.1101072 -0.61952275
PH 0.77683556 0.34552568 0.4363945 -0.16173555 0.65991765 0.26981074 -0.3128095 -0.412383 0.33935723 0.09131532 -0.33647713 0.3852371 0.11209223 -0.729787 0.43035173 -0.7330001 -0.37145323 0.61810285 -0.54983103 -0.07075825
YA -0.362226 -0.50998306 -0.22892454 0.11223796 -0.5023262 0.4899337 0.16656499 -0.37659785 0.4280986 0.31912568 -0.14009415 -0.45177865 0.22589442 -0.1717732 0.23279943 -0.069998816 0.28974 0.75510716 -0.52977103 -0.52410525
IH 0.052761156 0.46254337 -0.53612876 0.50752825 0.90619946 0.71324414 -0.32724637 -0.35123697 0.075887665 0.3464971 -0.23907451 0.26698223 0.124181055 -0.5647897 0.4682962 -0.85730195 -0.1980035 0.41755128 -0.30774215 -0.37287432
QH 0.0015318547 0.04065636 0.23753703 0.119534016 0.62414867 0.1270782 -0.71494794 -0.43333462 -0.0896233 0.64531666 -0.5851771 0.34952182 0.39735627 -0.16086377 -0.1950892 -0.9450463 0.16141221 0.48454842 -0.10074052 -0.7433749
TH -0.012257482 -0.036893595 -0.09210913 0.54903394 0.8647095 0.8431976 -0.34428844 0.10550569 0.44300243 0.25365144 -0.06836221 0.1389334 0.34515864 -0.6936379 -0.26689953 -0.4951663 -0.8534544 0.48231396 0.025155837 -0.37137872
TY -0.39302766 -0.79146445 0.28634372 0.1433895 0.46756956 0.86511445 0.12064443 -0.030663049 -0.47300023 0.14461663 0.33153957 -0.63421124 0.58044255 -0.29775894 -0.086011544 0.15021881 -0.59233034 0.62160677 -0.14061326 -0.3286739
AM 0.42991197 -0.36587456 -0.3229927 0.50951356 -0.35061505 0.035000764 0.99247944 -0.5900915 -0.11292899 0.4130077 0.04556637 0.29119807 -0.16614181 0.46745244 -0.013861281 -0.8071496 -0.22687161 0.51166624 -0.38093492 -0.5191838
FN -0.78380287 0.22404052 -0.09318051 0.43932143 0.19941217 -0.14713128 0.23548545 -0.85393775 -0.30562082 0.51378745 -0.46330336 -0.6735852 -0.08616879 -0.6404962 -0.43659988 0.55777615 -0.41988575 -0.05591051 -0.2004233 -0.26038682
MV -0.38582894 -0.10124295 0.1886518 0.34464887 0.25810415 0.015687117 0.23876521 -0.78987914 -0.01654079 0.0010703809 0.7868037 0.06188189 -0.9500807 0.32736787 -0.19938727 -0.13944063 -0.26684818 0.44624376 -0.0055475864 -0.9209693
HA 0.4641552 -0.69702566 -0.16155286 -0.26083308 0.23011655 0.6216618 -0.18061797 -0.8632488 0.6412755 0.6447779 0.05216325 0.40928227 0.07704352 -0.11334106 -0.46352354 -0.3734228 -0.10622343 -0.017548827 -0.1517886 -0.4915062
RM -0.024393534 -0.021329863 -0.0588912 -0.18172275 0.16974764 0.616087 0.73695743 -0.75992763 -0.55933326 0.6969411 -0.1409715 0.721562 -0.59800696 0.054023627 -0.009446364 -0.81411725 0.10859873 0.30707824 -0.20845953 0.14732163
YT -0.6024432 -0.20732455 -0.29537496 -0.022253208 -0.45056432 0.41801706 -0.22093314 -0.05401983 0.15449661 -0.02484208 0.39353052 -0.030701343 0.25594142 -0.23074654 0.7003894 -0.3087623 -0.6060828 0.6856975 -0.6719842 -0.77869064
HV 0.078663364 0.059898235 0.4003329 0.052795075 0.36397767 -0.0028749253 -0.6897832 -0.75116736 0.08167518 0.2936002 0.49367428 0.17139813 -0.09715549 0.04625227 -0.077834286 -0.78964454 -0.56718177 0.06350525 0.14134166 -0.74403346
YQ -0.54734033 -0.13267832 0.13893142 0.07193569 -0.4220726 0.012862216 0.021276318 0.19572262 -0.020665009 0.46104133 -0.20285511 -0.31637427 0.23784909 -0.422266 0.16602194 -0.6702061 0.034062415 1.0471556 -0.8666698 -0.35605413
CE -0.33645177 -0.16215444 -0.20129277 0.08672716 0.34134826 -0.36039287 0.075413525 -1.1284024 0.51405776 -0.1768462 0.59197974 0.006258367 -0.026307842 -0.738248 -0.070356265 -0.30916584 0.15896009 0.57486016 -0.27764553 0.12593664
YI 0.05302377 -0.46854624 -0.20520695 -0.22798005 0.052877706 0.12905025 0.12270802 -0.10465654 -0.41531134 0.29640433 0.17326069 -1.2259003 -0.052984912 -0.32515582 0.32634845 -0.48234808 -0.24158975 0.16842404 -0.8477446 -0.6187537
HI 0.63056415 -0.31214178 -0.20574255 -0.5765224 0.526168 0.34467632 -0.3869287 -0.5005514 -0.14217655 0.70208764 0.13979429 -0.48853815 -0.022617942 -0.35993668 -0.35069162 -0.7419752 -0.6514265 -0.40017357 -0.2832002 -0.5051017
KC 0.09858471 -0.6606734 -0.06430667 0.78954935 0.6321688 -0.29723644 -0.37689137 -0.8797154 -0.0006660017 0.44724697 0.4912653 -0.33825967 0.20616859 -0.93311185 0.34800786 -0.38707665 -0.049505938 0.094452746 -0.15287386 0.28284281
CK -0.047091447 -0.5965614 -0.50167483 0.14807795 0.098757274 -0.3059869 -0.14313683 -0.9047671 0.62459016 0.15922782 0.6971007 -0.37117803 0.16251987 -1.1186001 0.15375707 -0.23282766 0.12847312 0.21684034 -0.4935324 -0.096291944
IY -0.3289932 -0.078266054 -0.31625408 0.25620124 0.43426952 0.9124706 0.013866246 -0.5362685 -0.50960463 0.25746506 0.0946253 -0.66209024 0.24208927 0.07277468 0.6397774 -0.3841588 -0.039507985 0.5526555 -0.5427513 -0.15286072
MD -0.47047168 -0.35619876 -0.023110095 -0.18587755 -0.24444865 0.35665515 0.45949516 -0.7659619 0.12893154 0.109774284 0.2833626 -0.51282495 -0.94871074 0.46148083 -0.4097683 -0.30426207 -0.5077252 0.2602561 -0.20171282 -0.19588104
VM 0.4937457 0.12188275 -0.4891131 -0.24657375 -0.064574584 0.44494373 0.668768 -0.72966903 -0.5109397 -0.015154582 0.2946936 0.25785524 -0.058702964 0.21138668 0.20068704 -0.25367528 -0.2655359 0.82788545 -0.27250564 -0.44615394
QY -0.43511677 -0.67288214 0.3472108 -0.30833733 0.1435067 0.18011685 -0.24353932 -0.4482942 -0.88892543 0.62313807 -0.055571783 -0.51622397 0.43315172 0.16253811 0.050016187 -0.47419897 0.26797843 0.53199035 -0.16619793 -0.5899283
GM 0.09818299 -0.25275737 0.5451912 0.26280993 -0.36642617 0.20538734 1.0484749 -0.55611897 -0.3306167 0.7507102 0.37956244 0.28209588 -0.702019 0.10718022 0.49305317 -0.52048427 -0.5702732 0.11791984 -0.21726581 -0.13929574
VC 0.48516464 -0.18582924 0.046208292 0.18928084 0.27910978 0.11424062 -0.26593226 -1.0492676 0.20331968 -0.023349866 0.42405415 -0.6229041 0.5446279 -0.7346943 0.13854669 0.35203785 0.14669627 0.8319395 -0.021816958 -0.04961469
DH 0.09812948 0.54754966 -0.3009049 -0.19461632 0.6639512 -0.033072896 -0.10768535 -0.49478865 0.21083672 0.21549682 -0.4927417 -0.24030393 0.3449934 -0.2329954 0.32853937 -1.2034764 -0.54757327 0.5753676 0.40173152 -0.2123103
FF -0.4830197 0.22066718 -0.30654377 0.3213952 -0.7202585 0.03642407 -0.09688876 -0.8047684 0.33279842 0.9716283 -0.34643543 -0.641254 0.0030679782 -0.59155166 0.09632358 0.19936521 -0.6884713 0.09731122 0.11578604 0.19160248
NY -0.6115787 -0.019234464 0.30602303 -0.48480365 -0.23191506 0.40204415 0.038915653 -0.67847276 -1.0855516 0.1462824 0.6394209 -0.19127199 0.44158623 -0.4068009 -0.054381654 -0.25936335 -0.22418185 0.4202712 -0.85434306 -0.078501165
AC 0.447019 -0.47389415 0.24319753 0.8890341 0.13300009 -0.16937104 0.20511852 -0.9911804 0.5882287 0.38837004 0.20268066 -0.28403965 0.35587043 -0.18213236 -0.15314466 -0.13885708 0.19870414 0.64437455 -0.15068649 -0.24341673
CR -0.01005102 -0.04856315 0.21419364 -0.13226782 0.50634706 -0.09496506 0.3273596 -0.7888054 0.6679272 -0.008031275 0.105644576 -0.46139655 -0.18364052 -1.0252669 -0.1537658 -0.5026442 0.51863855 0.22532646 -0.22386762 -0.45840862
MP -0.26410088 -0.535149 0.13501327 -0.22466803 0.34913275 0.053108674 0.37188518 -0.37302503 0.3607047 0.28849584 -0.01392555 0.2966247 -1.5092753 -0.18312232 0.057516996 0.5602603 -0.47567853 0.49919412 -0.5229678 -0.5294099
YN -0.682036 0.27250862 0.23519139 0.21346688 0.23166054 -0.19368851 0.40719515 -0.091848336 -0.40398207 0.015502084 -0.03512584 -0.72436243 0.3577758 -0.4377041 0.10856188 -0.19374666 -0.40138626 0.68489987 -0.8613751 -0.70745844
QM -0.10913403 -0.3807882 -0.113975205 -0.05725613 -0.06457229 -0.31463036 0.2282512 -0.4503444 -0.83684605 0.96259046 -0.09234666 0.4399394 -0.24285072 0.53219515 -0.05048649 -0.7930215 -0.1159079 0.4758057 -0.35322008 -0.6079473
CP 0.15828061 -0.3439997 0.41071185 -0.24452811 0.661667 -0.4176554 -0.41427365 -0.9819663 0.68632233 0.28359157 0.17199019 -0.168341 -0.2639324 -0.83660907 0.49547672 0.27689454 -0.046236604 0.4501758 -0.48639476 -0.06514498
DM 0.20989989 0.099725604 -0.5928978 -0.24447581 0.054960344 -0.1433899 0.76072496 -0.4634264 -0.21059951 0.3297964 0.012692513 0.13081308 -0.4506603 0.4257298 0.3842264 -0.9723684 -0.76011693 0.6665873 0.028119516 -0.23134136
YP -0.63677645 -0.29778355 0.4293473 -0.10598716 0.055372193 -0.008985511 -0.22879353 -0.006586775 0.16244513 0.09488013 -0.3369353 -0.39429754 -0.33687803 -0.31315562 0.7199303 0.12053528 -0.19445643 0.96335393 -0.71129227 -0.5018262
MT -0.5506509 -0.22542341 -0.638634 -0.1712102 -0.3006914 0.529096 0.41630042 -0.3009097 0.16100934 0.18085155 0.64629275 0.6456835 -0.66134644 0.014169381 -0.19344762 -0.04906112 -0.8032805 0.47912058 -0.24179833 -0.8699444
MQ -0.40960017 -0.4243028 -0.14383279 0.032324478 -0.35984173 0.2920971 0.50613254 0.1368536 -0.15298957 0.6712029 -0.1047457 0.09892136 -0.55810374 0.12941064 -0.7852462 -0.22144412 -0.27572477 0.8112374 -0.7157023 -0.5803859
CV 0.120394476 0.07319212 0.25704467 0.23183635 0.29457176 -0.50543475 -0.40099466 -1.3512099 0.185288 -0.014870642 0.8396028 -0.20252225 -0.009492937 -0.28091854 0.3556681 -0.1560188 -0.036281414 0.46191555 0.108495325 -0.4558572
PM 0.58398634 -0.3329516 0.19805118 -0.27389124 0.11968452 -0.07603701 0.6461882 -0.4786039 -0.3440766 0.22696577 -0.06957796 0.4577221 -0.67530733 0.11825444 0.5532678 -0.36163074 -0.63846684 0.64073724 -0.8653791 0.06895913
IM 0.08421608 0.23622836 -0.7427128 0.36516064 0.3565914 0.27711317 0.5874874 -0.72227126 -0.271375 0.63791287 0.019412426 0.2552966 -0.50948834 0.24680023 0.555874 -0.46025994 -0.46442395 0.35605887 -0.7939185 -0.09043477
YF -0.47613037 0.12709035 -0.059352286 0.36392406 -0.9868363 -0.19164172 0.2542298 -0.20162095 0.13356812 0.42881197 -0.08115657 -0.8382654 0.20108497 -0.51940197 0.6074986 -0.39523518 -0.5281111 0.6502655 -0.67965454 -0.027400745
MR -0.49912935 -0.14884208 0.0038317093 -0.17884569 0.019166045 0.3227202 0.82736886 -0.12839477 0.25293222 0.23408061 -0.042437017 -0.09041661 -1.0584184 -0.5163742 -0.6318289 -0.4762355 0.18835743 0.3596448 -0.13340177 -0.8760341
DC 0.024767855 -0.30386284 -0.30968076 0.23313074 0.5813408 -0.24302481 0.107129954 -0.9260088 0.48550585 0.25232995 0.1878935 -0.6564843 0.4429343 -0.33219334 0.35760865 -0.26900193 -0.29950327 0.6552819 0.51207614 0.05916172
TM 0.124381624 -0.3401088 -0.19938098 0.41199097 0.40956777 0.47472617 0.76149076 -0.15500751 -0.18276483 0.549794 0.10430834 0.20667301 -0.025544 0.38750464 -0.2267408 -0.1581034 -1.1055275 0.58113873 -0.41609868 -0.23265788
PC 0.73892057 -0.50690794 0.5830984 0.029286131 0.6971664 -0.2219476 -0.069427684 -0.92042696 0.37050018 0.13180058 0.28857833 -0.16332053 -0.048947018 -0.6082893 0.2608622 0.11504709 -0.2087206 0.59897053 -0.67351305 0.2735842
MN -0.5662594 0.07458156 -0.14001927 0.17333105 0.4616731 -0.046727538 1.1389972 -0.6215652 -0.19117503 0.30072996 0.23436435 -0.27305815 -0.5892241 -0.08366729 -0.6902751 0.30554363 -0.5576255 0.28356376 -0.6592147 -0.5626431
NM 0.01849129 0.23772855 -0.2173112 -0.044269197 -0.19112454 -0.002344199 0.60381484 -0.83503634 -0.563941 0.5504671 0.62718064 0.6060023 -0.39383 -0.046843488 -0.12770434 -0.26994658 -0.56027585 0.35579586 -0.87279606 0.002910296
RC -0.008926452 -0.22133997 0.38392228 0.19767411 0.5332106 0.32252806 -0.013441925 -1.1414665 0.11112658 0.5254215 0.028933682 -0.09434819 -0.052049898 -0.7268368 -0.0173464 -0.28703058 0.709591 0.4720341 0.12709238 0.47018757
IC 0.24213506 0.08901109 -0.29240942 0.755646 0.9157418 0.2949047 0.023016674 -0.9949492 0.31529292 0.5930019 0.04719323 -0.5213341 -0.10934551 -0.29912275 0.38716975 -0.17372052 0.19973849 0.45354733 -0.4734767 0.17545843
FY -1.0120873 -0.33902025 0.00514503 -0.09841268 0.055858683 0.5721489 -0.40572736 -0.6223389 -0.43883714 0.60048294 0.024478914 -0.6770213 0.5353792 -0.62084913 0.12462731 0.30437315 -0.050524916 0.3524538 -0.045760885 -0.037286066
CA 0.5308382 -0.53946674 -0.23644054 -0.012895271 0.18683475 0.008922641 0.017800128 -1.3247503 0.76700044 0.28540832 0.29359013 -0.03745694 0.16358656 -0.3513772 -0.064788364 0.16498406 0.31195548 0.48070484 -0.26185068 -0.25680086
TC 0.1549365 -0.7473944 0.22659446 0.715081 0.6918839 0.33888388 -0.17884444 -0.48884696 0.60921097 0.5165229 0.5293833 -0.63909775 0.51399016 -0.37055817 -0.1338094 0.29095355 -0.6268727 0.6212551 0.068659075 -0.10902197
NH -0.05314183 0.904331 0.09795467 -0.003698074 0.15762994 0.37730205 -0.46371067 -0.818382 -0.2005348 0.46909535 0.2200193 0.50247157 0.4534171 -0.5498048 -0.2700731 -0.49558845 -0.37724692 0.32032472 -0.6819586 -0.21452427
CD 0.061021727 -0.26849815 0.10936007 -0.2900917 0.23952137 0.07835835 -0.24980247 -1.3653469 0.5856541 -0.10058498 0.38159853 -0.8895353 -0.18184927 -0.27976832 0.042743977 -0.57704955 -0.048057877 0.23067868 -0.49196514 0.5227503
HF 0.17405343 0.19320956 -0.15031938 -0.12103227 -0.29125533 0.1999551 -0.24867193 -0.36491132 0.4365638 0.96210104 0.031086829 -0.09403824 0.020924877 -0.61599237 -0.1439903 -0.84137523 -1.0953743 -0.27770847 -0.29479674 0.0029603904
CQ 0.17165962 -0.18360318 -0.066581324 0.06906348 -0.021589791 -0.29870844 -0.21889496 -0.62302995 0.45061958 0.87673223 0.0072346637 -0.2430808 0.50226647 -0.6597151 -0.20282596 -0.11131278 0.25718874 0.7851858 -0.8290894 0.0018782332
FC -0.6070285 -0.24815378 0.10547876 0.35444194 0.31313926 -0.16332498 -0.381587 -1.1324292 0.3379962 1.0813519 0.08003366 -0.6073817 0.2723083 -0.6221986 -0.070476025 0.40425834 0.046356518 0.32845294 0.061964277 0.22118637
FH -0.66849244 0.52821887 -0.09726077 0.29033548 0.43041888 0.57316077 -0.5325375 -0.7458099 0.52006304 0.86123383 -0.43938005 -0.14207023 0.3394874 -0.67099994 0.022290306 -0.27072927 -0.17367616 0.16459854 0.41847628 -0.2176829
GC 0.27827024 -0.3083503 0.93486816 0.5867632 0.13962588 0.04090162 0.14427319 -0.8315382 0.20908327 0.70148367 0.70376754 -0.41883206 -0.0035732512 -0.4939342 0.20529938 0.117207244 -0.14653945 0.44342393 0.0057352674 -0.02198085
QC 0.12832722 -0.8088891 0.27969968 0.46539626 0.37844327 -0.6274935 -0.8052563 -0.86694676 -0.006413683 0.890689 0.18807946 -0.2572989 0.5035749 -0.39949706 0.051921222 0.0373758 0.19243304 0.37481308 -0.3704675 -0.3990533
CN 0.08255725 0.0041936813 0.0061703282 0.4380944 0.78125864 -0.7742416 0.31812915 -1.0704316 -0.00522149 0.1586336 0.33283222 -0.48717257 0.31447652 -1.0096555 -0.14074455 -0.09742516 0.15831856 0.23575702 -0.73307335 -0.249708
HD 0.12608641 -0.232817 0.1586182 -0.399395 0.044868063 0.59694195 -0.64554965 -0.7946134 0.3988494 0.2603322 0.21613342 -0.6141183 -0.24263068 0.20746031 -0.3460377 -1.049662 -0.5847519 0.006501029 -0.045236055 -0.04601037
WL -0.32205486 0.4411403 0.3274653 -0.4222823 -0.29295698 -0.2206142 -0.36308685 -0.5191237 0.25830913 0.49667206 -0.035477392 -0.26215425 -0.78020513 -0.10383641 -0.4813127 -0.21959691 -0.16794163 0.8231111 0.09715802 -0.45099932
YY -0.8007817 -0.55750483 0.11876777 -0.14036226 0.058674615 0.3443009 0.30102998 0.012207884 -0.51255554 0.03727355 0.33837065 -0.8188058 0.4357976 -0.2578624 0.49760655 -0.655728 -0.04587991 0.8734932 -0.66651076 -0.39435548
CI 0.69144976 -0.41495317 -0.30080685 -0.2677288 0.4430976 -0.025861088 -0.12868087 -0.99336463 0.072263926 0.4045721 0.6241147 -0.85518736 0.034691412 -0.48203835 -0.005848081 -0.12800746 -0.12539269 -0.066119485 -0.43781236 -0.44164988
HN -0.3908741 0.26323283 0.050236158 -0.09932305 0.9272561 -0.15980352 0.21380587 -0.29207653 -0.29940063 0.5742905 0.17152947 -0.14563414 0.08993663 -0.49041876 -0.7169618 -0.6822235 -0.78251076 -0.07765093 -0.5610263 -0.5511919
HY -0.29258507 -0.8343662 0.26625928 -0.5709865 0.5616668 0.707053 -0.14567643 -0.22000688 -0.1620246 0.7191238 0.32697663 -0.12842149 0.6685201 -0.19974716 -0.13233265 -1.0008913 -0.19605759 0.12188939 -0.4968336 -0.42449495
HH -0.005518464 0.09267852 0.242196 -0.26559186 0.8677195 0.45164388 -0.67790216 -0.4494148 0.55932885 0.5276221 -0.16004843 0.3850772 0.2632531 -0.47487435 -0.14654496 -1.2281387 -0.57352084 0.13480745 -0.10770574 -0.21107161
CT 0.025063522 -0.07943749 -0.20619139 -0.34245375 -0.081512064 0.12577699 -0.35184282 -0.6584075 0.7098395 0.16912071 0.8792707 0.15855509 0.1791258 -0.67099506 0.3558313 -0.09566039 -0.40413332 0.5960774 -0.22192112 -0.4638972
WE -0.7092355 0.076161385 0.30734405 -0.49469706 -0.13650337 0.08013674 -0.18505202 -0.49030992 0.11680208 0.22661772 0.054788142 -0.08331444 -0.53314173 -0.09520853 -0.06607167 -0.33093163 0.097445875 1.071735 0.22081985 -0.14159763
SW -0.42733544 0.31489408 0.7654322 -0.07556072 0.06236088 0.28699994 -0.11453998 -0.58359396 -0.1327679 0.44648322 -0.63805854 -0.27502757 -0.2093475 0.040305965 0.039787788 0.07493872 -0.77611876 0.6689666 0.30756724 0.2714407
MI -0.037200157 -0.49740294 -0.27737534 -0.43615612 0.27418417 0.47195438 0.5720724 -0.34235948 -0.6120236 0.49014798 0.31968126 -0.4509123 -0.8275552 0.16668342 -0.5606101 -0.20393723 -0.45837474 -0.053979542 -0.2670955 -0.8794562
LW -0.004048182 0.23488739 0.4637238 -0.37162793 0.07429274 0.051625438 -0.09941641 -0.20994063 -0.021818224 0.6229032 0.12181897 -0.35383117 -0.25072107 -0.44594714 -0.3998493 -0.30354744 -0.4199003 0.9689526 0.54952693 0.08111862
YH -0.65716 0.18375146 -0.021114698 0.3530578 0.30368745 0.18125616 -0.28426307 -0.30238402 0.53889596 0.20926711 -0.029222334 -0.21320741 0.75253254 -0.5115998 0.45028695 -1.0043981 -0.08605433 0.73069435 -0.5160542 -0.3235736
NC 0.08872417 0.085426554 0.06462513 0.15417573 0.23196644 -0.23441985 -0.455898 -1.2776062 -0.2204032 0.4759903 0.7592264 -0.075006805 0.16758521 -0.46712357 -0.32061437 0.2859141 -0.19301896 0.62593496 -0.68011373 0.41637465
WS -0.5671472 0.1360737 0.54393834 -0.83324784 -0.24653777 -0.051762264 -0.15403871 -0.7462515 0.004359839 0.34157997 -0.25052723 -0.20246625 -0.41768563 0.03918035 0.072551765 0.09518328 -0.50444335 0.35280293 -0.07372979 -0.46968633
WK -0.4714812 -0.05257407 -0.13306846 -0.20473112 -0.52786356 0.10979637 -0.5602698 -0.1673198 0.076978035 0.31431904 0.3233002 -0.6180179 -0.7557818 -0.7434371 0.113902666 -0.24038267 -0.068234034 0.47902358 0.10117971 -0.40124238
MF -0.39512447 -0.00990738 -0.2791416 -0.012250454 -0.8978469 0.028881095 0.7497581 -0.35792348 0.49509954 0.83051986 0.1753921 -0.16347237 -0.6675426 -0.15563135 -0.30804005 -0.23705886 -0.9756458 0.20680478 -0.22874111 -0.09788598
HC 0.20370357 -0.5009579 0.3735322 -0.024640894 0.7726565 0.13655195 -0.40405577 -0.78928196 0.6945634 0.6856337 0.5165768 -0.25872597 0.346985 -0.3461656 -0.22784707 -0.68277776 -0.16709125 0.28297743 -0.25573656 0.024776155
EW -0.3446756 -0.06863788 0.013310613 -0.12232824 -0.17774221 -0.034718286 -0.17197788 -0.11294804 -0.3170469 0.7159019 -0.037282635 -0.27850416 -0.6263705 -0.4268176 -0.109518506 0.04854278 -0.36952552 1.0442897 0.71169204 0.16122615
WR -0.5228887 0.36355287 0.43454152 -0.41394067 -0.20810817 0.2731145 0.07703767 -0.2051131 0.2006566 0.42405924 -0.45801723 -0.5441686 -0.8319942 -0.63292414 -0.16077986 -0.31674513 0.064338125 0.48581854 0.27342087 -0.49499124
CF 0.21100959 0.2039052 0.02669345 0.030631483 -0.40098438 -0.19949377 -0.042504586 -0.8984256 0.71340495 0.34138134 0.4419302 -0.74132866 0.42493942 -0.9980417 0.28360075 -0.39737323 -0.51419127 0.260986 -0.12848002 0.26896656
GW 0.011575031 0.11524577 1.0794065 -0.027207134 -0.58708644 0.30148542 0.19776258 -0.3243168 0.058987044 0.6354364 0.16923973 -0.49666154 -0.6443024 -0.4680381 0.26547366 0.0038527683 -0.55893344 0.48676497 0.4958551 -0.16677311
KW -0.087336175 0.025590932 -0.0154549545 0.27175087 -0.33346364 0.010844409 -0.5446892 -0.20599037 -0.3956191 0.70944494 -0.0985283 -0.38116595 -0.3785683 -0.67927957 0.08631259 -0.29318562 -0.36553967 0.3888078 0.48471874 0.029361147
DW -0.30650356 0.33360922 0.13779914 -0.44947898 -0.056326963 -0.07741346 0.0043569 -0.23362106 -0.059231147 0.38111556 -0.3142883 -0.80191815 -0.17497379 -0.13353837 0.20177881 -0.23411803 -0.7764735 0.9625213 0.7027783 -0.15002066
CH 0.25596312 0.17529027 0.021689126 0.11311751 0.71273154 0.011233698 -0.42001873 -0.95840305 0.92226416 0.42003578 0.1995399 0.06620208 0.47785085 -0.740284 0.18186675 -0.7615412 -0.0385773 0.43815574 -0.1649009 -0.11247996
WD -0.50788766 0.15316017 0.47643676 -0.59818983 -0.2339391 0.5272492 -0.4444697 -0.44417363 -0.11715244 0.20366372 -0.22339942 -0.7272702 -0.9342774 0.12179099 -0.0065854006 -0.28452268 -0.30088967 0.76112634 -0.018023247 0.06350072
MM -0.25083697 -0.4537245 -0.22925098 -0.16900653 0.20793523 0.33102623 1.1216255 -0.47155094 -0.15196063 0.5646191 0.2788242 0.41483063 -1.0076349 0.45309013 -0.051373754 -0.6066548 -0.31325132 0.39045027 -0.5754893 -0.44898787
YC -0.37084702 -0.39005876 0.4067747 0.22288671 0.39069852 -0.4060986 0.11739327 -0.6048205 0.30707562 0.41737443 0.43413657 -0.6949379 0.2315803 -0.37759942 0.2863784 -0.29735368 0.261565 0.94473034 -0.6606473 0.0033638086
PW 0.39561665 0.15893193 0.68063736 -0.5341323 -0.08969865 -0.03429667 -0.18250048 -0.23609479 0.06535199 0.5014399 -0.25310555 -0.39708933 -0.62784064 -0.5229909 0.24339135 -0.167669 -0.41134375 0.74450254 -0.014581341 0.053738534
AW 0.047876205 0.0084176585 0.667622 0.10329065 -0.6255611 -0.09062675 0.223559 -0.32435882 0.37187257 0.64205945 -0.47015592 -0.1997769 -0.1623731 -0.18321283 -0.20288557 -0.23907089 -0.20376992 0.9033476 0.4043926 -0.20711993
FM -0.40899634 0.06289852 -0.3742441 -0.10580128 -0.2812657 -0.026014037 0.26945075 -0.9981214 0.10408795 1.2583255 -0.20903897 -0.07010593 -0.3658999 0.29008546 0.26097685 -0.013313635 -0.050521795 0.40839022 -0.46718755 0.029456852
WA -0.10827759 -0.011648736 0.34695804 -0.40667254 -0.32009298 0.5424669 -0.017884731 -0.77489597 0.402051 0.5984794 0.08871772 -0.10663023 -0.43342596 -0.031435326 -0.0091390135 0.22345856 0.18187551 0.81978947 0.21034048 -0.32966495
TW -0.2869368 0.08939513 0.504696 0.016445598 0.12071798 0.53440964 -0.20956367 0.19575983 -0.05260094 0.5012656 0.048399717 -0.6850094 -0.37001526 -0.40391025 -0.08885373 0.32243645 -0.984205 0.89343464 0.4352283 -0.27278036
HM 0.20347787 -0.30818826 -0.11031374 -0.29196534 0.46779102 0.0859543 0.4100489 -0.5566409 0.126375 0.97110206 0.347293 0.7312959 -0.28689876 0.08283821 -0.1310548 -1.2515038 -0.5340255 0.026679706 -0.4883688 -0.09594417
RW -0.2811492 0.08716087 0.50652254 -0.40737414 -0.13859423 0.7019288 -0.18128161 -0.1487857 -0.1619352 0.7283223 -0.23728107 -0.1440471 -0.6092012 -0.56493336 0.014016096 -0.3867843 0.087232806 0.81071264 0.33911127 0.2429839
WV -0.34998402 0.43494666 0.61711794 -0.04540493 -0.11045172 -0.036899142 -0.6015718 -0.53883654 -0.16266255 0.37936133 0.14418918 -0.38954878 -0.5212195 -0.016713439 0.29239607 -0.37814608 -0.32401967 0.64933354 0.4744641 -0.49371052
CY 0.011915217 -0.25539666 0.28776407 -0.28328303 0.22178595 0.19863352 0.029629987 -0.97603554 0.10422245 0.23533158 0.93013716 -0.82784563 0.6674099 -0.51810575 0.26642194 -0.3309234 0.3296211 0.6193002 -0.2895129 -0.21727768
YM -0.3707038 -0.15009825 -0.20719339 0.05749717 -0.071469456 0.020316128 0.8207841 -0.20420556 -0.20406789 0.5594093 0.5476487 -0.08897092 -0.17342767 0.1646654 0.6151386 -0.7710077 -0.17112342 0.72705466 -0.9668656 -0.4767601
WT -0.47360563 0.42854702 0.16555312 -0.732345 -0.38975874 0.58805215 -0.5138285 -0.32223287 0.1430567 0.2633645 0.26977548 -0.0541994 -0.38798517 -0.047912594 0.4153414 -0.22970083 -0.6073415 0.8116074 0.04525399 -0.5765308
WG -0.13782583 0.35499027 0.5244598 -0.7610024 -0.025419904 0.13565719 0.3022807 -0.46691668 -0.14425498 0.7855531 -0.19135521 -0.10580773 -0.43165106 -0.37419784 0.48989263 0.03232974 0.0045159953 0.5450608 0.24952543 -0.79389685
MH -0.51691115 0.21446961 -0.19796337 0.17868309 0.6765214 0.6670455 0.2683329 -0.26781633 0.5593082 0.6452243 0.23186775 0.4425391 -0.3126409 -0.08125683 -0.37263742 -0.6814932 -0.21948944 0.49230763 -0.38414288 -0.53574663
MY -0.58305943 -0.5818798 0.060036507 -0.40128317 0.21627119 0.55049396 0.553281 -0.3042714 -0.27027136 0.38325655 0.7052678 -0.5079265 -0.22220582 0.16901313 -0.119496934 -0.12529428 -0.13025211 0.6607942 -0.6516667 -0.53936213
VW -0.05797756 0.48146668 0.29542208 -0.54512024 -0.43791208 0.29363233 -0.30816534 -0.4542867 -0.1345125 0.32120687 0.0038656602 -0.592526 0.19875672 -0.4077761 -0.1576999 0.18538693 -0.26097983 1.0892199 0.46038407 -0.38975278
WQ -0.42446667 0.28636748 0.34978712 -0.3036417 -0.24464191 0.03933967 -0.43508214 0.021434572 -0.106353804 0.7533024 -0.36895934 -0.33007455 -0.37064686 -0.3319109 -0.26801103 -0.3826497 -0.07314802 1.0741055 -0.41322708 -0.022773689
WN -0.4231553 0.77009815 0.42577153 -0.11109931 0.2792742 -0.4107955 -0.111323446 -0.35119572 -0.5337663 0.47399047 -0.13024433 -0.74353236 -0.51215106 -0.36219957 -0.15764074 0.17386243 -0.59592694 0.6263914 -0.4181784 -0.44311866
CC 0.3479352 -0.22223087 0.21687758 0.11311682 0.7606583 -0.15071027 0.058512345 -1.2899164 0.77175796 0.31587076 0.9100632 -0.3972917 0.15795615 -0.5626778 0.1527324 -0.12977822 0.0498525 0.51579183 -0.072277814 -0.10720729
QW -0.23572154 0.06251163 0.47675276 -0.22999011 -0.16571102 -0.17618015 -0.5281481 -0.14772327 -0.41157508 0.9187113 -0.36519733 -0.274694 -0.40402767 -0.03824806 -0.26223037 -0.25986964 -0.23420492 0.7188789 0.38468513 -0.6201199
WI 0.08795283 -0.018832367 0.053192623 -0.7421888 0.03405471 0.25065 -0.33595604 -0.29264432 -0.431006 0.7205334 0.15242532 -0.8679726 -0.7609394 -0.17837735 -0.11511892 -0.25248116 -0.45770636 0.21798918 0.16968279 -0.40038407
WP -0.1691983 0.113187805 0.5942003 -0.424128 0.013911683 0.1415757 -0.544061 -0.37039036 0.36397734 0.51215655 -0.21186791 -0.24937816 -0.9312233 -0.17395414 0.19878471 0.2524832 -0.3545079 0.8548053 -0.10006057 -0.22258304
NW -0.3553503 0.64598763 0.40617955 -0.52080345 -0.33482975 0.1835055 -0.013767123 -0.42689797 -0.4391988 0.6786842 0.26211235 -0.009837463 -0.4331387 -0.392797 -0.2824373 0.05407463 -0.817147 0.5030743 -0.26985177 -0.037173145
FW -0.64204633 0.5315091 0.22262809 -0.27816296 -0.10163099 0.3991342 -0.3905979 -0.5516477 0.28474092 1.007993 -0.21931456 -0.69340307 -0.37894428 -0.42109203 0.08625947 0.14280856 -0.34557134 0.5246356 0.62528515 -0.2297923
IW -0.18244772 0.52955633 -0.18799326 0.10996274 0.33082625 0.5568086 -0.22123808 -0.0045717033 0.043577433 0.81440735 -0.093045264 -0.46706307 -0.70042086 -0.21914305 0.49150935 -0.22268368 -0.69112885 0.58533084 -0.08396522 -0.21582367
WF -0.24167757 0.53558636 0.016283512 -0.14358677 -0.721026 0.0653002 -0.21780136 -0.34866697 0.08710268 1.0721402 -0.056786455 -0.6832779 -0.3361244 -0.37636447 0.20089369 -0.3008259 -0.57043034 0.45460224 -0.09104376 0.05796301
MC -0.37829885 -0.54844344 0.0237381 0.21193764 0.6504258 -0.055296097 0.45457664 -0.82179016 0.39734754 0.6961078 0.98985255 -0.16566387 -0.54505527 -0.2658212 -0.07482538 0.11443459 0.12936917 0.5321466 -0.45298514 -0.14193673
HW -0.12179713 0.25853598 0.34229854 -0.5242449 0.1335764 0.5519574 -0.23059072 -0.24599424 0.49815962 1.2903984 0.16137193 -0.22621417 -0.28553513 -0.4716582 -0.24341261 -0.63722163 -0.43421707 0.21032394 0.19629918 -0.2246589
CM 0.3001987 -0.30181968 -0.049192596 -0.22530389 0.4110114 -0.35743067 0.5072859 -1.1368055 0.20249811 0.53694457 0.7352415 0.20978276 0.06874216 0.07183575 0.23068489 -0.63305205 0.08161105 0.56114227 -0.7949076 -0.033038914
WY -0.6579702 -0.03243577 0.5130923 -0.6619418 0.2782312 0.7354845 -0.41273364 -0.2130008 -0.16973196 0.50225216 0.34267706 -0.5333764 -0.006800384 -0.26574704 0.30276185 -0.5063414 -0.0721221 0.6039935 -0.07154794 -0.38155857
YW -0.63661087 -0.051852223 0.220247 -0.0905628 -0.3009166 0.38972154 -0.07607094 -0.03836989 0.38791868 0.43075743 0.13453895 -0.93232435 0.098976806 -0.35691282 0.5088313 -0.27337205 -0.36178583 0.74604684 -0.25763005 -0.36621734
WH -0.06695936 0.41077355 0.22802122 -0.26014373 0.5151011 0.5100128 -0.5351606 -0.35468933 0.39805225 0.51632005 -0.071663275 -0.20241563 -0.49360535 -0.54968905 0.19582012 -0.7580611 -0.031676598 0.42569005 0.01103494 -0.20351599
WC -0.23200908 0.061031953 0.61908275 -0.08984063 0.24859226 0.034639955 -0.338306 -0.7173507 0.4146818 0.7747916 0.35723993 -0.5965434 -0.009692689 -0.39808616 0.31360865 -0.01054731 -0.17806411 0.62083715 -0.18579051 0.0685358
KX -0.027623443 -0.842211 -0.14830683 0.5996723 -0.22647005 0.11012205 -0.3534304 -0.4860164 -0.42798945 -0.040750924 -0.31365487 0.090018146 0.119963124 -0.5249136 0.24958947 -0.3112969 -0.6646953 -0.23058388 -0.15704767 -0.20553918
CW -0.07309657 0.28102794 0.21940842 -0.16649546 0.17995001 0.21215089 0.07240711 -0.7831422 0.35728016 0.46719232 0.6153348 -0.708975 -0.06301394 -0.7174919 0.1730596 -0.19063622 0.116210505 0.5147943 0.25882623 -0.21406119
MW -0.31792885 -0.030427953 0.21469422 -0.20717697 -0.13180925 0.17747399 0.253568 -0.18070282 0.11437727 0.8389169 0.2691071 -0.3476992 -0.7923227 -0.06883783 -0.21802324 -0.20976524 -0.112953514 0.6612051 -0.06183515 -0.41624954
WM -0.08516389 0.1525845 0.06525206 -0.28782794 -0.009379174 0.12932993 0.3961859 -0.5262239 -0.20248178 0.75971127 0.2538139 -0.09284158 -0.52515006 0.13354373 0.20172578 -0.267194 -0.12007299 0.6326308 -0.3554779 -0.28563547
LX 0.10294986 -0.37810737 0.07555508 -0.040105067 -0.08798085 -0.024945866 -0.037054386 -0.3109463 -0.0735744 0.040960282 -0.10112849 0.07804357 -0.069262266 -0.66261667 -0.3609817 -0.5168999 -0.20776291 0.65901715 0.3221337 0.083957076
WW -0.30994943 0.36321333 0.5567021 -0.43321726 -0.08614736 0.3094961 -0.30591252 -0.36507824 0.11976399 0.66833097 -0.029823752 -0.5474032 -0.400032 -0.44878992 0.35998446 0.09456252 -0.42604634 0.5540776 0.18312581 -0.25287127
SX -0.08734633 -0.35452396 0.24715394 0.35399058 0.12087528 0.33607638 0.007817124 -0.65239143 -0.0032525659 -0.0918453 -0.34390947 0.12490805 0.2792295 -0.17736427 0.32189432 -0.009504027 -0.7918326 0.17940754 -0.15428354 -0.24064262
EX -0.2328105 -0.5478977 -0.4941738 0.35473853 -0.12927736 0.00076224416 0.17064331 -0.56270146 -0.29915607 0.14981797 -0.30939996 -0.054019175 -0.1722991 -0.32816643 -0.01914231 -0.13375251 -0.48308417 0.1998747 0.22068034 -0.007915948
QX -0.19287196 -0.41948688 0.33238885 -0.05757449 -0.043234617 -0.10688231 -0.15182748 -0.32986122 -0.56157404 0.3996435 -0.46746036 -0.010320506 0.14397137 -0.15748656 -0.012561487 -0.39933336 -0.22827879 0.23518203 -0.27911806 -0.5940944
DX -0.24181156 -0.27554598 -0.54438776 -0.006447739 0.12125214 -0.08124005 0.22837502 -0.5696144 -0.2319666 -0.18570496 -0.29351148 -0.3512358 -0.110888824 -0.050139327 0.20199688 -0.4949794 -0.52426684 0.5599297 0.35436073 -0.0978214
FX -0.5482747 -0.0506628 -0.0007496232 -0.032845095 -0.043249827 0.08906574 -0.077707075 -0.6625706 0.06950987 0.65036505 -0.018822066 -0.31048483 -0.26133192 -0.5371978 0.068051815 0.09275587 -0.16747391 0.24299079 0.033216182 -0.0935889
VX -0.01802966 -0.1729037 -0.09776176 -0.24555281 0.057056658 0.31332332 -0.0006576089 -0.46469888 -0.10582365 -0.06328354 -0.07113714 -0.07762848 -0.20350361 -0.33423436 -0.041962035 -0.102838166 -0.164219 0.5543199 -0.15071702 -0.3129057
IX -0.01437763 0.11154582 -0.48497376 0.38553813 0.08189434 0.2734595 -0.045636732 -0.39356422 -0.21192202 0.13306221 -0.051045362 -0.13483894 -0.38481793 -0.21874233 0.121755905 -0.21021774 -0.4311623 0.4669902 -0.39170986 -0.32052854
RX -0.47247118 0.00081424613 0.37639225 -0.18279059 -0.044837505 0.6511728 0.14205821 -0.46916863 -0.24169795 0.28880835 -0.21327111 0.035245396 -0.15774208 -0.7281915 0.08311745 -0.35095 0.0029207855 0.14908622 -0.17412488 -0.17085388
PX 0.36795074 -0.4506505 0.24192253 -0.07579412 0.083134644 0.16163923 0.03859413 -0.38910237 -0.050045837 -0.030424789 -0.2401494 0.1583144 -0.25942376 -0.30197734 0.24618414 -0.23823115 -0.40637425 0.38613123 -0.4073192 -0.26703933
YX -0.66557086 -0.28718308 0.32909107 -0.07323203 0.05014745 0.25108877 0.20056309 -0.23692884 -0.0029169268 0.24381948 -0.023271577 -0.3646168 0.09869498 -0.5190846 0.38730237 -0.5555301 -0.06359788 0.56187713 -0.39962688 -0.28018567
AX -0.08292432 -0.12335601 -0.014130268 -0.0033742995 -0.110833995 0.17050539 0.3519496 -0.5307472 -0.11752229 0.038039945 -0.23213036 -0.17276034 -0.15790671 -0.32319215 -0.18724036 -0.50519985 -0.00693681 0.37588975 0.07520303 -0.22812727
TX -0.054265223 -0.28990066 0.17100099 0.18743327 0.079554506 0.44025663 0.0013043323 -0.14983086 0.0069141444 0.29989433 -0.03471543 -0.112468265 -0.09166188 -0.38667172 -0.052094474 0.029632146 -0.47863394 0.42677832 -0.06393626 -0.4869962
NX -0.10727961 -0.0057496824 -0.0017507001 0.002741182 -0.12811945 0.0013349109 -0.06900181 -0.5247833 -0.32583904 0.14255269 -0.025997257 0.0925413 -0.17122708 -0.4861945 -0.165664 -0.15515652 -0.32394132 0.39493364 -0.3945982 -0.14861827
GX -0.011333612 -0.22863925 0.137061 0.09358993 -0.21642432 0.18954127 0.13220656 -0.5266109 -0.06961204 0.20597276 0.046186205 -0.3500165 -0.017638741 -0.23643114 0.13980165 -0.28931522 -0.3851441 0.2727293 -0.014090313 -0.26128662
MX -0.15478145 -0.2371063 -0.0050679944 0.063556306 -0.05895093 0.049569942 0.12118357 -0.49541238 -0.1213472 0.28465542 0.0026731205 -0.010061838 -0.19043152 -0.1539787 -0.118569024 -0.11462135 -0.24271077 0.44860217 -0.14303747 -0.36428207
WX -0.24321079 -0.069892935 0.024998283 -0.053885877 0.0011750079 0.1932157 -0.13361368 -0.43167388 -0.033588186 0.2625181 -0.099113084 -0.1715926 -0.21808961 -0.21858948 0.04554257 -0.27699196 -0.27634972 0.43597415 -0.07867351 -0.19631372
HX 0.056154624 -0.29127762 -0.078094244 0.14457276 0.1049766 0.24798767 -0.08668756 -0.4396413 -0.023298064 0.15649326 -0.0069326973 0.018348565 -0.07754272 -0.5085025 0.067628466 -0.4232987 -0.26596388 0.14814763 -0.13422795 -0.32130817
CX -0.099018015 -0.1106057 0.048286345 -0.009143208 0.0070531555 0.090663046 0.012396117 -0.32137358 -0.040182877 0.1337295 -0.11352352 -0.098246984 -0.08322037 -0.2753073 0.024371894 -0.17849824 -0.12078387 0.31882617 -0.08213941 -0.17679699
